tree
version=v4
num_class=1
num_tree_per_iteration=1
label_index=0
max_feature_idx=31
objective=regression
feature_names=token_age_hours short_term_heat price_change_6h mentions sentiment liq_mcap_ratio onchain_multiplier safety_penalty sentiment_consistency ultra_short_heat buy_sell_ratio_5m price_change_1h volatility_proxy market_cap_log mention_velocity volume_velocity day_of_week hour_paris is_weekend is_prime_time median_peak_return entry_vs_median_peak win_rate_7d market_heat_24h relative_volume kol_saturation kol_freshness mention_heat_ratio consensus_val conviction_val breadth_val price_action_val
feature_infos=[0.10000000000000001:27836.599999999999] [0.029000000000000001:6] [-90.480000000000004:3622] [0:40] [-0.28699999999999998:0.81200000000000006] [0:248.72552899999999] [0.61699999999999999:1.3149999999999999] [0.63800000000000001:1] [0.39400000000000002:1] [0.0030000000000000001:12] [0:1] [-90.480000000000004:1605] [0:999.99900000000002] [7.3317149697264661:21.03140730112445] [-3.7879999999999998:3.1269999999999998] [-11.167:21.716999999999999] [0:6] [0:23] [0:1] [0:1] [1.0223:1.5] [0.027400000000000001:5] [0.12820000000000001:0.5625] [-11.800000000000001:39.670000000000002] [0:40.666699999999999] [47:277] [0:1] [0:40] [0:1] [0.25:1] [0:1] [0.215:0.89600000000000002]
tree_sizes=479 648 580 575 582 657 643 661 578 582 653 580 487 581 659 580 587 498 587 498 582 660 572 668 500 501 573 497 506 505 495 504 648 592 504 655 503 582 590 585 490 490 582 576 668 658 587 505 490 508 509 731 488 676 497 588 509 583 505 660 583 666 668 671 658 587 589 505 506 591 663 504 584 661 587 583 504 573 503 665 582 505 505 507 669 584 581 492 665 493 505 574 591 587 750 493 507 588 575 503 585 675 660 577 581 510 666 497 577 576 502 574 750 590 503 592 739 592 508 589 497 663 677 591 592 509 505 742 584 673 496 594 669 579 579 594 593 590 745 511 509 747 500 592 510 579 664 584 508 662 498 499 665 598 508 507 506 679 744 591 500 485 584 675 680 503 507 759 501 588 760 590 755 674 588 666 502 583 582 676 588 758 759 596 591 671 749 516 511 510 668 580 682 500 661 510 595 511 600 586 590 580 512 603 664 668 681 585 602 506 678 600 588 512 500 582 515 587 506 512 592 501 587 599 665 604 507

Tree=0
num_leaves=4
num_cat=0
split_feature=15 31 24
split_gain=30.0295 16.379 9.35392
threshold=-0.23849999999999996 0.52450000000000008 0.33620000000000005
decision_type=10 10 10
left_child=1 2 -1
right_child=-2 -3 -4
leaf_value=0.88260197531261364 1.2681510059515961 1.1212055103089418 1.0072750176747614
leaf_weight=108 27 41 73
leaf_count=108 27 41 73
internal_value=1.00025 0.967664 0.932884
internal_weight=249 222 181
internal_count=249 222 181
is_linear=0
shrinkage=1


Tree=1
num_leaves=6
num_cat=0
split_feature=0 6 10 10 1
split_gain=17.941 10.1153 10.5527 7.53661 4.10105
threshold=12.650000000000002 1.1655000000000002 0.48300000000000004 0.54900000000000015 1.7610000000000003
decision_type=2 10 2 2 8
left_child=3 4 -3 -1 -2
right_child=1 2 -4 -5 -6
leaf_value=0.17662683656284589 -0.18701737024478601 -0.082743695438247791 0.11033885965219589 0.013907618493082549 -0.066440272635900396
leaf_weight=45 35 40 42 38 49
leaf_count=45 35 40 42 38 49
internal_value=4.13119e-10 -0.0510644 0.0161522 0.102129 -0.116681
internal_weight=249 166 82 83 84
internal_count=249 166 82 83 84
is_linear=0
shrinkage=0.269036


Tree=2
num_leaves=5
num_cat=0
split_feature=15 30 3 4
split_gain=15.9388 9.42582 8.98961 2.20036
threshold=-0.23849999999999996 0.0075000000000000006 1.5000000000000002 0.10650000000000001
decision_type=10 10 2 2
left_child=1 3 -3 -1
right_child=-2 2 -4 -5
leaf_value=-0.071285927861643797 0.19517882730079553 -0.024480720367308789 0.12648623847897814 -0.17578885840631001
leaf_weight=35 27 125 37 25
leaf_count=35 27 125 37 25
internal_value=6.03334e-10 -0.023738 0.00999939 -0.114829
internal_weight=249 222 162 60
internal_count=249 222 162 60
is_linear=0
shrinkage=0.269036


Tree=3
num_leaves=5
num_cat=0
split_feature=26 0 22 11
split_gain=8.08243 7.91014 8.95393 4.8528
threshold=0.75000000000000011 8.8500000000000014 0.23770000000000002 -7.504999999999999
decision_type=8 2 8 8
left_child=-1 2 -2 -3
right_child=1 3 -4 -5
leaf_value=0.13898745343905705 -0.058557010352416082 0.050228540227690494 0.13880796379580637 -0.073684724723857092
leaf_weight=27 28 28 41 125
leaf_count=27 28 28 41 125
internal_value=2.64634e-11 -0.0169039 0.0587178 -0.0510078
internal_weight=249 222 69 153
internal_count=249 222 69 153
is_linear=0
shrinkage=0.269036


Tree=4
num_leaves=5
num_cat=0
split_feature=8 9 15 13
split_gain=8.73075 6.72705 5.54172 2.96435
threshold=0.86750000000000005 0.55650000000000011 -1.3219999999999998 10.710405387738765
decision_type=2 10 10 2
left_child=1 -1 3 -2
right_child=2 -3 -4 -5
leaf_value=0.00027794375445708356 0.0011875231282029726 0.18676896731732401 0.075120249831784419 -0.074854737153087866
leaf_weight=28 58 28 32 103
leaf_count=28 58 28 32 103
internal_value=-7.57702e-11 0.0935235 -0.0271363 -0.0474606
internal_weight=249 56 193 161
internal_count=249 56 193 161
is_linear=0
shrinkage=0.269036


Tree=5
num_leaves=6
num_cat=0
split_feature=0 24 29 27 12
split_gain=4.5682 5.35671 3.44244 5.95761 1.4285
threshold=12.650000000000002 2.3874500000000007 0.30375000000000002 2.4285000000000005 85.611000000000018
decision_type=2 8 10 8 10
left_child=1 4 3 -2 -1
right_child=2 -3 -4 -5 -6
leaf_value=0.051879929394146929 0.074218392611212797 0.15273218133468178 0.055081862663425511 -0.071275990404023673 -0.033630754610039636
leaf_weight=26 25 26 31 110 31
leaf_count=26 25 26 31 110 31
internal_value=4.69218e-10 0.0515345 -0.0257672 -0.0443326 0.00537412
internal_weight=249 83 166 135 57
internal_count=249 83 166 135 57
is_linear=0
shrinkage=0.269036


Tree=6
num_leaves=6
num_cat=0
split_feature=10 15 6 1 21
split_gain=4.57709 9.97738 4.32821 2.5649 2.01542
threshold=0.48300000000000004 inf 1.1345000000000003 3.2380000000000004 0.87525000000000008
decision_type=2 8 10 8 10
left_child=3 -2 -3 4 -1
right_child=1 2 -4 -5 -6
leaf_value=-0.038151596502565666 0.15168672717946444 -0.072669010579966817 0.037019783191847455 0.010327220372006144 -0.13552694664950676
leaf_weight=40 37 46 60 41 25
leaf_count=40 37 46 60 41 25
internal_value=-2.65702e-10 0.0314043 -0.010581 -0.0423662 -0.0756037
internal_weight=249 143 106 106 65
internal_count=249 143 106 106 65
is_linear=0
shrinkage=0.269036


Tree=7
num_leaves=6
num_cat=0
split_feature=31 25 12 2 1
split_gain=3.32441 5.42537 4.59019 2.97989 3.55595
threshold=0.42900000000000005 68.000000000000014 232.57650000000004 1.8300000000000003 2.9450000000000003
decision_type=10 10 10 10 10
left_child=3 2 -2 -1 -5
right_child=1 -3 -4 4 -6
leaf_value=-0.087841962475243826 -0.038829246659860206 0.12035607456927286 0.07985732466323868 0.063896593594786666 -0.070052469819704838
leaf_weight=46 77 34 34 32 26
leaf_count=46 77 34 34 32 26
internal_value=2.92022e-10 0.0263269 -0.0024748 -0.0367058 0.00385046
internal_weight=249 145 111 104 58
internal_count=249 145 111 104 58
is_linear=0
shrinkage=0.269036


Tree=8
num_leaves=5
num_cat=0
split_feature=8 4 0 3
split_gain=3.24228 5.12719 2.64724 3.64671
threshold=0.86750000000000005 0.20500000000000004 1.3500000000000003 1.0000000180025095e-35
decision_type=2 2 2 2
left_child=1 -1 -2 -4
right_child=2 -3 3 -5
leaf_value=0.13009740684898172 0.048160947345507993 -0.033656825985097526 0.062277696853642102 -0.049851114919320157
leaf_weight=31 37 25 25 131
leaf_count=31 37 25 25 131
internal_value=1.53837e-09 0.0569928 -0.0165368 -0.0318818
internal_weight=249 56 193 156
internal_count=249 56 193 156
is_linear=0
shrinkage=0.269036


Tree=9
num_leaves=5
num_cat=0
split_feature=15 11 9 16
split_gain=3.1712 2.37721 4.37811 3.76573
threshold=-0.23849999999999996 6.0500000000000016 0.26900000000000007 3.5000000000000004
decision_type=10 10 10 2
left_child=1 2 -1 -3
right_child=-2 3 -4 -5
leaf_value=-0.031425171618906247 0.087059615382000549 0.0052197991547044019 0.074045120854030311 -0.096475700443371476
leaf_weight=63 27 60 52 47
leaf_count=63 27 60 52 47
internal_value=4.68212e-10 -0.0105883 0.0162657 -0.0394502
internal_weight=249 222 115 107
internal_count=249 222 115 107
is_linear=0
shrinkage=0.269036


Tree=10
num_leaves=6
num_cat=0
split_feature=1 23 2 12 24
split_gain=2.68393 4.1436 5.19576 3.46669 2.11648
threshold=1.9640000000000002 8.3000000000000025 1.0000000180025095e-35 16.614000000000001 0.68045000000000011
decision_type=8 10 10 8 10
left_child=1 2 -1 -2 -5
right_child=3 -3 -4 4 -6
leaf_value=0.062236246042382024 0.11676062374685336 -0.11969779788436606 -0.066342625484113835 -0.020572652901044774 0.061706199741059009
leaf_weight=46 25 28 45 72 33
leaf_count=46 25 28 45 72 33
internal_value=0 -0.029194 -0.00134671 0.0267238 0.00528641
internal_weight=249 119 91 130 105
internal_count=249 119 91 130 105
is_linear=0
shrinkage=0.269036


Tree=11
num_leaves=5
num_cat=0
split_feature=6 31 11 28
split_gain=2.17186 2.83712 4.16483 1.92161
threshold=1.2455000000000003 0.49150000000000005 8.9000000000000021 0.59305000000000008
decision_type=10 10 10 8
left_child=1 3 -3 -1
right_child=-2 2 -4 -5
leaf_value=-0.030751815663174423 -0.058304620827474271 0.10678457901713488 -0.031304315236062343 0.03830937538069356
leaf_weight=101 39 43 25 41
leaf_count=101 39 43 25 41
internal_value=-7.49179e-10 0.010828 0.0560166 -0.0108116
internal_weight=249 210 68 142
internal_count=249 210 68 142
is_linear=0
shrinkage=0.269036


Tree=12
num_leaves=4
num_cat=0
split_feature=9 12 12
split_gain=2.1098 2.32408 2.94931
threshold=2.1350000000000002 385.99000000000007 2.4815
decision_type=10 10 10
left_child=1 2 -1
right_child=-2 -3 -4
leaf_value=0.047608142102872258 0.071010905804630473 0.061001913353320177 -0.03608091804222327
leaf_weight=38 27 30 154
leaf_count=38 27 30 154
internal_value=-3.00669e-10 -0.00863646 -0.0195175
internal_weight=249 222 192
internal_count=249 222 192
is_linear=0
shrinkage=0.269036


Tree=13
num_leaves=5
num_cat=0
split_feature=25 20 31 29
split_gain=1.66298 1.82635 3.06301 2.18995
threshold=77.500000000000014 1.1534500000000003 0.51050000000000006 0.44625000000000009
decision_type=10 10 10 10
left_child=1 2 -1 -3
right_child=-2 3 -4 -5
leaf_value=-0.016275248105614981 0.051808812384810006 -0.06838413995665911 0.074967684297643597 0.026626184994469896
leaf_weight=89 38 59 38 25
leaf_count=89 38 59 38 25
internal_value=6.45314e-10 -0.0093305 0.0110258 -0.0401073
internal_weight=249 211 127 84
internal_count=249 211 127 84
is_linear=0
shrinkage=0.269036


Tree=14
num_leaves=6
num_cat=0
split_feature=9 13 11 2 6
split_gain=1.52628 4.30236 4.64794 3.67872 4.99467
threshold=0.40950000000000003 12.716511461097157 15.050000000000002 -6.7399999999999993 1.0175000000000003
decision_type=10 2 10 10 10
left_child=3 2 -2 -1 -5
right_child=1 -3 -4 4 -6
leaf_value=-0.08817289777272018 0.12886677692257126 -0.052213109595604268 0.00040357099978149941 0.10156587774169228 -0.035178536463596081
leaf_weight=40 36 39 47 29 58
leaf_count=40 36 39 47 29 58
internal_value=-9.54552e-11 0.0214907 0.0561226 -0.0206446 0.0104029
internal_weight=249 122 83 127 87
internal_count=249 122 83 127 87
is_linear=0
shrinkage=0.269036


Tree=15
num_leaves=5
num_cat=0
split_feature=0 31 24 24
split_gain=1.61596 2.5988 2.17125 2.9775
threshold=8.8500000000000014 0.42900000000000005 1.2641000000000002 0.51125000000000009
decision_type=2 8 10 10
left_child=1 -1 3 -2
right_child=2 -3 -4 -5
leaf_value=-0.035174239127637112 -0.016723511917111352 0.070435666286339918 -0.068269557753000906 0.086221318385634085
leaf_weight=26 109 48 41 25
leaf_count=26 109 48 41 25
internal_value=1.11241e-10 0.0333295 -0.0140936 0.00248261
internal_weight=249 74 175 134
internal_count=249 74 175 134
is_linear=0
shrinkage=0.269036


Tree=16
num_leaves=5
num_cat=0
split_feature=23 23 15 1
split_gain=1.90982 1.91179 2.3387 1.67613
threshold=-4.8049999999999988 4.6750000000000016 -1.0000000180025095e-35 1.2495000000000001
decision_type=8 8 8 10
left_child=-1 3 -3 -2
right_child=1 2 -4 -5
leaf_value=0.070527865450148608 -0.0028779821390250977 -0.06534887246223807 0.019628085595249527 -0.099552707645826924
leaf_weight=25 25 28 144 27
leaf_count=25 25 28 144 27
internal_value=-5.12896e-10 -0.00787141 0.00579463 -0.0530745
internal_weight=249 224 172 52
internal_count=249 224 172 52
is_linear=0
shrinkage=0.269036


Tree=17
num_leaves=4
num_cat=0
split_feature=30 17 13
split_gain=1.63656 1.93133 1.95125
threshold=0.23400000000000001 2.5000000000000004 11.138984846545924
decision_type=10 2 2
left_child=1 -1 -3
right_child=-2 2 -4
leaf_value=0.047066966689210898 0.058930201181446269 0.011043957690437853 -0.045071264216518442
leaf_weight=38 30 82 99
leaf_count=38 30 82 99
internal_value=6.36698e-10 -0.00807263 -0.0196489
internal_weight=249 219 181
internal_count=249 219 181
is_linear=0
shrinkage=0.269036


Tree=18
num_leaves=5
num_cat=0
split_feature=15 22 29 29
split_gain=1.65606 1.52757 4.70333 3.54589
threshold=-0.23849999999999996 0.24765000000000001 0.30375000000000002 0.4875000000000001
decision_type=10 8 10 10
left_child=1 3 -3 -1
right_child=-2 2 -4 -5
leaf_value=0.0017544703048101666 0.062913380386398488 -0.014566464292701359 0.10990610786792659 -0.12154063911417209
leaf_weight=52 27 118 27 25
leaf_count=52 27 118 27 25
internal_value=-3.82931e-10 -0.00765163 0.00861119 -0.0382764
internal_weight=249 222 145 77
internal_count=249 222 145 77
is_linear=0
shrinkage=0.269036


Tree=19
num_leaves=4
num_cat=0
split_feature=26 1 10
split_gain=1.3339 1.97099 2.01747
threshold=0.75000000000000011 0.28600000000000009 0.54900000000000015
decision_type=8 10 2
left_child=-1 -2 -3
right_child=1 2 -4
leaf_value=0.056463295033201438 0.045612055757484102 0.0087440377678851041 -0.048234847702036357
leaf_weight=27 42 92 88
leaf_count=27 42 92 88
internal_value=8.0402e-10 -0.00686716 -0.0191123
internal_weight=249 222 180
internal_count=249 222 180
is_linear=0
shrinkage=0.269036


Tree=20
num_leaves=5
num_cat=0
split_feature=10 14 10 15
split_gain=1.51518 3.70539 2.52381 2.36136
threshold=0.21700000000000005 0.40750000000000003 0.60850000000000015 -1.0000000180025095e-35
decision_type=2 8 2 8
left_child=3 -2 -3 -1
right_child=1 2 -4 -5
leaf_value=-0.088983338646582658 0.10115721318304988 0.024597767308048957 -0.04663611548648991 0.010494675869674116
leaf_weight=31 29 90 60 39
leaf_count=31 29 90 60 39
internal_value=6.89652e-10 0.013124 -0.00389579 -0.0335599
internal_weight=249 179 150 70
internal_count=249 179 150 70
is_linear=0
shrinkage=0.269036


Tree=21
num_leaves=6
num_cat=0
split_feature=1 11 25 1 13
split_gain=1.22876 3.33744 3.67954 2.39491 2.80533
threshold=1.8210000000000002 43.905000000000008 59.500000000000007 1.0320000000000003 12.557985845414601
decision_type=10 10 10 10 2
left_child=3 -2 -3 4 -1
right_child=1 2 -4 -5 -6
leaf_value=0.030730273779464686 0.084532501747171584 -0.081000717380417073 0.052321356586220558 -0.083342702656535012 -0.05653014000143352
leaf_weight=80 39 31 29 30 40
leaf_count=80 39 31 29 30 40
internal_value=-3.72116e-10 0.0232633 -0.0165617 -0.0153538 0.00164347
internal_weight=249 99 60 150 120
internal_count=249 99 60 150 120
is_linear=0
shrinkage=0.269036


Tree=22
num_leaves=5
num_cat=0
split_feature=6 4 21 28
split_gain=1.41444 2.70139 1.90004 2.38309
threshold=1.2455000000000003 0.13250000000000003 0.90830000000000011 0.054150000000000011
decision_type=8 2 8 10
left_child=2 -2 -1 -4
right_child=1 -3 3 -5
leaf_value=0.072603143137555393 0.010345954308582685 -0.10352473830232155 -0.069894028122633761 0.015644456693876128
leaf_weight=31 38 25 29 126
leaf_count=31 38 25 29 126
internal_value=0 -0.0348408 0.0118009 -0.000359518
internal_weight=249 63 186 155
internal_count=249 63 186 155
is_linear=0
shrinkage=0.269036


Tree=23
num_leaves=6
num_cat=0
split_feature=10 25 17 14 20
split_gain=1.20079 2.63488 2.9966 1.46489 0.716862
threshold=0.48300000000000004 240.50000000000003 9.5000000000000018 -1.0000000180025095e-35 1.1037000000000001
decision_type=2 8 2 10 10
left_child=3 2 -2 4 -1
right_child=1 -3 -4 -5 -6
leaf_value=-0.021880753604927101 0.066518175410199443 0.068277803234614062 -0.039200835246763349 -0.063153753825636039 0.034285348421798388
leaf_weight=38 27 47 69 39 29
leaf_count=38 27 47 69 39 29
internal_value=-2.42747e-10 0.0160852 -0.00946736 -0.0216999 0.00242995
internal_weight=249 143 96 106 67
internal_count=249 143 96 106 67
is_linear=0
shrinkage=0.269036


Tree=24
num_leaves=4
num_cat=0
split_feature=26 1 5
split_gain=1.23299 1.12492 1.29757
threshold=0.75000000000000011 0.28600000000000009 0.38906050000000009
decision_type=8 10 2
left_child=-1 -2 -3
right_child=1 2 -4
leaf_value=0.054285489063110523 0.033044340311448823 -0.027669624385420422 0.028303057617525173
leaf_weight=27 42 142 38
leaf_count=27 42 142 38
internal_value=1.62309e-10 -0.00660229 -0.0158532
internal_weight=249 222 180
internal_count=249 222 180
is_linear=0
shrinkage=0.269036


Tree=25
num_leaves=4
num_cat=0
split_feature=2 15 1
split_gain=1.36257 2.65975 1.43641
threshold=-31.069999999999997 -1.3219999999999998 0.51750000000000018
decision_type=10 10 8
left_child=-1 2 -2
right_child=1 -3 -4
leaf_value=-0.052776038022973926 0.053828531440247046 0.079149436730915942 -0.014351666037670045
leaf_weight=31 26 32 160
leaf_count=31 26 32 160
internal_value=1.35894e-10 0.00750485 -0.0048211
internal_weight=249 218 186
internal_count=249 218 186
is_linear=0
shrinkage=0.269036


Tree=26
num_leaves=5
num_cat=0
split_feature=12 1 3 11
split_gain=1.21141 2.71262 2.34498 2.27275
threshold=232.57650000000004 5.3615000000000013 1.0000000180025095e-35 47.220000000000006
decision_type=10 10 2 10
left_child=1 2 -1 -2
right_child=3 -3 -4 -5
leaf_value=0.04941458732972262 0.095104856764947843 0.066042538090427705 -0.037230527615641378 -0.015586398144132617
leaf_weight=27 25 29 139 29
leaf_count=27 25 29 139 29
internal_value=0 -0.00987495 -0.0231376 0.0356596
internal_weight=249 195 166 54
internal_count=249 195 166 54
is_linear=0
shrinkage=0.269036


Tree=27
num_leaves=4
num_cat=0
split_feature=17 0 0
split_gain=0.973896 1.39864 1.71094
threshold=1.5000000000000002 984.1500000000002 47.350000000000009
decision_type=2 2 2
left_child=-1 2 -2
right_child=1 -3 -4
leaf_value=0.044618368002369846 -0.011443063769522607 -0.064904471785901807 0.05109231182896512
leaf_weight=31 152 26 40
leaf_count=31 152 26 40
internal_value=-2.53029e-10 -0.00634481 0.00158514
internal_weight=249 218 192
internal_count=249 218 192
is_linear=0
shrinkage=0.269036


Tree=28
num_leaves=4
num_cat=0
split_feature=30 23 15
split_gain=1.0895 1.19468 2.25285
threshold=0.23400000000000001 -4.8049999999999988 -0.78899999999999992
decision_type=10 8 10
left_child=1 -1 -3
right_child=-2 2 -4
leaf_value=0.048766709969397561 0.048082394395887129 -0.0018128552019750772 -0.084310918035779628
leaf_weight=25 30 166 28
leaf_count=25 30 166 28
internal_value=-2.90544e-10 -0.00658663 -0.0137198
internal_weight=249 219 194
internal_count=249 219 194
is_linear=0
shrinkage=0.269036


Tree=29
num_leaves=4
num_cat=0
split_feature=24 24 24
split_gain=0.848116 1.48761 2.30598
threshold=3.5332500000000002 1.2641000000000002 0.64275000000000015
decision_type=10 10 10
left_child=1 2 -1
right_child=-2 -3 -4
leaf_value=-0.0099097749023135066 0.039483664515779289 -0.056145092239761066 0.071844507172785968
leaf_weight=149 34 36 30
leaf_count=149 34 36 30
internal_value=5.28778e-11 -0.00624393 0.00379206
internal_weight=249 215 179
internal_count=249 215 179
is_linear=0
shrinkage=0.269036


Tree=30
num_leaves=4
num_cat=0
split_feature=0 17 5
split_gain=0.73102 1.07686 0.833508
threshold=1.3500000000000003 1.5000000000000002 0.095561500000000008
decision_type=2 2 2
left_child=-1 -2 -3
right_child=1 2 -4
leaf_value=0.030220482274304163 0.04094594908072019 0.02489333729341206 -0.023799215118214496
leaf_weight=47 29 31 142
leaf_count=47 29 31 142
internal_value=4.62929e-10 -0.0070315 -0.015074
internal_weight=249 202 173
internal_count=249 202 173
is_linear=0
shrinkage=0.269036


Tree=31
num_leaves=4
num_cat=0
split_feature=11 11 25
split_gain=1.06236 1.48676 2.15716
threshold=-20.229999999999997 -10.299999999999999 69.500000000000014
decision_type=8 10 10
left_child=-1 -2 -3
right_child=1 2 -4
leaf_value=-0.050389620564126887 0.061826979274262131 -0.016038751727388223 0.057822694735658438
leaf_weight=27 30 157 35
leaf_count=27 30 157 35
internal_value=-2.68799e-10 0.00612847 -0.00257443
internal_weight=249 222 192
internal_count=249 222 192
is_linear=0
shrinkage=0.269036


Tree=32
num_leaves=6
num_cat=0
split_feature=6 6 2 9 23
split_gain=1.11217 1.60385 1.97566 1.10589 3.65809
threshold=1.1345000000000003 1.0175000000000003 1.8300000000000003 0.40950000000000003 5.2100000000000009
decision_type=10 10 10 8 8
left_child=1 2 -1 -2 -5
right_child=3 -3 -4 4 -6
leaf_value=-0.038913832418557684 -0.01977689614744179 -0.061139468653723814 0.06063066138621457 -0.031674559067222323 0.072240856918958193
leaf_weight=31 46 43 27 41 61
leaf_count=31 46 43 27 41 61
internal_value=0 -0.0217653 0.00742585 0.0148534 0.0304709
internal_weight=249 101 58 148 102
internal_count=249 101 58 148 102
is_linear=0
shrinkage=0.269036


Tree=33
num_leaves=5
num_cat=0
split_feature=10 15 10 28
split_gain=0.597245 1.28263 1.28612 1.08143
threshold=0.71300000000000008 -1.0000000180025095e-35 0.60850000000000015 0.033100000000000011
decision_type=2 8 2 10
left_child=1 3 -3 -1
right_child=-2 2 -4 -5
leaf_value=-0.073947430282087112 0.032049758055039457 0.017899715920301484 -0.047605749591629574 0.0012586346063238264
leaf_weight=31 36 131 26 25
leaf_count=31 36 131 26 25
internal_value=4.49093e-10 -0.00541686 0.00705168 -0.0403733
internal_weight=249 213 157 56
internal_count=249 213 157 56
is_linear=0
shrinkage=0.269036


Tree=34
num_leaves=4
num_cat=0
split_feature=23 8 8
split_gain=0.816808 0.852874 1.51632
threshold=-4.8049999999999988 0.79300000000000015 0.91600000000000015
decision_type=8 2 2
left_child=-1 -2 -3
right_child=1 2 -4
leaf_value=0.046123694479167907 -0.047362894248621126 0.063221471907994445 -0.0077677065130535329
leaf_weight=25 30 25 169
leaf_count=25 30 25 169
internal_value=-2.12653e-10 -0.00514773 0.00138038
internal_weight=249 224 194
internal_count=249 224 194
is_linear=0
shrinkage=0.269036


Tree=35
num_leaves=6
num_cat=0
split_feature=6 1 6 11 11
split_gain=0.624132 1.4898 1.7453 1.13323 1.7439
threshold=1.1345000000000003 1.7610000000000003 1.0705000000000002 -20.229999999999997 28.880000000000006
decision_type=10 8 8 8 10
left_child=1 -1 -3 -2 -5
right_child=3 2 -4 4 -6
leaf_value=-0.06117437537760341 -0.039868487209617741 0.058456157307525194 -0.030064874503793484 0.04701923936733423 -0.019349686384156121
leaf_weight=35 26 28 38 76 46
leaf_count=35 26 28 38 76 46
internal_value=-1.18033e-10 -0.0163049 0.0074895 0.011127 0.0219949
internal_weight=249 101 66 148 122
internal_count=249 101 66 148 122
is_linear=0
shrinkage=0.269036


Tree=36
num_leaves=4
num_cat=0
split_feature=9 5 5
split_gain=0.624251 0.933914 1.03465
threshold=2.1350000000000002 0.095561500000000008 0.14919000000000002
decision_type=10 2 2
left_child=1 -1 -3
right_child=-2 2 -4
leaf_value=0.028525334499568622 0.038626410601048558 -0.055206144993913152 -0.0034526197121652483
leaf_weight=48 27 35 139
leaf_count=48 27 35 139
internal_value=-2.3101e-10 -0.00469781 -0.0138628
internal_weight=249 222 174
internal_count=249 222 174
is_linear=0
shrinkage=0.269036


Tree=37
num_leaves=5
num_cat=0
split_feature=8 6 15 5
split_gain=0.53616 1.36132 0.696089 0.921101
threshold=0.86750000000000005 1.2295000000000003 -1.3219999999999998 0.32222750000000006
decision_type=2 8 8 2
left_child=1 -1 -2 -4
right_child=2 -3 3 -5
leaf_value=0.060845325195920272 -0.046786976996999977 -0.023533537513239507 -0.01150010760860636 0.035359883913056354
leaf_weight=31 27 25 126 40
leaf_count=31 27 25 126 40
internal_value=1.30108e-10 0.0231762 -0.0067247 -0.000208543
internal_weight=249 56 193 166
internal_count=249 56 193 166
is_linear=0
shrinkage=0.269036


Tree=38
num_leaves=5
num_cat=0
split_feature=3 9 11 11
split_gain=0.711176 1.16614 1.84208 1.32045
threshold=1.0000000180025095e-35 0.40950000000000003 6.0500000000000016 0.090000000000000011
decision_type=2 10 10 8
left_child=-1 3 -3 -2
right_child=1 2 -4 -5
leaf_value=0.040393898258987052 -0.063511663376228447 0.060684020799988775 -0.012075706508323455 -0.0026955537747873309
leaf_weight=28 40 40 68 73
leaf_count=28 40 40 68 73
internal_value=-7.90406e-11 -0.00511778 0.0148723 -0.0242234
internal_weight=249 221 108 113
internal_count=249 221 108 113
is_linear=0
shrinkage=0.269036


Tree=39
num_leaves=5
num_cat=0
split_feature=24 28 28 25
split_gain=0.628082 1.14426 1.06841 0.661044
threshold=0.64275000000000015 0.30425000000000008 0.018400000000000003 60.500000000000007
decision_type=8 10 8 8
left_child=1 -1 -2 -4
right_child=2 -3 3 -5
leaf_value=-0.054172189651794489 0.053111761244756563 0.013686156454700152 -0.027024498980627549 0.011576856062721137
leaf_weight=37 32 35 48 97
leaf_count=37 32 35 48 97
internal_value=-2.5891e-10 -0.0211855 0.00861783 -0.00120152
internal_weight=249 72 177 145
internal_count=249 72 177 145
is_linear=0
shrinkage=0.269036


Tree=40
num_leaves=4
num_cat=0
split_feature=4 22 8
split_gain=0.530608 0.698442 1.0475
threshold=-1.0000000180025095e-35 0.36035 0.86750000000000005
decision_type=2 10 2
left_child=-1 2 -2
right_child=1 -3 -4
leaf_value=-0.0335550758189678 0.053772764305982067 -0.030843856762590445 0.0015037708256256607
leaf_weight=30 34 34 151
leaf_count=30 34 34 151
internal_value=-3.43877e-11 0.00459659 0.01111
internal_weight=249 219 185
internal_count=249 219 185
is_linear=0
shrinkage=0.269036


Tree=41
num_leaves=4
num_cat=0
split_feature=3 6 13
split_gain=0.498906 1.40808 1.12
threshold=1.0000000180025095e-35 0.83250000000000013 11.813727563765577
decision_type=2 10 2
left_child=-1 -2 -3
right_child=1 2 -4
leaf_value=0.033832708367247256 -0.056476059378947376 -0.013776449697647653 0.027954478668665694
leaf_weight=28 32 106 83
leaf_count=28 32 106 83
internal_value=0 -0.0042865 0.00454983
internal_weight=249 221 189
internal_count=249 221 189
is_linear=0
shrinkage=0.269036


Tree=42
num_leaves=5
num_cat=0
split_feature=1 1 13 24
split_gain=0.6797 0.859329 1.79375 1.49517
threshold=0.27800000000000008 1.7610000000000003 12.331391193077847 0.81940000000000002
decision_type=10 10 2 10
left_child=-1 2 -2 -3
right_child=1 3 -4 -5
leaf_value=0.02914039522631268 0.0074369089955448322 -0.012438064698805026 -0.065152061551788695 0.056659226359418884
leaf_weight=47 56 68 44 34
leaf_count=47 56 68 44 34
internal_value=2.72997e-10 -0.00678019 -0.0245022 0.0105944
internal_weight=249 202 100 102
internal_count=249 202 100 102
is_linear=0
shrinkage=0.269036


Tree=43
num_leaves=5
num_cat=0
split_feature=2 2 13 23
split_gain=0.463431 0.923891 2.26359 1.63107
threshold=-31.069999999999997 6.3100000000000005 12.595907603464719 11.055000000000001
decision_type=8 8 2 10
left_child=-1 2 -2 -3
right_child=1 3 -4 -5
leaf_value=-0.03328106552419572 0.061575075786609257 -0.027922728872655341 -0.03060770452648259 0.03588899997374842
leaf_weight=27 51 99 31 41
leaf_count=27 51 99 31 41
internal_value=2.66331e-10 0.0040477 0.0267255 -0.00923501
internal_weight=249 222 82 140
internal_count=249 222 82 140
is_linear=0
shrinkage=0.269036


Tree=44
num_leaves=6
num_cat=0
split_feature=20 20 25 19 2
split_gain=0.452654 1.10934 1.00177 0.83152 0.82572
threshold=1.2329500000000002 1.1534500000000003 73.500000000000014 1.0000000180025095e-35 1.8300000000000003
decision_type=8 10 10 2 10
left_child=1 3 4 -1 -2
right_child=2 -3 -4 -5 -6
leaf_value=0.039215242202272502 -0.025830558124604948 -0.047991032609384969 0.05751099761150269 -0.023130430669994994 0.019110316298637471
leaf_weight=32 53 41 26 30 67
leaf_count=32 53 41 26 30 67
internal_value=1.12184e-10 -0.0136569 0.00963464 0.00904798 -0.00073857
internal_weight=249 103 146 62 120
internal_count=249 103 146 62 120
is_linear=0
shrinkage=0.269036


Tree=45
num_leaves=6
num_cat=0
split_feature=25 30 11 6 11
split_gain=0.356665 0.837962 0.72219 0.713896 0.706122
threshold=274.50000000000006 0.23000000000000004 6.0500000000000016 1.1345000000000003 -1.9499999999999997
decision_type=8 10 10 10 10
left_child=1 3 4 -1 -2
right_child=2 -3 -4 -5 -6
leaf_value=-0.04723974297068545 0.0037009432893951072 0.03377239093504187 -0.02101424736314933 -0.0039801904509577839 0.065907839763966594
leaf_weight=38 28 30 27 101 25
leaf_count=38 28 30 27 101 25
internal_value=0 -0.00700555 0.0147992 -0.0158065 0.0330438
internal_weight=249 169 80 139 53
internal_count=249 169 80 139 53
is_linear=0
shrinkage=0.269036


Tree=46
num_leaves=5
num_cat=0
split_feature=3 6 1 28
split_gain=0.462772 1.32432 1.14286 0.711285
threshold=1.0000000180025095e-35 1.2455000000000003 0.91900000000000015 0.31155000000000005
decision_type=2 8 8 8
left_child=-1 2 -2 -3
right_child=1 3 -4 -5
leaf_value=0.032584473033177123 0.044925546661106749 -0.0074973264114235284 -0.0055970379009753638 -0.069421392941945353
leaf_weight=28 44 25 123 29
leaf_count=28 44 25 123 29
internal_value=2.03314e-10 -0.00412835 0.0077143 -0.0407528
internal_weight=249 221 167 54
internal_count=249 221 167 54
is_linear=0
shrinkage=0.269036


Tree=47
num_leaves=4
num_cat=0
split_feature=12 24 10
split_gain=0.648773 0.916376 1.16677
threshold=681.49250000000018 1.8406500000000003 0.71300000000000008
decision_type=8 10 2
left_child=1 2 -1
right_child=-2 -3 -4
leaf_value=-0.0062027650968118275 0.030931153904485347 -0.038699757302991897 0.057071369830501241
leaf_weight=135 41 48 25
leaf_count=135 41 48 25
internal_value=-2.70482e-10 -0.00609701 0.00368382
internal_weight=249 208 160
internal_count=249 208 160
is_linear=0
shrinkage=0.269036


Tree=48
num_leaves=4
num_cat=0
split_feature=0 1 0
split_gain=0.435982 0.529592 0.749344
threshold=1.1500000000000001 0.27800000000000008 25.750000000000004
decision_type=2 10 2
left_child=-1 -2 -3
right_child=1 2 -4
leaf_value=0.024299367105440818 0.01985618098828253 -0.037001571092371545 0.0014367844149509599
leaf_weight=44 47 58 100
leaf_count=44 47 58 100
internal_value=0 -0.00521547 -0.0126735
internal_weight=249 205 158
internal_count=249 205 158
is_linear=0
shrinkage=0.269036


Tree=49
num_leaves=4
num_cat=0
split_feature=24 24 24
split_gain=0.434369 0.525808 0.890347
threshold=3.5332500000000002 1.3588000000000002 0.64275000000000015
decision_type=10 10 10
left_child=1 2 -1
right_child=-2 -3 -4
leaf_value=-0.0076587345522207096 0.028256543934821812 -0.035713654372674465 0.041181196786633643
leaf_weight=149 34 33 33
leaf_count=149 34 33 33
internal_value=-1.59038e-10 -0.00446848 0.00119686
internal_weight=249 215 182
internal_count=249 215 182
is_linear=0
shrinkage=0.269036


Tree=50
num_leaves=4
num_cat=0
split_feature=4 15 4
split_gain=0.434222 0.493445 0.521365
threshold=-1.0000000180025095e-35 -1.3219999999999998 0.29450000000000004
decision_type=2 10 2
left_child=-1 2 -2
right_child=1 -3 -4
leaf_value=-0.030354798324966133 -0.011014850982338186 0.031593572300504739 0.020930683125976613
leaf_weight=30 128 39 52
leaf_count=30 128 39 52
internal_value=-7.28536e-11 0.00415819 -0.00178614
internal_weight=249 219 180
internal_count=249 219 180
is_linear=0
shrinkage=0.269036


Tree=51
num_leaves=7
num_cat=0
split_feature=11 6 0 6 11 6
split_gain=0.433255 1.698 1.43287 1.24692 1.49865 0.754124
threshold=0.090000000000000011 1.2115000000000002 102.95000000000002 1.2225000000000004 11.105000000000002 1.1625000000000003
decision_type=8 8 2 8 10 10
left_child=1 2 -1 5 -5 -2
right_child=3 -3 -4 4 -6 -7
leaf_value=0.064382033369010425 0.0077043321115799115 -0.054539248339376581 -0.026705356354971614 0.086466509114253229 -0.0023678460104434923 -0.04102156520178972
leaf_weight=25 67 42 25 27 28 35
leaf_count=25 67 42 25 27 28 35
internal_value=0 -0.0146601 0.0188383 0.00859065 0.0412417 -0.00901534
internal_weight=249 92 50 157 55 102
internal_count=249 92 50 157 55 102
is_linear=0
shrinkage=0.269036


Tree=52
num_leaves=4
num_cat=0
split_feature=5 12 5
split_gain=0.34898 0.619784 0.756703
threshold=1.1867080000000001 3.8645 0.14919000000000002
decision_type=2 10 2
left_child=1 -1 -3
right_child=-2 2 -4
leaf_value=0.036939137142638766 -0.028880516676331635 -0.023483623781713248 0.011372700082066091
leaf_weight=34 27 75 113
leaf_count=34 27 75 113
internal_value=9.33012e-11 0.0035125 -0.00253275
internal_weight=249 222 188
internal_count=249 222 188
is_linear=0
shrinkage=0.269036


Tree=53
num_leaves=6
num_cat=0
split_feature=9 14 28 9 23
split_gain=0.395733 0.994577 1.2746 0.751508 0.963796
threshold=0.88500000000000012 1.0000000180025095e-35 0.041150000000000006 0.40950000000000003 0.20000000000000004
decision_type=8 8 10 10 10
left_child=3 -2 -3 4 -1
right_child=1 2 -4 -5 -6
leaf_value=0.031168535149026792 0.036808755173599439 -0.059220306834733893 0.00067718730338785606 0.040904332114415923 -0.032972185658253231
leaf_weight=30 27 40 72 41 39
leaf_count=30 27 40 72 41 39
internal_value=1.91868e-10 -0.00954114 -0.0207148 0.0120565 -0.00508492
internal_weight=249 139 112 110 69
internal_count=249 139 112 110 69
is_linear=0
shrinkage=0.269036


Tree=54
num_leaves=4
num_cat=0
split_feature=17 10 15
split_gain=0.331707 0.926353 0.859355
threshold=2.5000000000000004 0.64100000000000013 -1.0000000180025095e-35
decision_type=2 2 8
left_child=-1 2 -2
right_child=1 -3 -4
leaf_value=0.023138577660740772 -0.024708119087749465 -0.039402371095007924 0.017376626863972986
leaf_weight=38 50 43 118
leaf_count=38 50 43 118
internal_value=0 -0.00416714 0.0048514
internal_weight=249 211 168
internal_count=249 211 168
is_linear=0
shrinkage=0.269036


Tree=55
num_leaves=5
num_cat=0
split_feature=23 22 2 29
split_gain=0.341494 0.519873 0.743116 0.709955
threshold=-4.8049999999999988 0.23770000000000002 217.50000000000003 0.30375000000000002
decision_type=8 8 8 10
left_child=-1 2 -2 -3
right_child=1 3 -4 -5
leaf_value=0.029823303685218315 -0.049352437088499811 -0.0028806223893007932 0.0096915031996354824 0.046447968088141743
leaf_weight=25 36 136 27 25
leaf_count=25 36 136 27 25
internal_value=3.82257e-12 -0.00332849 -0.0240479 0.0047791
internal_weight=249 224 63 161
internal_count=249 224 63 161
is_linear=0
shrinkage=0.269036


Tree=56
num_leaves=4
num_cat=0
split_feature=24 13 28
split_gain=0.358269 0.594831 0.612494
threshold=3.5332500000000002 8.6769260989923875 0.054150000000000011
decision_type=10 2 10
left_child=1 -1 -3
right_child=-2 2 -4
leaf_value=0.031082660905526652 0.025662221581157444 -0.033867647226623401 0.00018211855971248783
leaf_weight=30 34 54 131
leaf_count=30 34 54 131
internal_value=-5.16828e-11 -0.00405821 -0.00975673
internal_weight=249 215 185
internal_count=249 215 185
is_linear=0
shrinkage=0.269036


Tree=57
num_leaves=5
num_cat=0
split_feature=2 6 17 12
split_gain=0.274229 0.614999 1.06553 0.849171
threshold=-31.069999999999997 1.1980000000000002 2.5000000000000004 25.937500000000004
decision_type=10 8 2 10
left_child=-1 2 -2 -3
right_child=1 3 -4 -5
leaf_value=-0.023676308685510569 0.037441695887090162 0.04891713163460417 -0.022067863420600905 -0.0030853674900212687
leaf_weight=31 28 41 98 51
leaf_count=31 28 41 98 51
internal_value=-1.77528e-10 0.00336681 -0.00884352 0.0200897
internal_weight=249 218 126 92
internal_count=249 218 126 92
is_linear=0
shrinkage=0.269036


Tree=58
num_leaves=4
num_cat=0
split_feature=3 31 1
split_gain=0.400569 1.21377 0.503797
threshold=1.0000000180025095e-35 0.29700000000000004 5.0050000000000008
decision_type=2 10 10
left_child=-1 -2 -3
right_child=1 2 -4
leaf_value=0.030315592045612735 -0.056186686733002429 -0.003716185967193749 0.029047783243231255
leaf_weight=28 28 149 44
leaf_count=28 28 149 44
internal_value=3.5092e-10 -0.00384089 0.00375332
internal_weight=249 221 193
internal_count=249 221 193
is_linear=0
shrinkage=0.269036


Tree=59
num_leaves=6
num_cat=0
split_feature=5 1 1 0 17
split_gain=0.345973 0.958453 0.534954 1.22822 0.870153
threshold=0.095561500000000008 2.1825000000000006 0.80600000000000016 26.750000000000004 16.500000000000004
decision_type=2 8 8 2 2
left_child=1 -1 3 -2 -4
right_child=2 -3 4 -5 -6
leaf_value=-0.017852411248995743 -0.026217925400874916 0.055925024695799387 -0.030882547826150054 0.053071836846979123 0.012447234616361495
leaf_weight=25 26 26 86 31 55
leaf_count=25 26 26 86 31 55
internal_value=7.66507e-11 0.0197596 -0.0050896 0.0169046 -0.0139809
internal_weight=249 51 198 57 141
internal_count=249 51 198 57 141
is_linear=0
shrinkage=0.269036


Tree=60
num_leaves=5
num_cat=0
split_feature=12 13 13 6
split_gain=0.3088 0.422928 1.32762 0.660421
threshold=681.49250000000018 12.716511461097157 11.813727563765577 1.0805000000000002
decision_type=8 2 2 10
left_child=1 2 -1 -3
right_child=-2 3 -4 -5
leaf_value=-0.011549728115947537 0.021339713090520664 0.0068301185169992781 0.045828934616171157 -0.053330045442701569
leaf_weight=116 41 25 39 28
leaf_count=116 41 25 39 28
internal_value=-2.17527e-10 -0.00420639 0.00288748 -0.0249526
internal_weight=249 208 155 53
internal_count=249 208 155 53
is_linear=0
shrinkage=0.269036


Tree=61
num_leaves=6
num_cat=0
split_feature=6 31 11 1 1
split_gain=0.32365 0.630777 0.76434 0.475348 0.618975
threshold=1.1345000000000003 0.40800000000000008 3.2950000000000004 5.3615000000000013 2.4205000000000001
decision_type=10 10 10 8 10
left_child=1 2 -1 4 -2
right_child=3 -3 -4 -5 -6
leaf_value=-0.022488859566757398 0.01112301300673324 -0.033643700374721495 0.042794553455454534 0.040289859413925405 -0.035093066927143188
leaf_weight=27 94 49 25 27 27
leaf_count=27 94 49 25 27 27
internal_value=-2.22936e-10 -0.0117414 0.0088974 0.00801268 0.000810334
internal_weight=249 101 52 148 121
internal_count=249 101 52 148 121
is_linear=0
shrinkage=0.269036


Tree=62
num_leaves=6
num_cat=0
split_feature=28 2 31 12 11
split_gain=0.316401 1.14109 1.51254 0.694119 0.730324
threshold=0.15440000000000001 1.8300000000000003 0.51050000000000006 95.797500000000014 -1.9499999999999997
decision_type=8 10 8 8 10
left_child=3 -2 -3 4 -1
right_child=1 2 -4 -5 -6
leaf_value=-0.028564853529883125 -0.046836811136360276 -0.014869993023492329 0.056358477384969102 0.048347010398307778 0.022910103548530909
leaf_weight=38 40 71 31 27 42
leaf_count=38 40 71 31 27 42
internal_value=1.20109e-10 -0.00832485 0.00677788 0.0110479 -0.0015405
internal_weight=249 142 102 107 80
internal_count=249 142 102 107 80
is_linear=0
shrinkage=0.269036


Tree=63
num_leaves=6
num_cat=0
split_feature=11 24 10 24 4
split_gain=0.27911 0.983516 0.533432 1.17824 0.75591
threshold=47.220000000000006 0.41185000000000005 0.51600000000000013 1.2641000000000002 1.0000000180025095e-35
decision_type=10 10 2 8 2
left_child=2 -2 4 -4 -1
right_child=1 -3 3 -5 -6
leaf_value=-0.047911509237662714 -0.056969727716863393 0.011388084367706849 0.070404030151296967 -0.00066836194318759565 0.0054524072513469088
leaf_weight=25 25 39 25 52 83
leaf_count=25 25 39 25 52 83
internal_value=3.45071e-10 -0.0153142 0.00529788 0.0224071 -0.00690035
internal_weight=249 64 185 77 108
internal_count=249 64 185 77 108
is_linear=0
shrinkage=0.269036


Tree=64
num_leaves=6
num_cat=0
split_feature=1 11 20 1 9
split_gain=0.321098 0.992417 0.508362 0.754671 0.57843
threshold=0.28600000000000009 -6.9449999999999994 1.2329500000000002 1.8210000000000002 0.88500000000000012
decision_type=10 10 10 10 10
left_child=1 -1 4 -4 -2
right_child=2 -3 3 -5 -6
leaf_value=0.057176793740212978 0.00011018463077320912 -0.018628906911011357 -0.0098543639039333133 0.05029712399134801 -0.035663159365747453
leaf_weight=25 83 25 36 26 54
leaf_count=25 83 25 36 26 54
internal_value=0 0.0192739 -0.0048427 0.0153705 -0.0139903
internal_weight=249 50 199 62 137
internal_count=249 50 199 62 137
is_linear=0
shrinkage=0.269036


Tree=65
num_leaves=5
num_cat=0
split_feature=5 4 28 13
split_gain=0.374145 0.467446 0.535873 0.318916
threshold=0.095561500000000008 0.30950000000000005 0.024550000000000002 14.043831310196163
decision_type=2 2 8 2
left_child=3 2 -2 -1
right_child=1 -3 -4 -5
leaf_value=0.041409892024312972 0.018688977943404662 0.017502139704371748 -0.021058731100975236 -0.0011476022758762265
leaf_weight=26 31 49 118 25
leaf_count=26 31 49 118 25
internal_value=1.13128e-10 -0.00529276 -0.0127891 0.0205484
internal_weight=249 198 149 51
internal_count=249 198 149 51
is_linear=0
shrinkage=0.269036


Tree=66
num_leaves=5
num_cat=0
split_feature=12 21 28 15
split_gain=0.24936 0.371712 0.520729 0.34779
threshold=681.49250000000018 0.44890000000000008 0.049000000000000009 0.12350000000000001
decision_type=8 10 10 8
left_child=1 2 -1 -3
right_child=-2 3 -4 -5
leaf_value=-0.0074315385713985462 0.019176229485901232 -0.035972135413951063 0.037258313837225915 -0.0043082093406124978
leaf_weight=46 41 34 32 96
leaf_count=46 41 34 32 96
internal_value=-9.33798e-11 -0.00377993 0.0109028 -0.0125895
internal_weight=249 208 78 130
internal_count=249 208 78 130
is_linear=0
shrinkage=0.269036


Tree=67
num_leaves=4
num_cat=0
split_feature=3 6 2
split_gain=0.316605 0.666582 0.800317
threshold=1.0000000180025095e-35 1.3135000000000001 -23.009999999999998
decision_type=2 8 8
left_child=-1 2 -2
right_child=1 -3 -4
leaf_value=0.026951680824335245 0.045922561158065228 -0.043878889448180622 -0.0047797783886622657
leaf_weight=28 26 26 169
leaf_count=28 26 26 169
internal_value=-1.9797e-11 -0.00341469 0.00198053
internal_weight=249 221 195
internal_count=249 221 195
is_linear=0
shrinkage=0.269036


Tree=68
num_leaves=4
num_cat=0
split_feature=12 11 23
split_gain=0.296341 0.337209 0.550083
threshold=3.4700000000000002 -20.609999999999996 17.505000000000006
decision_type=10 10 10
left_child=-1 -2 -3
right_child=1 2 -4
leaf_value=0.020604697131368428 -0.0310826922037864 0.0062478314351070204 -0.036796699959733906
leaf_weight=42 29 153 25
leaf_count=42 29 153 25
internal_value=-2.7828e-10 -0.00418066 0.000202251
internal_weight=249 207 178
internal_count=249 207 178
is_linear=0
shrinkage=0.269036


Tree=69
num_leaves=5
num_cat=0
split_feature=15 22 28 9
split_gain=0.24406 0.431945 0.575806 0.318878
threshold=-0.23849999999999996 0.23880000000000004 0.049000000000000009 0.47750000000000004
decision_type=10 8 10 10
left_child=1 3 -3 -1
right_child=-2 2 -4 -5
leaf_value=-0.0019062690303791199 0.024152014209538449 -0.015077440649689086 0.018234373734672411 -0.039324167318210541
leaf_weight=32 27 63 93 34
leaf_count=32 27 63 93 34
internal_value=2.09619e-10 -0.00293741 0.00478153 -0.0211822
internal_weight=249 222 156 66
internal_count=249 222 156 66
is_linear=0
shrinkage=0.269036


Tree=70
num_leaves=6
num_cat=0
split_feature=6 4 15 15 4
split_gain=0.279471 0.91723 1.32257 0.884942 0.536453
threshold=1.2265000000000004 0.17500000000000002 -7.4409999999999989 0.12350000000000001 0.17500000000000002
decision_type=8 2 10 8 2
left_child=3 2 -2 -1 -5
right_child=1 -3 -4 4 -6
leaf_value=-0.051159718228028166 -0.0057607801803983612 -0.024585117781154055 0.075685414331464293 -0.011751628993583013 0.02323571443539563
leaf_weight=27 31 32 27 79 53
leaf_count=27 31 32 27 79 53
internal_value=-4.50023e-13 0.01198 0.0321538 -0.00678112 0.00229632
internal_weight=249 90 58 159 132
internal_count=249 90 58 159 132
is_linear=0
shrinkage=0.269036


Tree=71
num_leaves=4
num_cat=0
split_feature=26 1 6
split_gain=0.25713 0.476049 0.431827
threshold=0.75000000000000011 0.28600000000000009 1.2265000000000004
decision_type=8 10 10
left_child=-1 -2 -3
right_child=1 2 -4
leaf_value=0.024790240139862613 0.022776123204582496 -0.016979213075529832 0.012819216239581233
leaf_weight=27 42 132 48
leaf_count=27 42 132 48
internal_value=-1.71742e-10 -0.00301503 -0.00903297
internal_weight=249 222 180
internal_count=249 222 180
is_linear=0
shrinkage=0.269036


Tree=72
num_leaves=5
num_cat=0
split_feature=5 1 9 20
split_gain=0.258508 0.385386 0.382678 0.46632
threshold=0.095561500000000008 2.1825000000000006 1.6990000000000001 1.1487000000000001
decision_type=2 8 10 8
left_child=1 -1 3 -2
right_child=2 -3 -4 -5
leaf_value=-0.0067697963860806169 0.015548860987622809 0.040013002542328702 0.023589575988085747 -0.017451053325413846
leaf_weight=25 41 26 30 127
leaf_count=25 41 26 30 127
internal_value=-2.10548e-11 0.0170803 -0.00439946 -0.0093975
internal_weight=249 51 198 168
internal_count=249 51 198 168
is_linear=0
shrinkage=0.269036


Tree=73
num_leaves=6
num_cat=0
split_feature=8 9 30 4 12
split_gain=0.233036 0.541457 0.391191 0.918 0.683757
threshold=0.86750000000000005 0.75650000000000006 0.092500000000000013 0.10650000000000001 100.05650000000001
decision_type=2 8 10 2 8
left_child=1 -1 3 -2 -4
right_child=2 -3 4 -5 -6
leaf_value=-0.014178959919084699 0.0035505821279994514 0.039036119606499275 0.039739286232698727 -0.04601047540588498 -0.012010628514140731
leaf_weight=25 76 31 33 42 42
leaf_count=25 76 31 33 42 42
internal_value=7.1242e-11 0.0152794 -0.0044334 -0.0140898 0.0107593
internal_weight=249 56 193 118 75
internal_count=249 56 193 118 75
is_linear=0
shrinkage=0.269036


Tree=74
num_leaves=5
num_cat=0
split_feature=3 6 6 28
split_gain=0.25688 0.645513 0.530022 0.231284
threshold=1.0000000180025095e-35 1.2455000000000003 1.1940000000000002 0.31155000000000005
decision_type=2 8 10 8
left_child=-1 2 -2 -3
right_child=1 3 -4 -5
leaf_value=0.02427686724528955 -0.0047158264110737655 -0.0096822871857824393 0.028377245740106173 -0.044993298474419852
leaf_weight=28 117 25 50 29
leaf_count=28 117 25 50 29
internal_value=5.77754e-11 -0.0030758 0.00519228 -0.0286456
internal_weight=249 221 167 54
internal_count=249 221 167 54
is_linear=0
shrinkage=0.269036


Tree=75
num_leaves=5
num_cat=0
split_feature=24 5 5 4
split_gain=0.333832 0.424854 0.400175 0.679151
threshold=0.8660500000000001 0.28215850000000003 0.095561500000000008 0.30950000000000005
decision_type=8 2 2 2
left_child=1 -1 -2 -4
right_child=2 -3 3 -5
leaf_value=-0.03078631213452579 0.035854448552114247 0.0069370229201769062 -0.010291332240090887 0.033780549054247669
leaf_weight=47 29 40 99 34
leaf_count=47 29 40 99 34
internal_value=1.24291e-10 -0.0134422 0.00721899 0.000975164
internal_weight=249 87 162 133
internal_count=249 87 162 133
is_linear=0
shrinkage=0.269036


Tree=76
num_leaves=4
num_cat=0
split_feature=2 12 2
split_gain=0.269987 0.349397 0.539062
threshold=-31.069999999999997 681.49250000000018 -0.74499999999999988
decision_type=8 8 10
left_child=-1 2 -2
right_child=1 -3 -4
leaf_value=-0.025402489682381107 0.023633272644979379 0.025856124684573937 -0.010305656755446833
leaf_weight=27 45 40 137
leaf_count=27 45 40 137
internal_value=1.79415e-10 0.00308949 -0.00191416
internal_weight=249 222 182
internal_count=249 222 182
is_linear=0
shrinkage=0.269036


Tree=77
num_leaves=5
num_cat=0
split_feature=2 0 12 25
split_gain=0.18482 1.00249 0.612038 0.734713
threshold=-6.7399999999999993 33.000000000000007 9.8840000000000021 50.500000000000007
decision_type=10 2 10 10
left_child=1 -1 -2 -4
right_child=2 -3 3 -5
leaf_value=0.01412590362142053 0.031273058783494762 -0.053405831771698456 -0.041018840121077267 0.0061182181602382289
leaf_weight=41 46 26 31 105
leaf_count=41 46 26 31 105
internal_value=0 -0.0120804 0.0044472 -0.00462626
internal_weight=249 67 182 136
internal_count=249 67 182 136
is_linear=0
shrinkage=0.269036


Tree=78
num_leaves=4
num_cat=0
split_feature=5 28 11
split_gain=0.261244 0.428449 0.42798
threshold=1.1867080000000001 0.018400000000000003 -10.299999999999999
decision_type=2 8 10
left_child=1 -1 -3
right_child=-2 2 -4
leaf_value=0.032939149602161676 -0.0249877773706202 0.024808410516963565 -0.007734662700980873
leaf_weight=30 27 36 156
leaf_count=30 27 36 156
internal_value=-3.55259e-10 0.00303905 -0.00163284
internal_weight=249 222 192
internal_count=249 222 192
is_linear=0
shrinkage=0.269036


Tree=79
num_leaves=6
num_cat=0
split_feature=12 1 20 30 0
split_gain=0.248382 0.566832 0.842146 0.521481 0.68047
threshold=95.797500000000014 0.42700000000000005 1.2329500000000002 0.26400000000000007 24.850000000000005
decision_type=8 10 8 8 2
left_child=1 -1 -3 4 -2
right_child=3 2 -4 -5 -6
leaf_value=-0.041107972806462577 0.003141324299504868 -0.026718789085650185 0.02163085184772608 -0.013565152565607863 0.058275137875832959
leaf_weight=29 43 45 62 44 26
leaf_count=29 43 45 62 44 26
internal_value=-2.96959e-10 -0.00774532 0.00129689 0.0093218 0.0239164
internal_weight=249 136 107 113 69
internal_count=249 136 107 113 69
is_linear=0
shrinkage=0.269036


Tree=80
num_leaves=5
num_cat=0
split_feature=4 27 13 13
split_gain=0.181448 0.261685 0.520111 0.442043
threshold=0.50700000000000012 1.5000000000000002 11.174465279842051 11.174465279842051
decision_type=2 8 2 2
left_child=1 2 -1 -3
right_child=-2 3 -4 -5
leaf_value=-0.0071139272345582634 -0.02000315352214857 0.013902778681549863 0.047234394473929055 -0.014030310181518115
leaf_weight=26 29 70 25 99
leaf_count=26 29 70 25 99
internal_value=2.87714e-10 0.00263678 0.0195274 -0.00246039
internal_weight=249 220 51 169
internal_count=249 220 51 169
is_linear=0
shrinkage=0.269036


Tree=81
num_leaves=4
num_cat=0
split_feature=11 11 9
split_gain=0.200043 0.386041 0.406416
threshold=-20.229999999999997 -10.299999999999999 0.26900000000000007
decision_type=8 10 8
left_child=-1 -2 -3
right_child=1 2 -4
leaf_value=-0.021865840516841192 0.031041166203473795 0.024907648088685275 -0.0075171979138127318
leaf_weight=27 30 34 158
leaf_count=27 30 34 158
internal_value=1.69101e-10 0.00265936 -0.0017753
internal_weight=249 222 192
internal_count=249 222 192
is_linear=0
shrinkage=0.269036


Tree=82
num_leaves=4
num_cat=0
split_feature=2 1 22
split_gain=0.162861 0.334442 0.370986
threshold=-39.934999999999995 0.28600000000000009 0.19500000000000003
decision_type=10 10 8
left_child=-1 -2 -3
right_child=1 2 -4
leaf_value=-0.020595483624811058 0.023938598487829317 0.022646937214513978 -0.0085170937860885674
leaf_weight=25 42 34 148
leaf_count=25 42 34 148
internal_value=6.44498e-11 0.0022986 -0.00269524
internal_weight=249 224 182
internal_count=249 224 182
is_linear=0
shrinkage=0.269036


Tree=83
num_leaves=4
num_cat=0
split_feature=3 6 13
split_gain=0.147268 0.450995 0.287321
threshold=1.0000000180025095e-35 0.83250000000000013 11.813727563765577
decision_type=2 10 2
left_child=-1 -2 -3
right_child=1 2 -4
leaf_value=0.018381523969428232 -0.031865123701356933 -0.0066101816442490522 0.014526272110646129
leaf_weight=28 32 106 83
leaf_count=28 32 106 83
internal_value=1.14763e-10 -0.00232888 0.00267196
internal_weight=249 221 189
internal_count=249 221 189
is_linear=0
shrinkage=0.269036


Tree=84
num_leaves=6
num_cat=0
split_feature=23 30 30 12 0
split_gain=0.153258 0.37939 0.352036 0.706216 0.256593
threshold=11.630000000000001 0.018500000000000003 0.092500000000000013 232.57650000000004 6.7000000000000002
decision_type=8 8 10 8 2
left_child=1 -1 3 -2 -3
right_child=2 4 -4 -5 -6
leaf_value=0.017641727604122383 -0.021381477161174296 -0.00039929503036383772 0.027401490090171655 0.028234612675983099 -0.02971583726451324
leaf_weight=33 56 40 40 33 47
leaf_count=33 56 40 40 33 47
internal_value=-1.02939e-10 -0.00692033 0.00643751 -0.0029845 -0.016237
internal_weight=249 120 129 89 87
internal_count=249 120 129 89 87
is_linear=0
shrinkage=0.269036


Tree=85
num_leaves=5
num_cat=0
split_feature=17 11 9 2
split_gain=0.182162 0.409079 0.792997 0.660338
threshold=1.5000000000000002 1.8700000000000001 0.26900000000000007 6.3100000000000005
decision_type=2 8 10 8
left_child=-1 2 -2 -3
right_child=1 3 -4 -5
leaf_value=0.019296870323231345 -0.044233700861771648 0.040908549410117317 0.008061163691265201 -0.0038778282066950554
leaf_weight=31 41 31 43 103
leaf_count=31 41 31 43 103
internal_value=4.03624e-11 -0.00274405 -0.0174637 0.0064832
internal_weight=249 218 84 134
internal_count=249 218 84 134
is_linear=0
shrinkage=0.269036


Tree=86
num_leaves=5
num_cat=0
split_feature=12 12 11 16
split_gain=0.13937 0.1758 0.434616 0.38379
threshold=9.8840000000000021 95.797500000000014 -6.9449999999999994 4.5000000000000009
decision_type=8 8 10 2
left_child=-1 3 -3 -2
right_child=1 2 -4 -5
leaf_value=0.01393136570090666 -0.0002280526927172959 0.034742806247093756 -0.0048992053706629225 -0.037903836695709264
leaf_weight=43 65 26 87 28
leaf_count=43 65 26 87 28
internal_value=-1.29039e-10 -0.002908 0.00422197 -0.0115713
internal_weight=249 206 113 93
internal_count=249 206 113 93
is_linear=0
shrinkage=0.269036


Tree=87
num_leaves=4
num_cat=0
split_feature=5 1 5
split_gain=0.178973 0.255244 0.290539
threshold=1.1867080000000001 0.28600000000000009 0.36085100000000009
decision_type=2 10 2
left_child=1 -1 -3
right_child=-2 2 -4
leaf_value=0.02291382461992086 -0.020682261716387998 -0.0067143551746333702 0.020507509321667641
leaf_weight=37 27 150 35
leaf_count=37 27 150 35
internal_value=0 0.00251541 -0.00156427
internal_weight=249 222 185
internal_count=249 222 185
is_linear=0
shrinkage=0.269036


Tree=88
num_leaves=6
num_cat=0
split_feature=8 9 1 6 6
split_gain=0.151708 0.337442 0.322987 0.611931 0.328564
threshold=0.86750000000000005 0.75650000000000006 1.7610000000000003 1.1625000000000003 1.2375000000000003
decision_type=2 8 10 10 10
left_child=1 -1 4 -4 -2
right_child=2 -3 3 -5 -6
leaf_value=-0.010927333337275358 -0.020768113024886299 0.031082617279990475 0.030786610105604007 -0.016509803836467742 0.013699619509329831
leaf_weight=25 87 31 44 36 26
leaf_count=25 87 31 44 36 26
internal_value=-7.59605e-12 0.0123282 -0.00357709 0.00950322 -0.0128375
internal_weight=249 56 193 80 113
internal_count=249 56 193 80 113
is_linear=0
shrinkage=0.269036


Tree=89
num_leaves=4
num_cat=0
split_feature=9 23 8
split_gain=0.142025 0.312759 0.423049
threshold=0.15950000000000003 -1.9749999999999999 0.81000000000000016
decision_type=8 8 2
left_child=-1 -2 -3
right_child=1 2 -4
leaf_value=0.018424104887967387 -0.025986082820844626 -0.029802831357467786 0.0071663555367236639
leaf_weight=27 34 26 162
leaf_count=27 34 26 162
internal_value=0 -0.00224077 0.0020536
internal_weight=249 222 188
internal_count=249 222 188
is_linear=0
shrinkage=0.269036


Tree=90
num_leaves=4
num_cat=0
split_feature=13 31 30
split_gain=0.159077 0.329049 0.231348
threshold=8.6769260989923875 0.32950000000000007 0.23400000000000001
decision_type=2 10 10
left_child=-1 -2 -3
right_child=1 2 -4
leaf_value=0.01739734827065997 -0.031043873757790576 -0.002511459706399754 0.024804140364496994
leaf_weight=33 26 164 26
leaf_count=33 26 164 26
internal_value=7.22483e-11 -0.00265793 0.00122646
internal_weight=249 216 190
internal_count=249 216 190
is_linear=0
shrinkage=0.269036


Tree=91
num_leaves=5
num_cat=0
split_feature=25 10 13 10
split_gain=0.152218 0.381176 0.369616 0.238893
threshold=274.50000000000006 0.64100000000000013 11.813727563765577 0.53450000000000009
decision_type=8 2 2 2
left_child=1 2 -1 -2
right_child=3 -3 -4 -5
leaf_value=-0.01003625864649953 -0.0029713059590358694 -0.032079346000008613 0.018248964645711543 0.026768467802934771
leaf_weight=83 46 30 56 34
leaf_count=83 46 30 56 34
internal_value=0 -0.00457661 0.00135923 0.0096681
internal_weight=249 169 139 80
internal_count=249 169 139 80
is_linear=0
shrinkage=0.269036


Tree=92
num_leaves=5
num_cat=0
split_feature=8 24 24 1
split_gain=0.117332 0.279003 0.612059 0.272233
threshold=0.86750000000000005 1.8406500000000003 0.81940000000000002 0.91900000000000015
decision_type=2 10 10 10
left_child=3 2 -2 -1
right_child=1 -3 -4 -5
leaf_value=0.029599832491000965 -0.0059333731823386507 -0.024879335755152637 0.038552026041358517 -0.0079161211888959006
leaf_weight=28 131 35 27 28
leaf_count=28 131 35 27 28
internal_value=-7.40093e-11 -0.00314582 0.00166856 0.0108419
internal_weight=249 193 158 56
internal_count=249 193 158 56
is_linear=0
shrinkage=0.269036


Tree=93
num_leaves=5
num_cat=0
split_feature=13 17 15 5
split_gain=0.119138 0.209928 0.437851 0.417478
threshold=8.6769260989923875 9.5000000000000018 0.12350000000000001 0.12171200000000001
decision_type=2 2 8 2
left_child=-1 3 -3 -2
right_child=1 2 -4 -5
leaf_value=0.015055856088669845 0.037200415309849078 -0.040456130923148578 -0.0013065064600446649 -0.003797455159197145
leaf_weight=33 25 26 101 64
leaf_count=33 25 26 101 64
internal_value=-2.12496e-10 -0.0023002 -0.00932139 0.0077188
internal_weight=249 216 127 89
internal_count=249 216 127 89
is_linear=0
shrinkage=0.269036


Tree=94
num_leaves=7
num_cat=0
split_feature=6 13 12 12 13 21
split_gain=0.141737 0.381116 0.939573 0.49693 0.377828 0.174817
threshold=1.1405000000000001 11.174465279842051 21.260500000000004 46.552500000000009 11.504981378869156 0.44890000000000008
decision_type=8 2 10 10 2 10
left_child=4 2 -2 -3 -1 -6
right_child=1 3 -4 -5 5 -7
leaf_value=-0.033848066128860807 0.055565666652293871 -0.037233424912608774 -0.0051276698142419747 0.0058419181254301704 -0.010832736071758839 0.020675933356983693
leaf_weight=29 30 28 48 63 26 25
leaf_count=29 30 28 48 63 26 25
internal_value=1.65406e-10 0.00441625 0.0182159 -0.00741203 -0.00932933 0.00461269
internal_weight=249 169 78 91 80 51
internal_count=249 169 78 91 80 51
is_linear=0
shrinkage=0.269036


Tree=95
num_leaves=4
num_cat=0
split_feature=5 28 22
split_gain=0.180517 0.222024 0.211365
threshold=1.1867080000000001 0.018400000000000003 0.23600000000000002
decision_type=2 10 8
left_child=1 -1 -3
right_child=-2 2 -4
leaf_value=0.018943602532209114 -0.020771298158031113 -0.01551270030902068 0.0045309827047614153
leaf_weight=47 27 56 119
leaf_count=47 27 56 119
internal_value=0 0.00252624 -0.001883
internal_weight=249 222 175
internal_count=249 222 175
is_linear=0
shrinkage=0.269036


Tree=96
num_leaves=4
num_cat=0
split_feature=26 13 30
split_gain=0.122889 0.238 0.294715
threshold=0.75000000000000011 8.9675094694074584 0.0035000000000000005
decision_type=8 2 10
left_child=-1 -2 -3
right_child=1 2 -4
leaf_value=0.017138070893138589 0.021588859184257105 -0.025950910786983833 -4.8971887249313674e-05
leaf_weight=27 27 40 155
leaf_count=27 27 40 155
internal_value=9.34269e-11 -0.00208436 -0.00536219
internal_weight=249 222 195
internal_count=249 222 195
is_linear=0
shrinkage=0.269036


Tree=97
num_leaves=5
num_cat=0
split_feature=2 30 4 6
split_gain=0.113356 0.197648 0.786962 0.403067
threshold=-39.934999999999995 0.16300000000000003 0.13250000000000003 1.0175000000000003
decision_type=10 8 2 10
left_child=-1 3 -3 -2
right_child=1 2 -4 -5
leaf_value=-0.017182487685463047 0.025727173729018313 0.037062308001106645 -0.021165711683300465 -0.0099585372402162062
leaf_weight=25 28 42 28 126
leaf_count=25 28 42 28 126
internal_value=-4.38686e-11 0.00191769 0.0137711 -0.00347023
internal_weight=249 224 70 154
internal_count=249 224 70 154
is_linear=0
shrinkage=0.269036


Tree=98
num_leaves=5
num_cat=0
split_feature=5 13 2 28
split_gain=0.170139 0.176334 0.438127 0.327541
threshold=1.1867080000000001 11.174465279842051 6.3100000000000005 0.31700000000000006
decision_type=2 2 10 8
left_child=1 2 -1 -3
right_child=-2 3 -4 -5
leaf_value=0.034000026829141362 -0.02016540484531652 0.0042853728336220507 -0.0061511254642517485 -0.025381185511541542
leaf_weight=37 27 107 42 36
leaf_count=37 27 107 42 36
internal_value=0 0.00245255 0.0126538 -0.00318313
internal_weight=249 222 79 143
internal_count=249 222 79 143
is_linear=0
shrinkage=0.269036


Tree=99
num_leaves=4
num_cat=0
split_feature=5 1 20
split_gain=0.129428 0.302789 0.302357
threshold=0.53069700000000009 0.27800000000000008 1.1464000000000001
decision_type=2 10 10
left_child=1 -1 -3
right_child=-2 2 -4
leaf_value=0.030087715788283748 -0.01255165330073022 -0.012534446772568774 0.0098402964435070021
leaf_weight=26 48 85 90
leaf_count=26 48 85 90
internal_value=-1.14763e-10 0.00299741 -0.00102744
internal_weight=249 201 175
internal_count=249 201 175
is_linear=0
shrinkage=0.269036


Tree=100
num_leaves=5
num_cat=0
split_feature=25 2 30 23
split_gain=0.110404 0.232634 0.840454 0.387247
threshold=77.500000000000014 1.8300000000000003 0.045500000000000006 8.7650000000000023
decision_type=10 10 8 8
left_child=1 2 -1 -3
right_child=-2 3 -4 -5
leaf_value=0.019413863619529455 0.013349089891768764 -0.013970702573862879 -0.037361540924759538 0.015885702771652813
leaf_weight=32 38 51 46 82
leaf_count=32 38 51 46 82
internal_value=-1.9797e-11 -0.0024041 -0.0140691 0.00443701
internal_weight=249 211 78 133
internal_count=249 211 78 133
is_linear=0
shrinkage=0.269036


Tree=101
num_leaves=6
num_cat=0
split_feature=4 28 21 28 28
split_gain=0.158886 0.386796 0.496941 0.332451 0.43253
threshold=0.095500000000000015 0.041150000000000006 0.44890000000000008 0.023350000000000006 0.19195000000000004
decision_type=2 8 10 8 8
left_child=3 -2 -3 -1 -5
right_child=1 2 -4 4 -6
leaf_value=0.021610133279535367 -0.020928620540093271 0.04550611060020697 0.0022135661658596404 -0.039651400382987374 -0.0020153993279463127
leaf_weight=25 27 28 61 31 77
leaf_count=25 27 28 61 31 77
internal_value=1.41838e-10 0.00727695 0.0158337 -0.00634681 -0.0128183
internal_weight=249 116 89 133 108
internal_count=249 116 89 133 108
is_linear=0
shrinkage=0.269036


Tree=102
num_leaves=6
num_cat=0
split_feature=6 2 24 11 24
split_gain=0.14056 0.277819 0.525823 0.187379 0.36008
threshold=1.1405000000000001 1.8300000000000003 0.41185000000000005 28.880000000000006 0.19875000000000004
decision_type=10 10 8 10 10
left_child=1 -1 -3 4 -2
right_child=3 2 -4 -5 -6
leaf_value=-0.023469439709670723 0.035935678628565497 -0.025022972062062769 0.026375033758334429 -0.009239357788231423 0.0011067662751774328
leaf_weight=45 31 25 34 44 70
leaf_count=45 31 25 34 44 70
internal_value=0 -0.00754758 0.00459622 0.00541343 0.0117968
internal_weight=249 104 59 145 101
internal_count=249 104 59 145 101
is_linear=0
shrinkage=0.269036


Tree=103
num_leaves=5
num_cat=0
split_feature=31 1 10 31
split_gain=0.12609 0.213236 0.423922 0.211577
threshold=0.32950000000000007 3.6915000000000004 0.54900000000000015 0.42350000000000004
decision_type=10 10 2 10
left_child=-1 3 -3 -2
right_child=1 2 -4 -5
leaf_value=-0.014491639613499798 0.014497517191319012 0.041055870975086832 -0.0054114317977275997 -0.008408431367899356
leaf_weight=37 39 27 30 116
leaf_count=37 39 27 30 116
internal_value=0 0.0025292 0.0165994 -0.002645
internal_weight=249 212 57 155
internal_count=249 212 57 155
is_linear=0
shrinkage=0.269036


Tree=104
num_leaves=5
num_cat=0
split_feature=8 1 20 24
split_gain=0.121144 0.254528 0.155964 0.203153
threshold=0.86750000000000005 0.91900000000000015 1.2364500000000003 1.7988500000000001
decision_type=2 10 10 10
left_child=1 -1 3 -2
right_child=2 -3 -4 -5
leaf_value=0.029154285052217285 -0.0028121837972584058 -0.0071211950206847207 0.010673224314414195 -0.029005199233618023
leaf_weight=28 122 28 45 26
leaf_count=28 122 28 45 26
internal_value=0 0.0110165 -0.00319651 -0.00741366
internal_weight=249 56 193 148
internal_count=249 56 193 148
is_linear=0
shrinkage=0.269036


Tree=105
num_leaves=4
num_cat=0
split_feature=3 31 28
split_gain=0.129671 0.318297 0.197
threshold=1.0000000180025095e-35 0.29700000000000004 0.049000000000000009
decision_type=2 10 10
left_child=-1 -2 -3
right_child=1 2 -4
leaf_value=0.017248417189888305 -0.028991178343079734 -0.013445662732408074 0.0065804344561145233
leaf_weight=28 28 47 146
leaf_count=28 28 47 146
internal_value=-6.16826e-11 -0.00218532 0.00170361
internal_weight=249 221 193
internal_count=249 221 193
is_linear=0
shrinkage=0.269036


Tree=106
num_leaves=6
num_cat=0
split_feature=6 6 1 1 0
split_gain=0.113327 0.177308 0.300418 0.169926 0.26559
threshold=1.1405000000000001 1.0705000000000002 1.7610000000000003 0.28600000000000009 10.800000000000002
decision_type=8 10 8 10 2
left_child=1 2 -1 -2 -5
right_child=3 -3 -4 4 -6
leaf_value=-0.020738000803688147 0.02006211806679201 -0.026087463418765115 0.019837308378152663 0.015661239843082014 -0.0095412915295906443
leaf_weight=25 37 27 28 47 85
leaf_count=25 37 27 28 47 85
internal_value=-8.7468e-11 -0.00834209 0.000698011 0.00394892 -0.000567663
internal_weight=249 80 53 169 132
internal_count=249 80 53 169 132
is_linear=0
shrinkage=0.269036


Tree=107
num_leaves=4
num_cat=0
split_feature=10 10 24
split_gain=0.128288 0.188959 0.26565
threshold=0.71300000000000008 0.61650000000000016 2.8551000000000006
decision_type=2 2 10
left_child=1 2 -1
right_child=-2 -3 -4
leaf_value=-0.0039848300908901912 0.014853956245721417 -0.022301555029857274 0.023000424321733628
leaf_weight=151 36 30 32
leaf_count=151 36 30 32
internal_value=0 -0.00251053 0.000733903
internal_weight=249 213 183
internal_count=249 213 183
is_linear=0
shrinkage=0.269036


Tree=108
num_leaves=5
num_cat=0
split_feature=17 17 24 5
split_gain=0.111501 0.248845 0.316029 0.312912
threshold=2.5000000000000004 7.5000000000000009 0.64275000000000015 0.22785450000000004
decision_type=2 2 10 2
left_child=-1 2 -2 -3
right_child=1 3 -4 -5
leaf_value=0.013415237740098599 -0.040378261078380891 -0.0083756573159369917 0.0019861901084153588 0.015466232065475949
leaf_weight=38 25 85 26 75
leaf_count=38 25 85 26 75
internal_value=0 -0.00241601 -0.0187807 0.00280023
internal_weight=249 211 51 160
internal_count=249 211 51 160
is_linear=0
shrinkage=0.269036


Tree=109
num_leaves=5
num_cat=0
split_feature=5 14 15 13
split_gain=0.115474 0.272637 0.237786 0.234935
threshold=0.41356950000000003 0.40750000000000003 -3.8874999999999997 12.2186367941193
decision_type=2 8 10 2
left_child=1 -1 -2 -3
right_child=2 3 -4 -5
leaf_value=0.027839636511793327 0.0058043407490096259 0.010088739647579094 -0.02729016163067324 -0.010701368488996907
leaf_weight=28 33 74 30 84
leaf_count=28 33 74 30 84
internal_value=0 0.00337184 -0.00995495 -0.000964229
internal_weight=249 186 63 158
internal_count=249 186 63 158
is_linear=0
shrinkage=0.269036


Tree=110
num_leaves=4
num_cat=0
split_feature=0 11 6
split_gain=0.125102 0.22583 0.267731
threshold=0.75000000000000011 276.50000000000006 1.0175000000000003
decision_type=2 8 8
left_child=-1 2 -2
right_child=1 -3 -4
leaf_value=-0.017291638211258249 0.024020622094693828 0.023402062278322991 -0.0053522783245920835
leaf_weight=27 26 31 165
leaf_count=27 26 31 165
internal_value=-1.4036e-10 0.00210304 -0.00135387
internal_weight=249 222 191
internal_count=249 222 191
is_linear=0
shrinkage=0.269036


Tree=111
num_leaves=5
num_cat=0
split_feature=2 14 4 25
split_gain=0.0919904 0.184792 0.828917 0.17509
threshold=-31.069999999999997 2.9240000000000004 0.17500000000000002 55.500000000000007
decision_type=10 8 2 8
left_child=-1 2 -2 -3
right_child=1 3 -4 -5
leaf_value=-0.013712881227840101 0.042953688709726663 -0.019585082229652391 -0.021992287024556093 0.0019433011922710772
leaf_weight=31 33 35 25 125
leaf_count=31 33 35 25 125
internal_value=0 0.00195 0.0149597 -0.00276603
internal_weight=249 218 58 160
internal_count=249 218 58 160
is_linear=0
shrinkage=0.269036


Tree=112
num_leaves=7
num_cat=0
split_feature=4 10 9 31 13 1
split_gain=0.129004 0.410458 0.66765 0.241259 0.229857 0.33455
threshold=0.095500000000000015 0.53700000000000014 0.58200000000000007 0.43450000000000005 10.631040005862701 1.0320000000000003
decision_type=2 2 10 8 2 8
left_child=1 3 -3 -1 -2 -6
right_child=4 2 -4 -5 5 -7
leaf_value=0.00094669125396215279 0.025549977847692817 0.0442388912567079 -0.01267380542849357 -0.031606065968315049 0.019510633477498162 -0.015222313023589283
leaf_weight=26 33 25 37 45 34 49
leaf_count=26 33 25 37 45 34 49
internal_value=-6.47013e-11 -0.00571893 0.0102749 -0.0196853 0.00655705 -0.000994359
internal_weight=249 133 62 71 116 83
internal_count=249 133 62 71 116 83
is_linear=0
shrinkage=0.269036


Tree=113
num_leaves=5
num_cat=0
split_feature=9 11 28 17
split_gain=0.0869165 0.302966 0.187838 0.203018
threshold=0.020500000000000004 1.8700000000000001 0.31700000000000006 18.500000000000004
decision_type=10 8 10 2
left_child=1 -1 3 -2
right_child=2 -3 -4 -5
leaf_value=-0.025395185331640559 0.001698495564817072 0.011789478955488143 -0.013109467458671448 0.025027425296722278
leaf_weight=35 108 29 41 36
leaf_count=35 108 29 41 36
internal_value=2.77022e-10 -0.00854588 0.00295641 0.00753073
internal_weight=249 64 185 144
internal_count=249 64 185 144
is_linear=0
shrinkage=0.269036


Tree=114
num_leaves=4
num_cat=0
split_feature=1 5 2
split_gain=0.0682459 0.189958 0.189286
threshold=0.42700000000000005 0.095561500000000008 29.975000000000005
decision_type=8 2 8
left_child=-1 -2 -3
right_child=1 2 -4
leaf_value=-0.011598535719524045 0.01749396142337965 0.0064421651487769228 -0.011358726251148163
leaf_weight=32 44 88 85
leaf_count=32 44 88 85
internal_value=-9.51093e-11 0.00171038 -0.00230394
internal_weight=249 217 173
internal_count=249 217 173
is_linear=0
shrinkage=0.269036


Tree=115
num_leaves=5
num_cat=0
split_feature=8 23 5 5
split_gain=0.0972966 0.169355 0.158736 0.307337
threshold=0.86750000000000005 -1.7499999999999998 0.53069700000000009 0.2506365000000001
decision_type=2 10 2 2
left_child=1 -1 3 -2
right_child=2 -3 -4 -5
leaf_value=0.024148564654107509 -0.0067067245340744442 -0.0054602761050658779 -0.018447373526962171 0.019685754847426535
leaf_weight=29 110 27 38 45
leaf_count=29 110 27 38 45
internal_value=-1.75329e-11 0.00987287 -0.00286467 0.000955608
internal_weight=249 56 193 155
internal_count=249 56 193 155
is_linear=0
shrinkage=0.269036


Tree=116
num_leaves=7
num_cat=0
split_feature=12 5 31 5 13 0
split_gain=0.0987648 0.354831 0.426599 0.219198 0.331041 0.20349
threshold=232.57650000000004 0.20105950000000003 0.46700000000000003 0.18226750000000003 11.690274479434885 249.90000000000001
decision_type=8 2 8 2 2 2
left_child=3 2 -2 5 -5 -1
right_child=1 -3 -4 4 -6 -7
leaf_value=-0.035562215037234245 -0.0031095150093349987 -0.017315652012778193 0.045172918806426432 -0.0050329461344241341 0.029067593879401523 -0.002697322652245435
leaf_weight=25 27 27 26 87 27 30
leaf_count=25 27 27 26 87 27 30
internal_value=0 0.0077877 0.0205762 -0.00368649 0.0030435 -0.0176359
internal_weight=249 80 53 169 114 55
internal_count=249 80 53 169 114 55
is_linear=0
shrinkage=0.269036


Tree=117
num_leaves=5
num_cat=0
split_feature=25 9 11 11
split_gain=0.0663653 0.125002 0.363917 0.244664
threshold=77.500000000000014 0.40950000000000003 -10.299999999999999 7.7250000000000005
decision_type=10 8 10 10
left_child=1 3 -3 -1
right_child=-2 2 -4 -5
leaf_value=-0.029380507736557961 0.010349752280741215 0.028735708512047348 -0.0043121404894359986 0.0055873813307551409
leaf_weight=30 38 30 123 28
leaf_count=30 38 30 123 28
internal_value=2.85546e-11 -0.00186394 0.00216783 -0.0124995
internal_weight=249 211 153 58
internal_count=249 211 153 58
is_linear=0
shrinkage=0.269036


Tree=118
num_leaves=4
num_cat=0
split_feature=9 30 9
split_gain=0.0795507 0.141521 0.193567
threshold=0.15950000000000003 0.0055000000000000005 0.75650000000000006
decision_type=8 8 10
left_child=-1 -2 -3
right_child=1 2 -4
leaf_value=0.013788808029900195 -0.019556925909523983 -0.00606497590555438 0.011267094254580603
leaf_weight=27 28 116 78
leaf_count=27 28 116 78
internal_value=9.31282e-11 -0.00167702 0.000903588
internal_weight=249 222 194
internal_count=249 222 194
is_linear=0
shrinkage=0.269036


Tree=119
num_leaves=5
num_cat=0
split_feature=13 17 12 5
split_gain=0.0807089 0.165363 0.341791 0.297879
threshold=8.6769260989923875 9.5000000000000018 232.57650000000004 0.10617450000000002
decision_type=2 2 8 2
left_child=-1 2 -2 -3
right_child=1 3 -4 -5
leaf_value=0.012391977577714673 -0.0037115569607029902 -0.031053650822613903 0.032951460493497432 -0.0007206458300070838
leaf_weight=33 63 31 26 96
leaf_count=33 63 31 26 96
internal_value=-1.23316e-10 -0.00189322 0.00699899 -0.00812477
internal_weight=249 216 89 127
internal_count=249 216 89 127
is_linear=0
shrinkage=0.269036


Tree=120
num_leaves=4
num_cat=0
split_feature=3 1 20
split_gain=0.0905419 0.185509 0.103698
threshold=1.0000000180025095e-35 0.16150000000000003 1.1037000000000001
decision_type=2 10 8
left_child=-1 -2 -3
right_child=1 2 -4
leaf_value=0.014412920871368006 -0.019208252535727333 -0.0134061876855304 0.0043751078430726998
leaf_weight=28 37 28 156
leaf_count=28 37 28 156
internal_value=0 -0.00182607 0.00166926
internal_weight=249 221 184
internal_count=249 221 184
is_linear=0
shrinkage=0.269036


Tree=121
num_leaves=6
num_cat=0
split_feature=12 13 13 22 13
split_gain=0.106944 0.294175 0.108871 0.186438 0.173089
threshold=9.8840000000000021 11.504981378869156 11.813727563765577 0.31335000000000007 12.716511461097157
decision_type=10 2 2 8 2
left_child=1 -1 3 -2 -4
right_child=2 -3 4 -5 -6
leaf_value=0.032310108815489381 0.00058137466742166585 -0.0042359976129012497 0.017116978860492588 -0.022711166625491604 -0.0082383743602150294
leaf_weight=25 59 44 38 43 40
leaf_count=25 59 44 38 43 40
internal_value=0 0.00900535 -0.00345205 -0.00923803 0.00411423
internal_weight=249 69 180 102 78
internal_count=249 69 180 102 78
is_linear=0
shrinkage=0.269036


Tree=122
num_leaves=6
num_cat=0
split_feature=30 17 17 30 20
split_gain=0.0655618 0.285267 0.355172 0.176818 0.174443
threshold=0.059500000000000004 16.500000000000004 3.5000000000000004 0.092500000000000013 1.0817500000000002
decision_type=10 2 2 10 10
left_child=1 2 -1 -2 -5
right_child=3 -3 -4 4 -6
leaf_value=0.021839515834498259 -0.022304476670093547 0.023076940153978508 -0.016834797643813813 -0.016273094776891067 0.0085414626245321444
leaf_weight=25 30 40 55 29 70
leaf_count=25 30 40 55 29 70
internal_value=-7.37577e-11 0.00452626 -0.00474907 -0.00421048 0.00127255
internal_weight=249 120 80 129 99
internal_count=249 120 80 129 99
is_linear=0
shrinkage=0.269036


Tree=123
num_leaves=5
num_cat=0
split_feature=5 4 5 30
split_gain=0.066867 0.111824 0.266642 0.157197
threshold=0.045593000000000009 0.30950000000000005 0.2506365000000001 0.0055000000000000005
decision_type=2 2 2 10
left_child=-1 3 -3 -2
right_child=1 2 -4 -5
leaf_value=0.010723944330024906 -0.019877397070865273 -0.010329163847210238 0.02896417841712301 -0.00046212551819378045
leaf_weight=36 40 25 25 123
leaf_count=36 40 25 25 123
internal_value=3.50795e-11 -0.0018125 0.00931751 -0.00522661
internal_weight=249 213 50 163
internal_count=249 213 50 163
is_linear=0
shrinkage=0.269036


Tree=124
num_leaves=5
num_cat=0
split_feature=12 2 31 0
split_gain=0.0822191 0.227404 0.0908635 0.157336
threshold=9.8840000000000021 -4.6199999999999992 0.39050000000000007 1.1500000000000001
decision_type=10 10 10 2
left_child=1 -1 -2 -4
right_child=2 -3 3 -5
leaf_value=-0.012593896629438342 -0.017737800372482026 0.019538016932383748 0.01693979868760926 -0.0047728745073973454
leaf_weight=25 26 44 30 124
leaf_count=25 26 44 30 124
internal_value=4.5834e-11 0.00789602 -0.00302681 -0.000543133
internal_weight=249 69 180 154
internal_count=249 69 180 154
is_linear=0
shrinkage=0.269036


Tree=125
num_leaves=4
num_cat=0
split_feature=4 5 30
split_gain=0.0808137 0.182107 0.156642
threshold=0.38850000000000007 0.033183500000000012 0.055500000000000008
decision_type=2 2 8
left_child=1 -1 -3
right_child=-2 2 -4
leaf_value=0.023354746626355272 -0.010047990038663612 0.0091098336681893263 -0.0072892096072402091
leaf_weight=26 47 70 106
leaf_count=26 47 70 106
internal_value=1.63694e-11 0.0023379 -0.000766863
internal_weight=249 202 176
internal_count=249 202 176
is_linear=0
shrinkage=0.269036


Tree=126
num_leaves=4
num_cat=0
split_feature=12 3 11
split_gain=0.0760699 0.122893 0.121343
threshold=490.21150000000006 1.5000000000000002 8.1950000000000021
decision_type=8 2 10
left_child=1 2 -1
right_child=-2 -3 -4
leaf_value=-0.013427426437411048 0.0097486209510422965 0.009617777927325764 0.0016776405177321501
leaf_weight=78 47 48 76
leaf_count=78 47 48 76
internal_value=-5.06137e-11 -0.00226824 -0.00597298
internal_weight=249 202 154
internal_count=249 202 154
is_linear=0
shrinkage=0.269036


Tree=127
num_leaves=7
num_cat=0
split_feature=2 9 22 20 22 4
split_gain=0.109684 0.202229 0.229005 0.205758 0.19042 0.126775
threshold=6.3100000000000005 0.88500000000000012 0.23600000000000002 1.0817500000000002 0.13655000000000003 0.17500000000000002
decision_type=8 8 8 10 10 2
left_child=4 2 -2 -3 -1 -6
right_child=1 3 -4 -5 5 -7
leaf_value=0.018842452363369146 -0.014304164316052055 -0.031936424059780484 0.017823211289510886 -0.002764249911715244 0.0078052989212641288 -0.01698303941553098
leaf_weight=49 26 30 42 42 32 28
leaf_count=49 26 30 42 42 32 28
internal_value=0 -0.00498232 0.00553921 -0.0149193 0.00639931 -0.00376259
internal_weight=249 140 68 72 109 60
internal_count=249 140 68 72 109 60
is_linear=0
shrinkage=0.269036


Tree=128
num_leaves=5
num_cat=0
split_feature=23 5 13 21
split_gain=0.0692426 0.0762484 0.204814 0.0986341
threshold=17.505000000000006 0.41356950000000003 11.174465279842051 0.56715000000000015
decision_type=10 2 2 8
left_child=1 2 -1 -3
right_child=-2 3 -4 -5
leaf_value=0.022502781009491334 -0.012356889815757683 0.0058207864135416615 -0.00048677234658104447 -0.016732808524808025
leaf_weight=36 29 25 127 32
leaf_count=36 29 25 127 32
internal_value=0 0.00162886 0.00459067 -0.00684088
internal_weight=249 220 163 57
internal_count=249 220 163 57
is_linear=0
shrinkage=0.269036


Tree=129
num_leaves=6
num_cat=0
split_feature=6 13 17 15 5
split_gain=0.0746016 0.131974 0.0987143 0.164231 0.0966088
threshold=1.1405000000000001 11.504981378869156 19.500000000000004 -1.3219999999999998 0.12669100000000003
decision_type=8 2 2 10 2
left_child=1 -1 3 -2 -3
right_child=2 4 -4 -5 -6
leaf_value=-0.021259238408918701 -0.0056669210567470898 -0.010469673908799441 0.014334264511771297 0.018004429456335645 0.012953538833510716
leaf_weight=29 99 25 43 27 26
leaf_count=29 99 25 43 27 26
internal_value=7.19967e-11 -0.00676835 0.00320395 -0.000594489 0.00147157
internal_weight=249 80 169 126 51
internal_count=249 80 169 126 51
is_linear=0
shrinkage=0.269036


Tree=130
num_leaves=4
num_cat=0
split_feature=0 1 23
split_gain=0.0786215 0.124086 0.103104
threshold=0.75000000000000011 3.6915000000000004 6.5150000000000015
decision_type=2 10 10
left_child=-1 2 -2
right_child=1 -3 -4
leaf_value=-0.013708036862456805 0.0026046166013706175 0.016124923270746092 -0.011871194570630621
leaf_weight=27 138 36 48
leaf_count=27 138 36 48
internal_value=0 0.00166719 -0.00113108
internal_weight=249 222 186
internal_count=249 222 186
is_linear=0
shrinkage=0.269036


Tree=131
num_leaves=5
num_cat=0
split_feature=11 25 17 28
split_gain=0.0596365 0.192577 0.126312 0.139078
threshold=47.220000000000006 59.500000000000007 19.500000000000004 0.049000000000000009
decision_type=10 10 2 10
left_child=2 -2 3 -1
right_child=1 -3 -4 -5
leaf_value=-0.010116194696517032 -0.021836632380589822 0.0076789575282924325 0.017536192682978083 0.0063025584761033857
leaf_weight=66 32 32 33 86
leaf_count=66 32 32 33 86
internal_value=-1.11838e-10 -0.00707884 0.00244889 -0.000826637
internal_weight=249 64 185 152
internal_count=249 64 185 152
is_linear=0
shrinkage=0.269036


Tree=132
num_leaves=6
num_cat=0
split_feature=22 9 9 25 24
split_gain=0.0510837 0.184629 0.172628 0.154966 0.147722
threshold=0.23030000000000003 1.3245000000000002 0.53050000000000008 59.500000000000007 2.3874500000000007
decision_type=8 8 8 8 8
left_child=1 -1 4 -4 -2
right_child=2 -3 3 -5 -6
leaf_value=0.0055693057520025775 -0.022248704408927154 -0.024526310001444708 0.022093399325034457 0.0016706815691766741 0.0050526671700388878
leaf_weight=36 32 25 38 92 26
leaf_count=36 32 25 38 92 26
internal_value=-5.69028e-11 -0.00676496 0.00219501 0.0076404 -0.0100102
internal_weight=249 61 188 130 58
internal_count=249 61 188 130 58
is_linear=0
shrinkage=0.269036


Tree=133
num_leaves=5
num_cat=0
split_feature=13 2 30 28
split_gain=0.0696995 0.0916983 0.291047 0.1595
threshold=8.6769260989923875 -0.74499999999999988 0.055500000000000008 0.26710000000000006
decision_type=2 10 8 8
left_child=-1 2 -2 -3
right_child=1 3 -4 -5
leaf_value=0.011515820598992981 0.026057754756099696 -0.015698736817812066 -0.010555944912027241 0.0019512430247598386
leaf_weight=33 30 63 33 90
leaf_count=33 30 63 33 90
internal_value=0 -0.00175936 0.00687915 -0.0053164
internal_weight=249 216 63 153
internal_count=249 216 63 153
is_linear=0
shrinkage=0.269036


Tree=134
num_leaves=5
num_cat=0
split_feature=2 6 15 15
split_gain=0.0575343 0.100049 0.279462 0.191881
threshold=-31.069999999999997 1.2265000000000004 -7.4409999999999989 17.047000000000004
decision_type=8 8 10 8
left_child=-1 3 -3 -2
right_child=1 2 -4 -5
leaf_value=-0.011726486402871703 -0.02354454146431547 -0.0053218536824524015 0.028409399372227421 0.0018753757230813275
leaf_weight=27 26 40 32 124
leaf_count=27 26 40 32 124
internal_value=0 0.00142619 0.00966981 -0.00253074
internal_weight=249 222 72 150
internal_count=249 222 72 150
is_linear=0
shrinkage=0.269036


Tree=135
num_leaves=5
num_cat=0
split_feature=24 4 11 11
split_gain=0.0514961 0.165544 0.154267 0.0953693
threshold=1.8406500000000003 -1.0000000180025095e-35 6.0500000000000016 4.4650000000000007
decision_type=10 2 10 8
left_child=1 -1 -3 -2
right_child=3 2 -4 -5
leaf_value=-0.018373265966623142 -0.018267443444708382 0.012974069425715402 -0.0032897897977323676 0.0041421785117113927
leaf_weight=25 28 87 82 27
leaf_count=25 28 87 82 27
internal_value=2.65908e-12 0.00206005 0.00508273 -0.00726636
internal_weight=249 194 169 55
internal_count=249 194 169 55
is_linear=0
shrinkage=0.269036


Tree=136
num_leaves=5
num_cat=0
split_feature=5 10 10 24
split_gain=0.0573394 0.0903541 0.117434 0.0967688
threshold=1.1867080000000001 0.61650000000000016 0.71300000000000008 1.1593500000000001
decision_type=2 2 2 10
left_child=1 3 -3 -1
right_child=-2 2 -4 -5
leaf_value=0.00021142580143913817 -0.011706609888291645 -0.019388085444900963 0.0040416587537535874 0.014337577491924148
leaf_weight=108 27 30 32 52
leaf_count=108 27 30 32 52
internal_value=2.64224e-10 0.00142378 -0.00729531 0.00480243
internal_weight=249 222 62 160
internal_count=249 222 62 160
is_linear=0
shrinkage=0.269036


Tree=137
num_leaves=5
num_cat=0
split_feature=11 31 2 6
split_gain=0.0559735 0.432718 0.257965 0.147491
threshold=-7.504999999999999 0.42350000000000004 -6.7399999999999993 1.2265000000000004
decision_type=10 10 10 8
left_child=1 -1 -2 -4
right_child=2 -3 3 -5
leaf_value=0.034613980444965442 -0.024789314038968023 -0.010293867703722134 -0.0031244437457174585 0.01548214254056853
leaf_weight=25 31 41 109 43
leaf_count=25 31 41 109 43
internal_value=-1.5602e-10 0.00671668 -0.00242241 0.00213926
internal_weight=249 66 183 152
internal_count=249 66 183 152
is_linear=0
shrinkage=0.269036


Tree=138
num_leaves=7
num_cat=0
split_feature=4 10 9 11 17 23
split_gain=0.0422759 0.15101 0.277527 0.147778 0.146583 0.236407
threshold=0.095500000000000015 0.53150000000000019 0.58200000000000007 -1.5699999999999998 7.5000000000000009 11.055000000000001
decision_type=2 2 10 10 2 8
left_child=1 3 -3 -1 -2 -6
right_child=4 2 -4 -5 5 -7
leaf_value=0.0019782945559027928 -0.0076293338742535778 0.028234840694339187 -0.007899389541057485 -0.023280712356299211 -0.0045479268502457799 0.027191783397254594
leaf_weight=30 48 25 40 38 33 35
leaf_count=30 48 25 40 38 33 35
internal_value=0 -0.00327386 0.00599839 -0.012137 0.00375364 0.0117887
internal_weight=249 133 65 68 116 68
internal_count=249 133 65 68 116 68
is_linear=0
shrinkage=0.269036


Tree=139
num_leaves=4
num_cat=0
split_feature=5 1 25
split_gain=0.0500045 0.104655 0.0947815
threshold=0.59516400000000014 0.27800000000000008 58.500000000000007
decision_type=2 10 10
left_child=1 -1 -3
right_child=-2 2 -4
leaf_value=0.017068149099429226 -0.0081175232338807982 -0.0054174916334871863 0.0075187994758650041
leaf_weight=28 45 111 65
leaf_count=28 45 111 65
internal_value=3.62745e-11 0.00179063 -0.000639884
internal_weight=249 204 176
internal_count=249 204 176
is_linear=0
shrinkage=0.269036


Tree=140
num_leaves=4
num_cat=0
split_feature=30 12 2
split_gain=0.0548362 0.129097 0.0956718
threshold=0.28100000000000008 232.57650000000004 -0.74499999999999988
decision_type=8 8 10
left_child=1 2 -1
right_child=-2 -3 -4
leaf_value=0.0064998314560808486 -0.0086177568811625117 0.014764141925219725 -0.006938064917860782
leaf_weight=63 44 44 98
leaf_count=63 44 44 98
internal_value=-9.34112e-11 0.00184966 -0.00167976
internal_weight=249 205 161
internal_count=249 205 161
is_linear=0
shrinkage=0.269036


Tree=141
num_leaves=7
num_cat=0
split_feature=0 31 31 24 9 27
split_gain=0.0438384 0.330721 0.252063 0.214087 0.117557 0.117258
threshold=33.000000000000007 0.51050000000000006 0.51050000000000006 1.3588000000000002 1.0620000000000001 1.0000000180025095e-35
decision_type=2 8 8 10 8 10
left_child=2 4 5 -4 -2 -1
right_child=1 -3 3 -5 -6 -7
leaf_value=-0.010834229185038015 0.023356425720477747 -0.020217814322479526 0.036094890248841931 0.00088618532159757425 -0.0019892421758624375 0.010036463686437033
leaf_weight=70 26 49 25 25 27 27
leaf_count=70 26 49 25 25 27 27
internal_value=0 -0.00428544 0.00297357 0.0184905 0.0104445 -0.00502486
internal_weight=249 102 147 50 53 97
internal_count=249 102 147 50 53 97
is_linear=0
shrinkage=0.269036


Tree=142
num_leaves=4
num_cat=0
split_feature=13 30 11
split_gain=0.0524915 0.103486 0.134184
threshold=8.6769260989923875 0.0025000000000000005 -1.2699999999999998
decision_type=2 10 10
left_child=-1 -2 -3
right_child=1 2 -4
leaf_value=0.0099936568343648117 -0.014072041745835311 0.012567810285476509 -0.003605443446507242
leaf_weight=33 39 53 124
leaf_count=33 39 53 124
internal_value=0 -0.00152681 0.0012374
internal_weight=249 216 177
internal_count=249 216 177
is_linear=0
shrinkage=0.269036


Tree=143
num_leaves=5
num_cat=0
split_feature=24 24 13 10
split_gain=0.0414533 0.113502 0.146266 0.077858
threshold=1.8406500000000003 0.8660500000000001 12.019709343055785 0.53150000000000019
decision_type=10 10 2 2
left_child=1 2 -1 -2
right_child=3 -3 -4 -5
leaf_value=0.005492661557450978 0.0027209441197883714 0.017063316010074575 -0.010978080757569153 -0.017607871230944198
leaf_weight=100 30 30 64 25
leaf_count=100 30 30 64 25
internal_value=4.15573e-11 0.00184829 -0.000934945 -0.00651943
internal_weight=249 194 164 55
internal_count=249 194 164 55
is_linear=0
shrinkage=0.269036


Tree=144
num_leaves=4
num_cat=0
split_feature=5 28 31
split_gain=0.047741 0.107272 0.118348
threshold=0.59516400000000014 0.023350000000000006 0.54550000000000021
decision_type=2 10 10
left_child=1 -1 -3
right_child=-2 2 -4
leaf_value=0.01368721519613437 -0.0079316732224517482 0.0026854426155440577 -0.014339717309603655
leaf_weight=43 45 122 39
leaf_count=43 45 122 39
internal_value=-1.06777e-11 0.00174963 -0.00143866
internal_weight=249 204 161
internal_count=249 204 161
is_linear=0
shrinkage=0.269036


Tree=145
num_leaves=5
num_cat=0
split_feature=17 4 31 10
split_gain=0.0362279 0.112507 0.159772 0.117927
threshold=2.5000000000000004 0.028000000000000001 0.45450000000000007 0.45100000000000007
decision_type=2 2 8 2
left_child=-1 2 -2 -3
right_child=1 3 -4 -5
leaf_value=0.007646819911125099 0.0026831926760682249 0.011166154269638592 -0.027732987054085067 -0.0037530820162963363
leaf_weight=38 25 63 25 98
leaf_count=38 25 63 25 98
internal_value=0 -0.00137715 -0.0125249 0.00208488
internal_weight=249 211 50 161
internal_count=249 211 50 161
is_linear=0
shrinkage=0.269036


Tree=146
num_leaves=6
num_cat=0
split_feature=6 2 25 11 8
split_gain=0.0380695 0.128093 0.185138 0.0733284 0.123413
threshold=1.1405000000000001 1.8300000000000003 79.500000000000014 -20.229999999999997 0.84000000000000008
decision_type=10 10 8 8 2
left_child=1 -1 -3 -2 -5
right_child=3 2 -4 4 -6
leaf_value=-0.014739171756862601 -0.010126114867926972 -0.0086050695864480185 0.021893123176699746 -0.0099739450212884551 0.010451170252373574
leaf_weight=45 26 34 25 28 91
leaf_count=45 26 34 25 28 91
internal_value=0 -0.00392795 0.00431789 0.00281729 0.00564526
internal_weight=249 104 59 145 119
internal_count=249 104 59 145 119
is_linear=0
shrinkage=0.269036


Tree=147
num_leaves=5
num_cat=0
split_feature=8 2 12 23
split_gain=0.0634789 0.127079 0.0926199 0.0879044
threshold=0.86750000000000005 33.445000000000007 0.82650000000000012 15.750000000000002
decision_type=2 10 10 10
left_child=1 -1 -2 -4
right_child=2 -3 3 -5
leaf_value=0.019483724660434944 -0.016927412151411098 -0.0062966925331396804 0.0031468660389707441 -0.012365793589395668
leaf_weight=31 27 25 133 33
leaf_count=31 27 25 133 33
internal_value=0 0.00797461 -0.00231388 6.3024e-05
internal_weight=249 56 193 166
internal_count=249 56 193 166
is_linear=0
shrinkage=0.269036


Tree=148
num_leaves=4
num_cat=0
split_feature=3 0 0
split_gain=0.0370471 0.125391 0.0674331
threshold=1.0000000180025095e-35 832.00000000000011 47.350000000000009
decision_type=2 2 2
left_child=-1 2 -2
right_child=1 -3 -4
leaf_value=0.0092194341505689864 -0.0016428244188027052 -0.019111469987195089 0.01013187469301551
leaf_weight=28 150 25 46
leaf_count=28 150 25 46
internal_value=-2.19353e-11 -0.00116807 0.00112063
internal_weight=249 221 196
internal_count=249 221 196
is_linear=0
shrinkage=0.269036


Tree=149
num_leaves=6
num_cat=0
split_feature=1 13 5 17 24
split_gain=0.0396298 0.233774 0.204652 0.193384 0.183622
threshold=1.7610000000000003 12.957846316755214 0.13148950000000001 14.500000000000002 0.17715000000000003
decision_type=8 2 2 2 10
left_child=2 3 -1 -2 -4
right_child=1 -3 4 -5 -6
leaf_value=-0.021939202643160353 -0.016872639352454168 0.026597120832128559 0.022103331780467007 0.0063943647412672529 -0.0053343176815828621
leaf_weight=32 41 25 26 70 55
leaf_count=32 41 25 26 70 55
internal_value=0 0.00309379 -0.0037235 -0.00219975 0.00347283
internal_weight=249 136 113 111 81
internal_count=249 136 113 111 81
is_linear=0
shrinkage=0.269036


Tree=150
num_leaves=4
num_cat=0
split_feature=31 0 8
split_gain=0.0450655 0.0862009 0.0540382
threshold=0.36450000000000005 1.1500000000000001 0.91600000000000015
decision_type=8 2 2
left_child=-1 -2 -3
right_child=1 2 -4
leaf_value=-0.010168319365478524 0.012948420235708179 0.0067312796234799046 -0.0038507144363238797
leaf_weight=28 38 47 136
leaf_count=28 38 47 136
internal_value=0 0.00128829 -0.00113293
internal_weight=249 221 183
internal_count=249 221 183
is_linear=0
shrinkage=0.269036


Tree=151
num_leaves=4
num_cat=0
split_feature=15 22 9
split_gain=0.0452645 0.092865 0.106918
threshold=-0.23849999999999996 0.44595000000000007 0.88500000000000012
decision_type=10 10 10
left_child=1 2 -1
right_child=-2 -3 -4
leaf_value=0.0011570647784978918 0.010401205995105585 0.01384276912003621 -0.012189539602351508
leaf_weight=131 27 26 65
leaf_count=131 27 26 65
internal_value=0 -0.00126501 -0.0032691
internal_weight=249 222 196
internal_count=249 222 196
is_linear=0
shrinkage=0.269036


Tree=152
num_leaves=6
num_cat=0
split_feature=5 4 23 20 20
split_gain=0.0356682 0.0947973 0.144694 0.0986956 0.0863521
threshold=0.095561500000000008 0.14450000000000002 6.3100000000000014 1.1818000000000002 1.1487000000000001
decision_type=2 2 10 8 10
left_child=4 3 -3 -2 -1
right_child=1 2 -4 -5 -6
leaf_value=-0.0049450718627646363 0.0031946881869666481 0.013094839162541378 -0.010882326464755364 -0.012954558679783845 0.01719987572861964
leaf_weight=25 45 56 27 70 26
leaf_count=25 45 56 27 70 26
internal_value=0 -0.00163419 0.00529504 -0.00663529 0.00634451
internal_weight=249 198 83 115 51
internal_count=249 198 83 115 51
is_linear=0
shrinkage=0.269036


Tree=153
num_leaves=5
num_cat=0
split_feature=12 2 10 23
split_gain=0.0420122 0.132502 0.110501 0.0812673
threshold=9.8840000000000021 -2.8149999999999999 1.0000000180025095e-35 15.095000000000001
decision_type=10 10 2 10
left_child=1 -1 -2 -4
right_child=2 -3 3 -5
leaf_value=-0.0086219273848016868 -0.015495407184389144 0.015387081021030145 -0.0024523612562144009 0.012448162179163178
leaf_weight=28 36 41 109 35
leaf_count=28 36 41 109 35
internal_value=-1.68411e-11 0.00564429 -0.00216365 0.00116929
internal_weight=249 69 180 144
internal_count=249 69 180 144
is_linear=0
shrinkage=0.269036


Tree=154
num_leaves=4
num_cat=0
split_feature=13 6 2
split_gain=0.0513107 0.0980247 0.115333
threshold=8.6769260989923875 1.3015000000000001 -18.894999999999996
decision_type=2 8 10
left_child=-1 2 -2
right_child=1 -3 -4
leaf_value=0.0098806184555172254 0.016857289742844339 -0.017351075635556965 -0.0021184778142753656
leaf_weight=33 27 25 164
leaf_count=33 27 25 164
internal_value=-2.13063e-11 -0.00150954 0.00056396
internal_weight=249 216 191
internal_count=249 216 191
is_linear=0
shrinkage=0.269036


Tree=155
num_leaves=4
num_cat=0
split_feature=4 5 0
split_gain=0.0409796 0.114943 0.0740961
threshold=0.38850000000000007 0.033183500000000012 33.000000000000007
decision_type=2 2 2
left_child=1 -1 -3
right_child=-2 2 -4
leaf_value=0.01836205558481787 -0.0071551800800854935 0.0035260618671652429 -0.0078426969456706179
leaf_weight=26 47 109 67
leaf_count=26 47 109 67
internal_value=5.9104e-11 0.00166482 -0.000801818
internal_weight=249 202 176
internal_count=249 202 176
is_linear=0
shrinkage=0.269036


Tree=156
num_leaves=4
num_cat=0
split_feature=0 11 0
split_gain=0.0472865 0.0875233 0.0701867
threshold=0.75000000000000011 276.50000000000006 47.350000000000009
decision_type=2 8 2
left_child=-1 2 -2
right_child=1 -3 -4
leaf_value=-0.0106309830564865 -0.0051904938469430539 0.014552575176660214 0.0052815450927921528
leaf_weight=27 112 31 79
leaf_count=27 112 31 79
internal_value=9.84268e-11 0.00129296 -0.000859127
internal_weight=249 222 191
internal_count=249 222 191
is_linear=0
shrinkage=0.269036


Tree=157
num_leaves=6
num_cat=0
split_feature=6 2 15 6 23
split_gain=0.0386002 0.0589977 0.117598 0.0523651 0.0414818
threshold=1.1405000000000001 -31.069999999999997 -1.5184999999999997 1.0705000000000002 15.750000000000002
decision_type=8 10 10 10 8
left_child=3 -2 -3 4 -1
right_child=1 2 -4 -5 -6
leaf_value=0.0080096501373570009 -0.0087399135698326882 0.00095694574351129599 0.02131584127068652 -0.014512244512689348 -0.007067784851530123
leaf_weight=25 29 115 25 27 28
leaf_count=25 29 115 25 27 28
internal_value=-4.23592e-11 0.00230466 0.00459246 -0.00486859 4.42125e-05
internal_weight=249 169 140 80 53
internal_count=249 169 140 80 53
is_linear=0
shrinkage=0.269036


Tree=158
num_leaves=7
num_cat=0
split_feature=2 24 0 9 13 20
split_gain=0.0356596 0.104589 0.132625 0.108171 0.102289 0.197571
threshold=6.3100000000000005 0.38920000000000005 26.750000000000004 0.75650000000000006 12.143013614237843 1.0364500000000003
decision_type=8 10 2 10 2 10
left_child=4 2 -2 -3 5 -1
right_child=1 3 -4 -5 -6 -7
leaf_value=0.02741602512195053 -0.02377956096365887 -0.0064163507284913162 0.00014947857627197175 0.014447583661957747 -0.0067605530330227459 -0.0022047985867548396
leaf_weight=28 30 35 38 37 42 39
leaf_count=28 30 35 38 37 42 39
internal_value=0 -0.00284085 -0.0104075 0.00430539 0.00364879 0.0101741
internal_weight=249 140 68 72 109 67
internal_count=249 140 68 72 109 67
is_linear=0
shrinkage=0.269036


Tree=159
num_leaves=5
num_cat=0
split_feature=5 5 11 17
split_gain=0.0414588 0.0747479 0.122726 0.0984964
threshold=0.59516400000000014 0.26751700000000006 11.105000000000002 2.5000000000000004
decision_type=2 2 8 2
left_child=1 3 -3 -1
right_child=-2 2 -4 -5
leaf_value=0.013255034597728166 -0.0073914112283914321 0.022121914315165518 -0.0036001855015260768 -0.0046894574192704293
leaf_weight=27 45 29 25 123
leaf_count=27 45 29 25 123
internal_value=5.69657e-11 0.00163046 0.0102135 -0.00145945
internal_weight=249 204 54 150
internal_count=249 204 54 150
is_linear=0
shrinkage=0.269036


Tree=160
num_leaves=4
num_cat=0
split_feature=11 11 5
split_gain=0.0289149 0.0734629 0.0850193
threshold=-20.229999999999997 -6.9449999999999994 0.59516400000000014
decision_type=8 8 2
left_child=-1 -2 -3
right_child=1 2 -4
leaf_value=-0.0083131490295555149 0.01416338969004383 0.0015379563091325794 -0.014250250223333696
leaf_weight=27 27 166 29
leaf_count=27 27 166 29
internal_value=0 0.00101106 -0.000810033
internal_weight=249 222 195
internal_count=249 222 195
is_linear=0
shrinkage=0.269036


Tree=161
num_leaves=4
num_cat=0
split_feature=13 6 2
split_gain=0.0461216 0.0946976 0.0799119
threshold=8.6769260989923875 1.276 -0.74499999999999988
decision_type=2 8 10
left_child=-1 2 -2
right_child=1 -3 -4
leaf_value=0.0093676801160090147 0.01123929718673043 -0.013821362334251391 -0.0020664177892919088
leaf_weight=33 43 37 136
leaf_count=33 43 37 136
internal_value=0 -0.00143117 0.00112993
internal_weight=249 216 179
internal_count=249 216 179
is_linear=0
shrinkage=0.269036


Tree=162
num_leaves=5
num_cat=0
split_feature=30 25 17 16
split_gain=0.0378872 0.0460039 0.0939054 0.0749415
threshold=0.23000000000000004 59.500000000000007 16.500000000000004 2.5000000000000004
decision_type=10 8 2 2
left_child=1 3 -3 -1
right_child=-2 2 -4 -5
leaf_value=0.0035854728695854992 0.0084903647654217471 -0.003330876048349488 0.011145679580663944 -0.014562007979631508
leaf_weight=28 33 100 48 40
leaf_count=28 33 100 48 40
internal_value=0 -0.00129714 0.00136422 -0.00708952
internal_weight=249 216 148 68
internal_count=249 216 148 68
is_linear=0
shrinkage=0.269036


Tree=163
num_leaves=6
num_cat=0
split_feature=0 2 28 9 10
split_gain=0.0302551 0.169465 0.137412 0.0829972 0.144164
threshold=33.000000000000007 -6.7399999999999993 0.024550000000000002 2.4435000000000007 0.54900000000000015
decision_type=2 10 10 8 2
left_child=3 -2 -3 4 -1
right_child=1 2 -4 -5 -6
leaf_value=0.0071818931231062673 -0.022308803878241149 0.018264896036172398 -0.0056379214167466499 0.01274913809822284 -0.012836813458134961
leaf_weight=60 26 27 49 41 46
leaf_count=60 26 27 49 41 46
internal_value=-4.82238e-11 -0.00356015 0.00285387 0.0024703 -0.00150547
internal_weight=249 102 76 147 106
internal_count=249 102 76 147 106
is_linear=0
shrinkage=0.269036


Tree=164
num_leaves=6
num_cat=0
split_feature=11 9 6 5 18
split_gain=0.0369344 0.149985 0.184006 0.116602 0.0817929
threshold=3.2950000000000004 0.020500000000000004 1.2115000000000002 0.095561500000000008 1.0000000180025095e-35
decision_type=8 10 10 2 2
left_child=1 -1 -3 -2 -5
right_child=3 2 -4 4 -6
leaf_value=-0.018221528502295779 0.017740176025170203 0.014417379373700807 -0.013313195427150461 0.0043791777556778308 -0.010713123682853829
leaf_weight=35 30 43 29 71 41
leaf_count=35 30 43 29 71 41
internal_value=-2.64634e-11 -0.00377466 0.00324812 0.00284429 -0.00114568
internal_weight=249 107 72 142 112
internal_count=249 107 72 142 112
is_linear=0
shrinkage=0.269036


Tree=165
num_leaves=4
num_cat=0
split_feature=11 0 31
split_gain=0.0291866 0.0532304 0.0616999
threshold=353.00000000000006 1.1500000000000001 0.42350000000000004
decision_type=10 2 10
left_child=1 -1 -3
right_child=-2 2 -4
leaf_value=0.012417966928300408 -0.0087187808003883257 0.0054873887557947438 -0.0042781898821203385
leaf_weight=26 25 76 122
leaf_count=26 25 76 122
internal_value=0 0.000973078 -0.000529786
internal_weight=249 224 198
internal_count=249 224 198
is_linear=0
shrinkage=0.269036


Tree=166
num_leaves=4
num_cat=0
split_feature=0 29 0
split_gain=0.032577 0.0691333 0.0799619
threshold=0.75000000000000011 0.44625000000000009 31.700000000000003
decision_type=2 10 2
left_child=-1 2 -2
right_child=1 -3 -4
leaf_value=-0.0088238913273645629 0.0093132378183380052 -0.008613378626766182 -0.0020679356743208742
leaf_weight=27 86 43 93
leaf_count=27 86 43 93
internal_value=1.72253e-10 0.00107318 0.00340011
internal_weight=249 222 179
internal_count=249 222 179
is_linear=0
shrinkage=0.269036


Tree=167
num_leaves=7
num_cat=0
split_feature=10 5 9 11 5 9
split_gain=0.0275645 0.111646 0.0779812 0.0599744 0.107529 0.0410751
threshold=0.53450000000000009 0.27752450000000006 0.88500000000000012 17.595000000000002 0.20987350000000002 0.24650000000000002
decision_type=2 2 8 8 2 10
left_child=3 2 -2 4 -1 -5
right_child=1 -3 -4 5 -6 -7
leaf_value=0.0038352366515044976 0.0061969648390757552 0.016555923849978928 -0.010297080032030679 0.012466018856767486 -0.015554034791901957 -0.0029560953215431993
leaf_weight=37 41 32 42 25 47 25
leaf_count=37 41 32 42 25 47 25
internal_value=-1.81005e-12 0.00305555 -0.00214942 -0.0026223 -0.00701352 0.00475496
internal_weight=249 115 83 134 84 50
internal_count=249 115 83 134 84 50
is_linear=0
shrinkage=0.269036


Tree=168
num_leaves=4
num_cat=0
split_feature=3 5 17
split_gain=0.0247402 0.118322 0.0650943
threshold=1.0000000180025095e-35 0.072973500000000011 7.5000000000000009
decision_type=2 2 2
left_child=-1 -2 -3
right_child=1 2 -4
