tree
version=v4
num_class=1
num_tree_per_iteration=1
label_index=0
max_feature_idx=31
objective=regression
feature_names=token_age_hours short_term_heat price_change_6h mentions sentiment liq_mcap_ratio onchain_multiplier safety_penalty sentiment_consistency ultra_short_heat buy_sell_ratio_5m price_change_1h volatility_proxy market_cap_log mention_velocity volume_velocity day_of_week hour_paris is_weekend is_prime_time median_peak_return entry_vs_median_peak win_rate_7d market_heat_24h relative_volume kol_saturation kol_freshness mention_heat_ratio consensus_val conviction_val breadth_val price_action_val
feature_infos=[0.10000000000000001:27836.599999999999] [0.029000000000000001:6] [-90.480000000000004:3622] [0:40] [-0.28699999999999998:0.81200000000000006] [0:248.72552899999999] [0.61699999999999999:1.3149999999999999] [0.63800000000000001:1] [0.39400000000000002:1] [0.0030000000000000001:12] [0:1] [-90.480000000000004:1605] [0:999.99900000000002] [7.3317149697264661:21.03140730112445] [-3.7879999999999998:3.1269999999999998] [-11.167:21.716999999999999] [0:6] [0:23] [0:1] [0:1] [1.0223:1.5] [0.027400000000000001:5] [0.12820000000000001:0.5625] [-11.800000000000001:39.850000000000001] [0:40.666699999999999] [47:277] [0:1] [0:40] [0:1] [0.25:1] [0:1] [0.215:0.89600000000000002]
tree_sizes=554 587 586 503 583 657 589 585 584 587 586 659 506 586 582 584 586 673 503 586 675 583 587 583 587 493 583 582 581 582 490 587 676 579 584 493 590 586 678 491 675 584 491 658 504 582 505 582 586 583 581 506 509 487 501 583 570 502 506 490 498 588 506 501 587 504 500 494 669 586 579 499 673 509 503 587 506 582 587 591 586 587 662 587 581 506 587 494 585 503 586 589 508 590 583 585 492 588 590 582 586 506 505 585 490 513 589 837 504 596 667 506 506 508 589 507 596 590 503 593 586 496 595 494 668

Tree=0
num_leaves=5
num_cat=0
split_feature=15 6 31 11
split_gain=21.2411 20.2296 9.98986 4.85193
threshold=-0.23849999999999996 1.1345000000000003 0.52450000000000008 28.175000000000004
decision_type=10 10 10 10
left_child=1 3 -3 -1
right_child=-2 2 -4 -5
leaf_value=0.94778867101041253 1.0193366337808301 0.9773144565324563 1.00717903159752 0.97319997279421233
leaf_weight=62 28 97 38 26
leaf_count=62 28 97 38 26
internal_value=0.978804 0.973715 0.985721 0.955296
internal_weight=251 223 135 88
internal_count=251 223 135 88
is_linear=0
shrinkage=1


Tree=1
num_leaves=5
num_cat=0
split_feature=15 6 0 11
split_gain=19.1955 18.2814 11.7367 4.38465
threshold=-0.23849999999999996 1.1345000000000003 1.3500000000000003 28.175000000000004
decision_type=10 10 2 10
left_child=1 3 -3 -1
right_child=-2 2 -4 -5
leaf_value=-0.029484478106804921 0.038531143935217373 0.036381228360627411 -0.00053518847528797936 -0.0053277974469959754
leaf_weight=62 28 26 109 26
leaf_count=62 28 26 109 26
internal_value=1.34844e-08 -0.00483842 0.00657528 -0.0223477
internal_weight=251 223 135 88
internal_count=251 223 135 88
is_linear=0
shrinkage=0.0493742


Tree=2
num_leaves=5
num_cat=0
split_feature=15 6 31 11
split_gain=17.347 16.5208 9.08388 3.96238
threshold=-0.23849999999999996 1.1345000000000003 0.52450000000000008 28.175000000000004
decision_type=10 10 10 10
left_child=1 3 -3 -1
right_child=-2 2 -4 -5
leaf_value=-0.028028774406016477 0.036628900065223659 -0.0017658174797621883 0.026712358743033633 -0.0050647718649649573
leaf_weight=62 28 97 38 26
leaf_count=62 28 97 38 26
internal_value=3.53962e-08 -0.00459953 0.00625067 -0.0212444
internal_weight=251 223 135 88
internal_count=251 223 135 88
is_linear=0
shrinkage=0.0493742


Tree=3
num_leaves=4
num_cat=0
split_feature=15 31 0
split_gain=15.6764 12.2398 9.27518
threshold=-0.23849999999999996 0.52450000000000008 6.7000000000000002
decision_type=10 10 2
left_child=1 2 -1
right_child=-2 -3 -4
leaf_value=0.0070939282082663263 0.034820567538919378 0.019293404629616977 -0.017363358196555208
leaf_weight=54 28 43 126
leaf_count=54 28 43 126
internal_value=4.99724e-08 -0.00437243 -0.0100262
internal_weight=251 223 180
internal_count=251 223 180
is_linear=0
shrinkage=0.0493742


Tree=4
num_leaves=5
num_cat=0
split_feature=15 6 8 1
split_gain=14.1885 15.7599 10.8171 3.4698
threshold=-0.14549999999999999 1.1345000000000003 0.86750000000000005 2.4465000000000003
decision_type=10 10 2 10
left_child=1 3 -3 -1
right_child=-2 2 -4 -5
leaf_value=-0.027385025902687554 0.03529306591309378 0.03075081363893142 -0.0013668536114405485 -0.0070684718621400987
leaf_weight=57 25 34 103 32
leaf_count=57 25 34 103 32
internal_value=7.33567e-08 -0.00390443 0.00660444 -0.0200807
internal_weight=251 226 137 89
internal_count=251 226 137 89
is_linear=0
shrinkage=0.0493742


Tree=5
num_leaves=6
num_cat=0
split_feature=0 6 10 10 1
split_gain=13.3145 9.90458 10.7727 6.1737 2.84475
threshold=12.650000000000002 1.1655000000000002 0.48300000000000004 0.54900000000000015 1.7770000000000004
decision_type=2 10 2 2 8
left_child=3 4 -3 -1 -2
right_child=1 2 -4 -5 -6
leaf_value=0.028494421396420638 -0.030767826808725203 -0.013971403123695247 0.021605630864922284 0.0016551906145800801 -0.012336687735423391
leaf_weight=45 35 41 42 39 49
leaf_count=45 35 41 42 39 49
internal_value=8.70754e-08 -0.00806494 0.00403155 0.0160339 -0.0200172
internal_weight=251 167 83 84 84
internal_count=251 167 83 84 84
is_linear=0
shrinkage=0.0493742


Tree=6
num_leaves=5
num_cat=0
split_feature=15 30 8 13
split_gain=12.8678 12.1344 13.535 0.942582
threshold=-0.23849999999999996 0.0075000000000000006 0.86750000000000005 11.612371056559242
decision_type=10 10 2 2
left_child=1 3 -3 -1
right_child=-2 2 -4 -5
leaf_value=-0.016955734987184664 0.031547505739421729 0.030738530680512851 -0.0042780540296150872 -0.029343314602756861
leaf_weight=31 28 34 129 29
leaf_count=31 28 34 129 29
internal_value=7.94762e-08 -0.00396139 0.00302644 -0.0229442
internal_weight=251 223 163 60
internal_count=251 223 163 60
is_linear=0
shrinkage=0.0493742


Tree=7
num_leaves=5
num_cat=0
split_feature=15 6 0 11
split_gain=11.6668 12.5643 9.24895 2.58893
threshold=-0.14549999999999999 1.1345000000000003 1.3500000000000003 28.175000000000004
decision_type=10 10 2 10
left_child=1 3 -3 -1
right_child=-2 2 -4 -5
leaf_value=-0.023393580035124532 0.032003417318686507 0.032347921555337729 -0.00036643229389191648 -0.004874817645568472
leaf_weight=63 25 26 111 26
leaf_count=63 25 26 111 26
internal_value=8.17426e-08 -0.00354048 0.00584269 -0.017984
internal_weight=251 226 137 89
internal_count=251 226 137 89
is_linear=0
shrinkage=0.0493742


Tree=8
num_leaves=5
num_cat=0
split_feature=26 0 11 13
split_gain=11.3689 10.7172 6.74694 1.86947
threshold=0.75000000000000011 61.150000000000013 -7.1999999999999984 12.200166652964347
decision_type=8 2 8 2
left_child=-1 2 -2 -3
right_child=1 3 -4 -5
leaf_value=0.030265011937497657 0.023885315914897055 -0.0079167813465763695 -0.0014903854827548765 -0.023985076619323965
leaf_weight=27 33 27 113 51
leaf_count=27 33 27 113 51
internal_value=9.83135e-08 -0.00364825 0.00424558 -0.0184235
internal_weight=251 224 146 78
internal_count=251 224 146 78
is_linear=0
shrinkage=0.0493742


Tree=9
num_leaves=5
num_cat=0
split_feature=15 30 3 4
split_gain=10.319 11.2067 9.49504 2.47746
threshold=-0.14549999999999999 0.0075000000000000006 1.5000000000000002 0.10650000000000001
decision_type=10 10 2 2
left_child=1 3 -3 -1
right_child=-2 2 -4 -5
leaf_value=-0.012833866914521279 0.030098215316533984 -0.0032341645946330115 0.024643708715637865 -0.032956093784551978
leaf_weight=35 25 126 39 26
leaf_count=35 25 126 39 26
internal_value=1.04925e-07 -0.00332968 0.00335547 -0.0214118
internal_weight=251 226 165 61
internal_count=251 226 165 61
is_linear=0
shrinkage=0.0493742


Tree=10
num_leaves=5
num_cat=0
split_feature=26 0 31 17
split_gain=10.0036 9.35597 6.16526 1.77972
threshold=0.75000000000000011 61.150000000000013 0.52450000000000008 14.500000000000002
decision_type=8 2 10 2
left_child=-1 2 -2 -3
right_child=1 3 -4 -5
leaf_value=0.028389596303207379 -0.0016370268077693395 -0.023123253861307598 0.022367254615188008 -0.0077922904128907532
leaf_weight=27 112 48 34 30
leaf_count=27 112 48 34 30
internal_value=1.02655e-07 -0.00342217 0.00395335 -0.0172273
internal_weight=251 224 146 78
internal_count=251 224 146 78
is_linear=0
shrinkage=0.0493742


Tree=11
num_leaves=6
num_cat=0
split_feature=0 25 6 8 4
split_gain=9.42725 7.9154 6.50058 6.11742 2.32141
threshold=12.650000000000002 60.500000000000007 1.1655000000000002 0.99250000000000005 0.10650000000000001
decision_type=2 8 10 2 2
left_child=1 -1 4 -4 -2
right_child=2 -3 3 -5 -6
leaf_value=-0.00028405760152495815 -0.0090080348853697097 0.030166534474885355 0.022859228116635866 -0.00603952403806897 -0.025499606233000044
leaf_weight=46 46 38 26 57 38
leaf_count=46 46 38 26 57 38
internal_value=1.07855e-07 0.0134918 -0.00678623 0.00301358 -0.0164692
internal_weight=251 84 167 83 84
internal_count=251 84 167 83 84
is_linear=0
shrinkage=0.0493742


Tree=12
num_leaves=4
num_cat=0
split_feature=15 31 8
split_gain=9.08146 8.74261 6.42368
threshold=-0.23849999999999996 0.52450000000000008 0.86750000000000005
decision_type=10 10 2
left_child=1 2 -1
right_child=-2 -3 -4
leaf_value=0.0093431298664739346 0.026502768363344743 0.016673243072925798 -0.013091735063729864
leaf_weight=40 28 43 140
leaf_count=40 28 43 140
internal_value=1.09156e-07 -0.00332788 -0.00810613
internal_weight=251 223 180
internal_count=251 223 180
is_linear=0
shrinkage=0.0493742


Tree=13
num_leaves=5
num_cat=0
split_feature=26 0 22 15
split_gain=8.63465 7.94568 7.77259 4.86089
threshold=0.75000000000000011 12.650000000000002 0.24055000000000001 -0.78899999999999992
decision_type=8 2 8 8
left_child=-1 2 -2 -3
right_child=1 3 -4 -5
leaf_value=0.02637569522427476 -0.0084443139837379142 0.0082007746623968258 0.023253596027876151 -0.014360459528702699
leaf_weight=27 33 29 44 118
leaf_count=27 33 29 44 118
internal_value=1.27003e-07 -0.00317937 0.00966896 -0.00990952
internal_weight=251 224 77 147
internal_count=251 224 77 147
is_linear=0
shrinkage=0.0493742


Tree=14
num_leaves=5
num_cat=0
split_feature=26 0 25 11
split_gain=7.80312 7.18045 6.57923 5.25583
threshold=0.75000000000000011 12.650000000000002 60.500000000000007 -7.1999999999999984
decision_type=8 2 8 8
left_child=-1 2 -2 -3
right_child=1 3 -4 -5
leaf_value=0.025073558893791283 -0.0043322914707243053 0.0094113352169041872 0.024592908626013803 -0.014048482931676
leaf_weight=27 41 29 36 118
leaf_count=27 41 29 36 118
internal_value=1.41152e-07 -0.00302239 0.00919159 -0.00942025
internal_weight=251 224 77 147
internal_count=251 224 77 147
is_linear=0
shrinkage=0.0493742


Tree=15
num_leaves=5
num_cat=0
split_feature=15 6 0 2
split_gain=7.97418 7.8397 7.31317 1.96611
threshold=-0.14549999999999999 1.1345000000000003 1.3500000000000003 2.0050000000000003
decision_type=10 10 2 8
left_child=1 3 -3 -1
right_child=-2 2 -4 -5
leaf_value=-0.023239973143221869 0.026458512280179255 0.028053792374096487 -0.0010362775232589929 -0.0082871503396503132
leaf_weight=36 25 26 111 53
leaf_count=36 25 26 111 53
internal_value=1.57892e-07 -0.00292696 0.00448495 -0.0143361
internal_weight=251 226 137 89
internal_count=251 226 137 89
is_linear=0
shrinkage=0.0493742


Tree=16
num_leaves=5
num_cat=0
split_feature=8 15 9 1
split_gain=7.31938 6.78742 6.47521 3.76813
threshold=0.86750000000000005 -1.3219999999999998 0.55650000000000011 5.0965000000000007
decision_type=2 10 10 10
left_child=2 3 -1 -2
right_child=1 -3 -4 -5
leaf_value=-0.0010564856945363813 -0.012915862772215007 0.015890525414079388 0.032521125876532275 0.0046968827997951974
leaf_weight=28 123 33 28 39
leaf_count=28 123 33 28 39
internal_value=1.62473e-07 -0.00451819 0.0157331 -0.00867574
internal_weight=251 195 56 162
internal_count=251 195 56 162
is_linear=0
shrinkage=0.0493742


Tree=17
num_leaves=6
num_cat=0
split_feature=31 10 14 11 13
split_gain=6.83653 8.28086 14.0644 4.86147 2.75711
threshold=0.42900000000000005 0.48300000000000004 -1.0000000180025095e-35 -8.7149999999999981 11.879141341191952
decision_type=10 2 10 10 2
left_child=3 -2 -3 -1 -5
right_child=1 2 -4 4 -6
leaf_value=0.0089098492859299005 -0.010705397491551579 0.0036293294987372886 0.0452595673195091 -0.0074755864708660391 -0.026044593419769703
leaf_weight=26 45 74 27 44 35
leaf_count=26 45 74 27 44 35
internal_value=1.77494e-07 0.00691047 0.0147592 -0.00960833 -0.015703
internal_weight=251 146 101 105 79
internal_count=251 146 101 105 79
is_linear=0
shrinkage=0.0493742


Tree=18
num_leaves=4
num_cat=0
split_feature=15 8 0
split_gain=6.38897 6.50788 3.40049
threshold=-0.23849999999999996 0.86750000000000005 1.3500000000000003
decision_type=10 2 2
left_child=1 -1 -3
right_child=-2 2 -4
leaf_value=0.013102671609738022 0.022229551747664243 0.0062463798908160917 -0.010792581586839848
leaf_weight=49 28 36 138
leaf_count=49 28 36 138
internal_value=1.76341e-07 -0.00279121 -0.00726723
internal_weight=251 223 174
internal_count=251 223 174
is_linear=0
shrinkage=0.0493742


Tree=19
num_leaves=5
num_cat=0
split_feature=26 0 31 17
split_gain=6.18475 5.44487 4.73071 1.77334
threshold=0.75000000000000011 61.150000000000013 0.52450000000000008 14.500000000000002
decision_type=8 2 10 2
left_child=-1 2 -2 -3
right_child=1 3 -4 -5
leaf_value=0.022322571773168726 -0.0019611364029003047 -0.019107495953288162 0.019065804941128507 -0.0038046661822066395
leaf_weight=27 112 48 34 30
leaf_count=27 112 48 34 30
internal_value=1.85781e-07 -0.00269071 0.00293583 -0.0132222
internal_weight=251 224 146 78
internal_count=251 224 146 78
is_linear=0
shrinkage=0.0493742


Tree=20
num_leaves=6
num_cat=0
split_feature=31 10 14 11 2
split_gain=5.82395 7.4498 11.9956 4.35137 4.40791
threshold=0.42900000000000005 0.48300000000000004 -1.0000000180025095e-35 -8.7149999999999981 2.0050000000000003
decision_type=10 2 10 10 10
left_child=3 -2 -3 -1 -5
right_child=1 2 -4 4 -6
leaf_value=0.0086514735063457689 -0.010330308294850739 0.0035439582324646489 0.041990611065174335 -0.030818637923633662 -0.0062296750732006544
leaf_weight=26 45 74 27 27 52
leaf_count=26 45 74 27 27 52
internal_value=1.85891e-07 0.00637823 0.0138227 -0.00886825 -0.0146344
internal_weight=251 146 101 105 79
internal_count=251 146 101 105 79
is_linear=0
shrinkage=0.0493742


Tree=21
num_leaves=5
num_cat=0
split_feature=9 2 1 13
split_gain=5.89938 5.79473 3.89241 3.78218
threshold=2.3210000000000002 213.00000000000003 2.0105000000000004 12.042465798620169
decision_type=10 10 10 2
left_child=1 2 -1 -3
right_child=-2 3 -4 -5
leaf_value=-0.011537747736133846 0.022757589608472635 -0.0020411616979257564 0.0053964283155656378 0.023637333430894469
leaf_weight=125 25 27 45 29
leaf_count=125 25 27 45 29
internal_value=1.80545e-07 -0.00251749 -0.00705515 0.0112572
internal_weight=251 226 170 56
internal_count=251 226 170 56
is_linear=0
shrinkage=0.0493742


Tree=22
num_leaves=5
num_cat=0
split_feature=15 6 10 10
split_gain=5.41323 4.92948 6.24519 1.41386
threshold=-0.23849999999999996 1.1345000000000003 0.49300000000000005 0.60850000000000015
decision_type=10 10 2 2
left_child=1 3 -3 -1
right_child=-2 2 -4 -5
leaf_value=-0.0077182473376142093 0.020461811892820907 -0.0094497418835696751 0.012162708685991678 -0.021595720448576924
leaf_weight=63 28 55 80 25
leaf_count=63 28 55 80 25
internal_value=1.93847e-07 -0.00256921 0.00335761 -0.0116613
internal_weight=251 223 135 88
internal_count=251 223 135 88
is_linear=0
shrinkage=0.0493742


Tree=23
num_leaves=5
num_cat=0
split_feature=8 15 4 0
split_gain=5.44543 4.81624 4.40814 3.15164
threshold=0.86750000000000005 -1.3219999999999998 0.20500000000000004 1.3500000000000003
decision_type=2 10 2 2
left_child=2 3 -1 -2
right_child=1 -3 -4 -5
leaf_value=0.026009648209864487 0.0054842063294790085 0.013294580279074462 -0.0018552864413872152 -0.011080308290495375
leaf_weight=31 36 33 25 126
leaf_count=31 36 33 25 126
internal_value=1.8027e-07 -0.00389708 0.0135705 -0.00739927
internal_weight=251 195 56 162
internal_count=251 195 56 162
is_linear=0
shrinkage=0.0493742


Tree=24
num_leaves=5
num_cat=0
split_feature=9 24 25 4
split_gain=5.24289 5.39617 3.95254 3.55395
threshold=2.3210000000000002 0.13965000000000002 60.500000000000007 0.10650000000000001
decision_type=10 10 10 2
left_child=1 3 -3 -1
right_child=-2 2 -4 -5
leaf_value=-0.0025077013660400977 0.021454022676069721 -0.0039294642881476773 0.013853859412620212 -0.020884765649980791
leaf_weight=58 25 63 59 46
leaf_count=58 25 63 59 46
internal_value=1.90001e-07 -0.00237327 0.00467079 -0.0106364
internal_weight=251 226 122 104
internal_count=251 226 122 104
is_linear=0
shrinkage=0.0493742


Tree=25
num_leaves=4
num_cat=0
split_feature=26 11 31
split_gain=4.92174 5.24654 3.94982
threshold=0.75000000000000011 -10.76 0.52450000000000008
decision_type=8 8 10
left_child=-1 -2 -3
right_child=1 2 -4
leaf_value=0.019913292765887665 0.015461696270518511 -0.0090387599331224807 0.0091264584417189085
leaf_weight=27 34 154 36
leaf_count=27 34 154 36
internal_value=1.84962e-07 -0.00240028 -0.00559683
internal_weight=251 224 190
internal_count=251 224 190
is_linear=0
shrinkage=0.0493742


Tree=26
num_leaves=5
num_cat=0
split_feature=8 9 15 0
split_gain=4.80872 4.63497 4.16437 2.80645
threshold=0.86750000000000005 0.55650000000000011 -1.3219999999999998 1.3500000000000003
decision_type=2 10 10 2
left_child=1 -1 3 -2
right_child=2 -3 -4 -5
leaf_value=-0.0014523255084483604 0.0052387607686192822 0.02695600226876102 0.012323811622438518 -0.010392315661928947
leaf_weight=28 36 28 33 126
leaf_count=28 36 28 33 126
internal_value=1.96681e-07 0.0127525 -0.00366213 -0.0069187
internal_weight=251 56 195 162
internal_count=251 56 195 162
is_linear=0
shrinkage=0.0493742


Tree=27
num_leaves=5
num_cat=0
split_feature=0 25 29 22
split_gain=4.54302 6.03077 3.66061 6.1499
threshold=12.650000000000002 60.500000000000007 0.30375000000000002 0.24240000000000003
decision_type=2 8 10 8
left_child=1 -1 3 -2
right_child=2 -3 -4 -5
leaf_value=-0.002658354305371416 0.012418610548829428 0.02392093882136926 0.010599610319028467 -0.013546851453682835
leaf_weight=46 28 38 31 108
leaf_count=46 28 38 31 108
internal_value=2.05955e-07 0.00936602 -0.00471082 -0.00820086
internal_weight=251 84 167 136
internal_count=251 84 167 136
is_linear=0
shrinkage=0.0493742


Tree=28
num_leaves=5
num_cat=0
split_feature=8 6 15 0
split_gain=4.334 4.09707 3.79739 2.33025
threshold=0.86750000000000005 1.2205000000000001 -1.3219999999999998 1.3500000000000003
decision_type=2 8 10 2
left_child=1 -1 3 -2
right_child=2 -3 -4 -5
leaf_value=0.025460607442478061 0.0044917044362741722 -0.001248459294535108 0.011788671468300481 -0.0097516288788046801
leaf_weight=28 36 28 33 126
leaf_count=28 36 28 33 126
internal_value=2.13974e-07 0.0121067 -0.00347665 -0.00658641
internal_weight=251 56 195 162
internal_count=251 56 195 162
is_linear=0
shrinkage=0.0493742


Tree=29
num_leaves=5
num_cat=0
split_feature=9 2 24 1
split_gain=4.53818 4.60113 3.51074 3.28783
threshold=2.3210000000000002 213.00000000000003 0.98345000000000005 2.0105000000000004
decision_type=10 10 10 10
left_child=1 3 -3 -1
right_child=-2 2 -4 -5
leaf_value=-0.010371170538901308 0.01996021241974337 -0.0010357437476961539 0.02383141352102262 0.005192392245468384
leaf_weight=125 25 31 25 45
leaf_count=125 25 31 25 45
internal_value=2.21136e-07 -0.00220797 0.0100663 -0.00625138
internal_weight=251 226 56 170
internal_count=251 226 56 170
is_linear=0
shrinkage=0.0493742


Tree=30
num_leaves=4
num_cat=0
split_feature=26 11 13
split_gain=4.0352 4.56246 2.71811
threshold=0.75000000000000011 -10.76 12.222357969469424
decision_type=8 8 2
left_child=-1 -2 -3
right_child=1 2 -4
leaf_value=0.018030913626952493 0.014483519237292689 -0.00022584131624259885 -0.012230516655501199
leaf_weight=27 34 112 78
leaf_count=27 34 112 78
internal_value=2.32198e-07 -0.00217331 -0.0051542
internal_weight=251 224 190
internal_count=251 224 190
is_linear=0
shrinkage=0.0493742


Tree=31
num_leaves=5
num_cat=0
split_feature=9 2 24 25
split_gain=4.02408 4.181 3.17649 2.95153
threshold=2.3210000000000002 213.00000000000003 0.98345000000000005 77.500000000000014
decision_type=10 10 10 10
left_child=1 3 -3 -1
right_child=-2 2 -4 -5
leaf_value=-0.0088224211723681809 0.018795693248005344 -0.00093898416727125644 0.022714812679866914 0.0087167079642286333
leaf_weight=142 25 31 25 28
leaf_count=142 25 31 25 28
internal_value=2.32319e-07 -0.00207913 0.00962137 -0.00593352
internal_weight=251 226 56 170
internal_count=251 226 56 170
is_linear=0
shrinkage=0.0493742


Tree=32
num_leaves=6
num_cat=0
split_feature=10 14 10 2 30
split_gain=3.80095 11.9395 6.14558 2.56041 3.64737
threshold=0.48300000000000004 -1.0000000180025095e-35 0.57900000000000007 -23.009999999999998 0.092500000000000013
decision_type=2 10 2 10 8
left_child=3 2 -2 -1 -5
right_child=1 -3 -4 4 -6
leaf_value=-0.02056544246719649 0.013934469991061238 0.030311010220228154 -0.010936714099562051 -0.013273001682709163 0.0078113238845348987
leaf_weight=26 36 35 74 40 40
leaf_count=26 36 35 74 40 40
internal_value=2.44488e-07 0.00519512 -0.00279689 -0.00710589 -0.00273093
internal_weight=251 145 110 106 80
internal_count=251 145 110 106 80
is_linear=0
shrinkage=0.0493742


Tree=33
num_leaves=5
num_cat=0
split_feature=8 6 15 0
split_gain=3.67047 3.77521 3.2435 1.76341
threshold=0.86750000000000005 1.2205000000000001 -1.3219999999999998 1.3500000000000003
decision_type=2 8 10 2
left_child=1 -1 3 -2
right_child=2 -3 -4 -5
leaf_value=0.023960164796456032 0.0035635393476781091 -0.00167831192736071 0.010908747333847044 -0.008826916685363638
leaf_weight=28 36 28 33 126
leaf_count=28 36 28 33 126
internal_value=2.3658e-07 0.0111415 -0.00319942 -0.00607346
internal_weight=251 56 195 162
internal_count=251 56 195 162
is_linear=0
shrinkage=0.0493742


Tree=34
num_leaves=5
num_cat=0
split_feature=9 2 13 1
split_gain=3.5672 3.51715 3.03445 2.90804
threshold=2.3210000000000002 213.00000000000003 12.042465798620169 2.0105000000000004
decision_type=10 10 2 10
left_child=1 3 -3 -1
right_child=-2 2 -4 -5
leaf_value=-0.0093672384080217396 0.017696580179149626 -0.0031373946098610947 0.019863048733089594 0.0052698212866579596
leaf_weight=125 25 27 29 45
leaf_count=125 25 27 29 45
internal_value=2.40895e-07 -0.00195752 0.00877395 -0.00549269
internal_weight=251 226 56 170
internal_count=251 226 56 170
is_linear=0
shrinkage=0.0493742


Tree=35
num_leaves=4
num_cat=0
split_feature=26 11 31
split_gain=3.35237 3.96196 3.56927
threshold=0.75000000000000011 -10.76 0.52450000000000008
decision_type=8 8 10
left_child=-1 -2 -3
right_child=1 2 -4
leaf_value=0.016434715274156481 0.013541137629576093 -0.0080306030517910184 0.0092373665317830381
leaf_weight=27 34 154 36
leaf_count=27 34 154 36
internal_value=2.46937e-07 -0.00198088 -0.00475868
internal_weight=251 224 190
internal_count=251 224 190
is_linear=0
shrinkage=0.0493742


Tree=36
num_leaves=5
num_cat=0
split_feature=15 30 5 4
split_gain=3.32521 4.5656 6.94153 2.48494
threshold=-0.14549999999999999 0.0075000000000000006 0.39801350000000008 0.10650000000000001
decision_type=10 10 2 2
left_child=1 3 -3 -1
right_child=-2 2 -4 -5
leaf_value=-0.0048415072449306644 0.017085815244407995 -0.0026866312079959504 0.022630206023927145 -0.024992684078857328
leaf_weight=35 25 132 33 26
leaf_count=35 25 132 33 26
internal_value=2.53147e-07 -0.00188994 0.00237705 -0.0134313
internal_weight=251 226 165 61
internal_count=251 226 165 61
is_linear=0
shrinkage=0.0493742


Tree=37
num_leaves=5
num_cat=0
split_feature=8 4 15 22
split_gain=3.24689 3.77234 2.74136 1.66419
threshold=0.86750000000000005 0.20500000000000004 -1.3219999999999998 0.23880000000000004
decision_type=2 2 10 8
left_child=1 -1 3 -2
right_child=2 -3 -4 -5
leaf_value=0.021986141663596089 -0.013033871765691667 -0.0037908690923810738 0.0099610526094829864 -0.0022591051435578535
leaf_weight=31 51 25 33 111
leaf_count=31 51 25 33 111
internal_value=2.443e-07 0.0104789 -0.00300913 -0.00565134
internal_weight=251 56 195 162
internal_count=251 56 195 162
is_linear=0
shrinkage=0.0493742


Tree=38
num_leaves=6
num_cat=0
split_feature=10 14 10 2 30
split_gain=3.22566 9.85408 4.96315 2.38678 3.39165
threshold=0.48300000000000004 -1.0000000180025095e-35 0.57900000000000007 -23.009999999999998 0.092500000000000013
decision_type=2 10 2 10 8
left_child=3 2 -2 -1 -5
right_child=1 -3 -4 4 -6
leaf_value=-0.019541253446051041 0.012561133660595197 0.027603159449948855 -0.0097896853221033434 -0.012487875573852225 0.0078438927981457785
leaf_weight=26 36 35 74 40 40
leaf_count=26 36 35 74 40 40
internal_value=2.39375e-07 0.00478587 -0.00247472 -0.00654608 -0.00232206
internal_weight=251 145 110 106 80
internal_count=251 145 110 106 80
is_linear=0
shrinkage=0.0493742


Tree=39
num_leaves=4
num_cat=0
split_feature=9 12 12
split_gain=3.14666 3.05885 2.86678
threshold=2.3210000000000002 428.89750000000009 2.4815
decision_type=10 10 10
left_child=1 2 -1
right_child=-2 -3 -4
leaf_value=0.0082432547640604557 0.016620751618345007 0.013755002965015953 -0.0068334474693960848
leaf_weight=38 25 27 161
leaf_count=38 25 27 161
internal_value=2.3093e-07 -0.00183851 -0.00395439
internal_weight=251 226 199
internal_count=251 226 199
is_linear=0
shrinkage=0.0493742


Tree=40
num_leaves=6
num_cat=0
split_feature=31 25 4 11 2
split_gain=2.98926 5.66077 4.0665 3.15002 3.10149
threshold=0.42900000000000005 69.500000000000014 1.0000000180025095e-35 -7.7599999999999989 2.0050000000000003
decision_type=10 10 2 10 10
left_child=3 2 -2 -1 -5
right_child=1 -3 -4 4 -6
leaf_value=0.0081813948321585971 -0.016105569522024202 0.023293901004656278 0.0050376776659010539 -0.025307420369181079 -0.0044223573462681669
leaf_weight=27 30 31 85 26 52
leaf_count=27 30 31 85 26 52
internal_value=2.38411e-07 0.00456965 -0.000478216 -0.00635336 -0.0113848
internal_weight=251 146 115 105 78
internal_count=251 146 115 105 78
is_linear=0
shrinkage=0.0493742


Tree=41
num_leaves=5
num_cat=0
split_feature=8 6 24 24
split_gain=2.83942 3.50402 2.75892 4.39496
threshold=0.86750000000000005 1.2205000000000001 0.13965000000000002 1.2641000000000002
decision_type=2 8 8 8
left_child=1 -1 -2 -4
right_child=2 -3 3 -5
leaf_value=0.022149056912921017 -0.016321329673888364 -0.0025513084995377666 0.010963801351099924 -0.0060806967043539354
leaf_weight=28 31 28 56 108
leaf_count=28 31 28 56 108
internal_value=2.20916e-07 0.00979937 -0.002814 -0.000260525
internal_weight=251 56 195 164
internal_count=251 56 195 164
is_linear=0
shrinkage=0.0493742


Tree=42
num_leaves=4
num_cat=0
split_feature=9 12 12
split_gain=2.84491 2.67883 2.84566
threshold=2.3210000000000002 428.89750000000009 2.4815
decision_type=10 10 10
left_child=1 2 -1
right_child=-2 -3 -4
leaf_value=0.0084243813354460094 0.01580373466049851 0.012844617327199551 -0.0065966601942453254
leaf_weight=38 25 27 161
leaf_count=38 25 27 161
internal_value=2.14343e-07 -0.00174814 -0.00372823
internal_weight=251 226 199
internal_count=251 226 199
is_linear=0
shrinkage=0.0493742


Tree=43
num_leaves=6
num_cat=0
split_feature=9 11 2 12 31
split_gain=2.75302 6.20874 4.86318 5.82082 4.215
threshold=0.41350000000000003 -7.1999999999999984 -6.7399999999999993 2.4815 0.42900000000000005
decision_type=10 10 10 10 10
left_child=2 -2 -1 -4 -3
right_child=1 4 3 -5 -6
leaf_value=-0.019312271852251713 0.026227049360223083 -0.016286311573894499 0.021623543899614031 -0.0064091969218336943 0.0063491284874143596
leaf_weight=40 27 29 25 65 65
leaf_count=40 27 29 25 65 65
internal_value=2.21917e-07 0.00535994 -0.00498844 0.00137812 -0.000634428
internal_weight=251 121 130 90 94
internal_count=251 121 130 90 94
is_linear=0
shrinkage=0.0493742


Tree=44
num_leaves=4
num_cat=0
split_feature=0 29 22
split_gain=2.64386 3.47735 2.80716
threshold=1.3500000000000003 0.30375000000000002 0.24240000000000003
decision_type=2 10 8
left_child=-1 2 -2
right_child=1 -3 -4
leaf_value=0.010557052294234861 0.0048537080243648513 0.011040559667885246 -0.0094915838727835933
leaf_weight=47 46 38 120
leaf_count=47 46 38 120
internal_value=2.17773e-07 -0.00243211 -0.00551636
internal_weight=251 204 166
internal_count=251 204 166
is_linear=0
shrinkage=0.0493742


Tree=45
num_leaves=5
num_cat=0
split_feature=23 6 6 31
split_gain=2.67917 2.84304 4.40659 1.55829
threshold=-4.8049999999999988 1.1345000000000003 1.2115000000000002 0.43950000000000006
decision_type=8 8 8 10
left_child=-1 3 -3 -2
right_child=1 2 -4 -5
leaf_value=0.015336502784149643 -0.0035413838688689472 0.011561604731060693 -0.0051621713851634941 -0.018509103852429935
leaf_weight=25 39 67 90 30
leaf_count=25 39 67 90 30
internal_value=2.17114e-07 -0.00169645 0.0019748 -0.0100496
internal_weight=251 226 157 69
internal_count=251 226 157 69
is_linear=0
shrinkage=0.0493742


Tree=46
num_leaves=4
num_cat=0
split_feature=15 31 30
split_gain=2.55445 4.28448 2.8578
threshold=-0.14549999999999999 0.52450000000000008 0.23000000000000004
decision_type=10 10 10
left_child=1 2 -1
right_child=-2 -3 -4
leaf_value=-0.0074627984998298508 0.014975272838992014 0.012367445798287391 0.010209177439695122
leaf_weight=157 25 43 26
leaf_count=157 25 43 26
internal_value=2.05803e-07 -0.0016565 -0.0049519
internal_weight=251 226 183
internal_count=251 226 183
is_linear=0
shrinkage=0.0493742


Tree=47
num_leaves=5
num_cat=0
split_feature=8 6 3 0
split_gain=2.5149 3.1025 2.5707 3.19974
threshold=0.86750000000000005 1.2205000000000001 1.0000000180025095e-35 721.85000000000014
decision_type=2 8 2 2
left_child=1 -1 -2 -4
right_child=2 -3 3 -5
leaf_value=0.020842996255197279 0.012133794673167605 -0.0023991169459468501 -0.002009458522648804 -0.021134733338443748
leaf_weight=28 25 28 145 25
leaf_count=28 25 28 145 25
internal_value=2.13526e-07 0.00922241 -0.00264831 -0.00482233
internal_weight=251 56 195 170
internal_count=251 56 195 170
is_linear=0
shrinkage=0.0493742


Tree=48
num_leaves=5
num_cat=0
split_feature=16 10 14 1
split_gain=2.47122 3.23595 11.6511 3.04792
threshold=5.5000000000000009 0.48300000000000004 -1.0000000180025095e-35 2.2120000000000002
decision_type=2 2 10 8
left_child=1 3 -3 -1
right_child=-2 2 -4 -5
leaf_value=-0.01252867811632297 -0.01472884841804159 -0.0011908028260505345 0.034274391128855899 0.005523178294392167
leaf_weight=57 25 102 29 38
leaf_count=57 25 102 29 38
internal_value=2.06856e-07 0.0016297 0.00666086 -0.00530798
internal_weight=251 226 131 95
internal_count=251 226 131 95
is_linear=0
shrinkage=0.0493742


Tree=49
num_leaves=5
num_cat=0
split_feature=9 2 13 1
split_gain=2.36935 2.47945 2.46683 2.38778
threshold=2.3210000000000002 213.00000000000003 12.042465798620169 2.0105000000000004
decision_type=10 10 2 10
left_child=1 3 -3 -1
right_child=-2 2 -4 -5
leaf_value=-0.0080744463893521554 0.014422482761672142 -0.0033246211514186331 0.017413323405879241 0.00518882063574769
leaf_weight=125 25 27 29 45
leaf_count=125 25 27 29 45
internal_value=2.02779e-07 -0.00159535 0.00741501 -0.00456355
internal_weight=251 226 56 170
internal_count=251 226 56 170
is_linear=0
shrinkage=0.0493742


Tree=50
num_leaves=5
num_cat=0
split_feature=23 6 6 20
split_gain=2.33536 2.43116 3.85317 1.1775
threshold=-4.8049999999999988 1.1345000000000003 1.2115000000000002 1.3064000000000002
decision_type=8 8 8 8
left_child=-1 3 -3 -2
right_child=1 2 -4 -5
leaf_value=0.014318677918088775 -0.015665068205287711 0.010775673516332731 -0.0048627114313246978 -0.0027637270365419762
leaf_weight=25 35 67 90 34
leaf_count=25 35 67 90 34
internal_value=2.07752e-07 -0.00158386 0.00181106 -0.00930829
internal_weight=251 226 157 69
internal_count=251 226 157 69
is_linear=0
shrinkage=0.0493742


Tree=51
num_leaves=4
num_cat=0
split_feature=0 29 22
split_gain=2.18453 2.79554 2.21721
threshold=1.3500000000000003 0.30375000000000002 0.24240000000000003
decision_type=2 10 10
left_child=-1 2 -2
right_child=1 -3 -4
leaf_value=0.009596268481017774 -0.0010681075852919573 0.0098691160336927854 -0.013307909093072405
leaf_weight=47 113 38 53
leaf_count=47 113 38 53
internal_value=1.98119e-07 -0.00221076 -0.00497617
internal_weight=251 204 166
internal_count=251 204 166
is_linear=0
shrinkage=0.0493742


Tree=52
num_leaves=4
num_cat=0
split_feature=15 31 14
split_gain=2.31901 3.86367 1.83726
threshold=-0.23849999999999996 0.52450000000000008 -1.1144999999999998
decision_type=10 10 10
left_child=1 2 -1
right_child=-2 -3 -4
leaf_value=-0.0023205312891899144 0.013392728768934646 0.011614840274336583 -0.014664143644419161
leaf_weight=143 28 43 37
leaf_count=143 28 43 37
internal_value=1.91226e-07 -0.00168153 -0.00485804
internal_weight=251 223 180
internal_count=251 223 180
is_linear=0
shrinkage=0.0493742


Tree=53
num_leaves=4
num_cat=0
split_feature=25 11 13
split_gain=2.29117 3.31026 1.90406
threshold=77.500000000000014 -10.76 12.110516467008155
decision_type=10 10 2
left_child=1 -1 -3
right_child=-2 2 -4
leaf_value=0.010070309502738529 0.01116808494462 -0.00022287367275036101 -0.010726645172735055
leaf_weight=44 38 90 79
leaf_count=44 38 90 79
internal_value=1.86155e-07 -0.00199233 -0.00513303
internal_weight=251 213 169
internal_count=251 213 169
is_linear=0
shrinkage=0.0493742


Tree=54
num_leaves=4
num_cat=0
split_feature=16 15 8
split_gain=2.24082 4.86739 2.4802
threshold=5.5000000000000009 -1.2169999999999999 0.86750000000000005
decision_type=2 10 2
left_child=1 2 -1
right_child=-2 -3 -4
leaf_value=0.0089482429474927582 -0.014025468763890395 0.01876990366025115 -0.0045120453581551211
leaf_weight=43 25 34 149
leaf_count=43 25 34 149
internal_value=1.82793e-07 0.00155186 -0.0014974
internal_weight=251 226 192
internal_count=251 226 192
is_linear=0
shrinkage=0.0493742


Tree=55
num_leaves=5
num_cat=0
split_feature=9 2 13 1
split_gain=2.0932 2.1998 2.26826 2.08951
threshold=2.3210000000000002 213.00000000000003 12.042465798620169 2.0105000000000004
decision_type=10 10 2 10
left_child=1 3 -3 -1
right_child=-2 2 -4 -5
leaf_value=-0.0075796228965758104 0.013555987076187048 -0.0033107619634940174 0.016574974280699935 0.0048276208607737009
leaf_weight=125 25 27 29 45
leaf_count=125 25 27 29 45
internal_value=1.78889e-07 -0.00149951 0.00698752 -0.00429532
internal_weight=251 226 56 170
internal_count=251 226 56 170
is_linear=0
shrinkage=0.0493742


Tree=56
num_leaves=5
num_cat=0
split_feature=23 22 0 21
split_gain=2.05479 2.10224 4.28896 1.7659
threshold=-4.8049999999999988 0.23880000000000004 1.8 4.4262000000000006
decision_type=8 8 2 10
left_child=-1 3 -3 -2
right_child=1 2 -4 -5
leaf_value=0.013431023381856404 -0.014810748516629859 0.018440575849845778 -0.0023000057350834142 0.0016906956279347065
leaf_weight=25 43 30 128 25
leaf_count=25 43 30 128 25
internal_value=1.83985e-07 -0.00148568 0.00163835 -0.00874422
internal_weight=251 226 158 68
internal_count=251 226 158 68
is_linear=0
shrinkage=0.0493742


Tree=57
num_leaves=4
num_cat=0
split_feature=3 24 24
split_gain=2.03401 2.38549 2.88662
threshold=2.5000000000000004 0.13965000000000002 1.2641000000000002
decision_type=2 8 8
left_child=1 -1 -3
right_child=-2 2 -4
leaf_value=-0.013800505485973011 0.012801538304457283 0.0091252260794572292 -0.003733897245945928
leaf_weight=33 27 64 127
leaf_count=33 27 64 127
internal_value=1.84627e-07 -0.00154298 0.000574988
internal_weight=251 224 191
internal_count=251 224 191
is_linear=0
shrinkage=0.0493742


Tree=58
num_leaves=4
num_cat=0
split_feature=16 15 30
split_gain=1.96244 4.52708 2.29904
threshold=5.5000000000000009 -1.2169999999999999 0.0075000000000000006
decision_type=2 10 8
left_child=1 2 -1
right_child=-2 -3 -4
leaf_value=-0.012734850205484162 -0.013125369344339182 0.018057495282412673 0.0011070487905171641
leaf_weight=36 25 34 156
leaf_count=36 25 34 156
internal_value=1.77908e-07 0.00145228 -0.00148846
internal_weight=251 226 192
internal_count=251 226 192
is_linear=0
shrinkage=0.0493742


Tree=59
num_leaves=4
num_cat=0
split_feature=25 11 5
split_gain=1.89417 2.84989 2.17719
threshold=77.500000000000014 -10.76 0.38240950000000007
decision_type=10 10 2
left_child=1 -1 -3
right_child=-2 2 -4
leaf_value=0.0093809402153479746 0.01015451088829865 -0.0071693292800165858 0.0081256090814929884
leaf_weight=44 38 142 27
leaf_count=44 38 142 27
internal_value=1.649e-07 -0.00181152 -0.00472565
internal_weight=251 213 169
internal_count=251 213 169
is_linear=0
shrinkage=0.0493742


Tree=60
num_leaves=4
num_cat=0
split_feature=6 21 24
split_gain=1.98481 5.77863 2.7
threshold=1.2455000000000003 0.9174000000000001 0.33500000000000008
decision_type=10 8 8
left_child=1 -1 -3
right_child=-2 2 -4
leaf_value=0.021579447565895499 -0.010236063110139922 -0.013806115658257526 0.0014623567087153964
leaf_weight=31 39 35 146
leaf_count=31 39 35 146
internal_value=1.68929e-07 0.00188337 -0.00149028
internal_weight=251 212 181
internal_count=251 212 181
is_linear=0
shrinkage=0.0493742


Tree=61
num_leaves=5
num_cat=0
split_feature=9 1 19 9
split_gain=1.82697 1.31708 3.42478 2.33011
threshold=2.3210000000000002 2.0105000000000004 1.0000000180025095e-35 0.24650000000000002
decision_type=10 8 2 10
left_child=1 3 -3 -1
right_child=-2 2 -4 -5
leaf_value=-0.014447335791369722 0.012664589899706633 -0.0054031550231487995 0.011362775930789061 0.00051902900750322586
leaf_weight=42 25 66 54 64
leaf_count=42 25 66 54 64
internal_value=1.59812e-07 -0.00140092 0.0021416 -0.00541127
internal_weight=251 226 120 106
internal_count=251 226 120 106
is_linear=0
shrinkage=0.0493742


Tree=62
num_leaves=4
num_cat=0
split_feature=16 15 30
split_gain=1.78345 3.99087 2.11013
threshold=5.5000000000000009 -1.2169999999999999 0.0075000000000000006
decision_type=2 10 8
left_child=1 2 -1
right_child=-2 -3 -4
leaf_value=-0.012151086745156766 -0.012512497582071862 0.016975285249090481 0.0011099441705065354
leaf_weight=36 25 34 156
leaf_count=36 25 34 156
internal_value=1.54662e-07 0.00138445 -0.00137664
internal_weight=251 226 192
internal_count=251 226 192
is_linear=0
shrinkage=0.0493742


Tree=63
num_leaves=4
num_cat=0
split_feature=3 24 24
split_gain=1.80542 2.09596 3.72244
threshold=2.5000000000000004 0.26965000000000006 1.2641000000000002
decision_type=2 8 8
left_child=1 -1 -3
right_child=-2 2 -4
leaf_value=-0.010598796319533997 0.012060742255969009 0.012600201906020393 -0.0034197036380708124
leaf_weight=48 27 49 127
leaf_count=48 27 49 127
internal_value=1.42937e-07 -0.00145373 0.00104051
internal_weight=251 224 176
internal_count=251 224 176
is_linear=0
shrinkage=0.0493742


Tree=64
num_leaves=5
num_cat=0
split_feature=23 22 29 12
split_gain=1.80242 2.02246 4.90682 1.47748
threshold=-4.8049999999999988 0.23770000000000002 0.30375000000000002 161.49900000000005
decision_type=8 8 10 8
left_child=-1 3 -3 -2
right_child=1 2 -4 -5
leaf_value=0.012579200889952071 -0.015016538015632184 -0.0021194687597150272 0.021679130750907785 8.897978463659798e-05
leaf_weight=25 38 136 25 27
leaf_count=25 38 136 25 27
internal_value=1.42053e-07 -0.00139149 0.00157629 -0.0087422
internal_weight=251 226 161 65
internal_count=251 226 161 65
is_linear=0
shrinkage=0.0493742


Tree=65
num_leaves=4
num_cat=0
split_feature=6 8 14
split_gain=1.82242 3.96801 1.66379
threshold=1.2455000000000003 0.86750000000000005 0.40050000000000008
decision_type=10 2 8
left_child=1 -1 -3
right_child=-2 2 -4
leaf_value=0.015003313403838857 -0.0098083937927653155 0.0091043797392502904 -0.0038966825945237673
leaf_weight=44 39 29 139
leaf_count=44 39 29 139
internal_value=1.44939e-07 0.00180466 -0.00165232
internal_weight=251 212 168
internal_count=251 212 168
is_linear=0
shrinkage=0.0493742


Tree=66
num_leaves=4
num_cat=0
split_feature=6 21 0
split_gain=1.64692 5.09793 2.38267
threshold=1.2455000000000003 0.9174000000000001 28.350000000000005
decision_type=10 8 2
left_child=1 -1 -3
right_child=-2 2 -4
leaf_value=0.020215239478744547 -0.0093241485594736991 0.0040573008255449213 -0.0072766506220934279
leaf_weight=31 39 93 88
leaf_count=31 39 93 88
internal_value=1.43662e-07 0.00171557 -0.00145315
internal_weight=251 212 181
internal_count=251 212 181
is_linear=0
shrinkage=0.0493742


Tree=67
num_leaves=4
num_cat=0
split_feature=9 12 9
split_gain=1.61216 1.84281 2.6425
threshold=2.3210000000000002 2.4815 0.017000000000000005
decision_type=10 10 10
left_child=1 -1 -3
right_child=-2 2 -4
leaf_value=0.0086004194579689299 0.011896754291972168 -0.017312591476145944 -0.00087157917636571265
leaf_weight=38 25 28 160
leaf_count=38 25 28 160
internal_value=1.40886e-07 -0.00131599 -0.00332048
internal_weight=251 226 188
internal_count=251 226 188
is_linear=0
shrinkage=0.0493742


Tree=68
num_leaves=6
num_cat=0
split_feature=31 25 15 28 12
split_gain=1.69207 5.42188 2.0241 2.68866 0.977573
threshold=0.49150000000000005 69.500000000000014 0.21200000000000005 0.15545000000000003 115.47150000000001
decision_type=10 8 8 8 10
left_child=2 4 -1 -4 -2
right_child=1 -3 3 -5 -6
leaf_value=-0.012010640548499174 -0.011760411080493411 0.020235764803133226 0.01236837763332441 -0.0041826816910233407 0.0019132031165772863
leaf_weight=44 25 36 33 87 26
leaf_count=44 25 36 33 87 26
internal_value=1.35157e-07 0.00556592 -0.00295249 0.000369044 -0.00478982
internal_weight=251 87 164 120 51
internal_count=251 87 164 120 51
is_linear=0
shrinkage=0.0493742


Tree=69
num_leaves=5
num_cat=0
split_feature=23 22 29 2
split_gain=1.66952 1.83799 4.44035 2.32312
threshold=-4.8049999999999988 0.23770000000000002 0.30375000000000002 213.00000000000003
decision_type=8 8 10 8
left_child=-1 3 -3 -2
right_child=1 2 -4 -5
leaf_value=0.012106530721350551 -0.016214311143952408 -0.0020257104171252276 0.020613425388536787 0.002726799109866247
leaf_weight=25 38 136 25 27
leaf_count=25 38 136 25 27
internal_value=1.31996e-07 -0.00133921 0.00148999 -0.00834668
internal_weight=251 226 161 65
internal_count=251 226 161 65
is_linear=0
shrinkage=0.0493742


Tree=70
num_leaves=5
num_cat=0
split_feature=26 11 13 25
split_gain=1.6645 2.62064 6.0877 2.41483
threshold=0.75000000000000011 10.960000000000003 12.73162094502065 60.500000000000007
decision_type=8 10 2 10
left_child=-1 2 -2 -3
right_child=1 3 -4 -5
leaf_value=0.011580469707304357 0.01091937874748539 -0.013227178603115506 -0.011538634157482276 0.0036051919391467948
leaf_weight=27 85 63 45 31
leaf_count=27 85 63 45 31
internal_value=1.3551e-07 -0.00139584 0.00314536 -0.00767613
internal_weight=251 224 130 94
internal_count=251 224 130 94
is_linear=0
shrinkage=0.0493742


Tree=71
num_leaves=4
num_cat=0
split_feature=6 21 0
split_gain=1.52152 4.50618 2.2157
threshold=1.2455000000000003 0.9174000000000001 28.350000000000005
decision_type=10 8 2
left_child=1 -1 -3
right_child=-2 2 -4
leaf_value=0.019041833262944684 -0.0089621660722955382 0.0039836887335186243 -0.0069459425516996262
leaf_weight=31 39 93 88
leaf_count=31 39 93 88
internal_value=1.29574e-07 0.00164896 -0.00133019
internal_weight=251 212 181
internal_count=251 212 181
is_linear=0
shrinkage=0.0493742


Tree=72
num_leaves=6
num_cat=0
split_feature=31 30 21 15 24
split_gain=1.52829 5.44504 3.91068 1.99339 3.39387
threshold=0.49150000000000005 0.055500000000000008 4.4262000000000006 0.21200000000000005 0.33500000000000008
decision_type=10 10 8 8 10
left_child=3 -2 -3 -1 -5
right_child=1 2 -4 4 -6
leaf_value=-0.011795145906112831 0.021482449443890692 -0.016597565108161134 0.0097717748678089068 -0.0052713487830975845 0.012456249029834826
leaf_weight=44 32 29 26 81 39
leaf_count=44 32 29 26 81 39
internal_value=1.27251e-07 0.00528969 -0.00413218 -0.00280596 0.000490277
internal_weight=251 87 55 164 120
internal_count=251 87 55 164 120
is_linear=0
shrinkage=0.0493742


Tree=73
num_leaves=4
num_cat=0
split_feature=15 31 14
split_gain=1.51269 3.13219 1.75579
threshold=-0.23849999999999996 0.52450000000000008 -1.1144999999999998
decision_type=10 10 10
left_child=1 2 -1
right_child=-2 -3 -4
leaf_value=-0.0017375769273030371 0.010816613141909027 0.010613623717075901 -0.013804382116037728
leaf_weight=143 28 43 37
leaf_count=143 28 43 37
internal_value=1.26535e-07 -0.00135812 -0.00421817
internal_weight=251 223 180
internal_count=251 223 180
is_linear=0
shrinkage=0.0493742


Tree=74
num_leaves=4
num_cat=0
split_feature=26 1 5
split_gain=1.48534 2.3387 3.87901
threshold=0.75000000000000011 0.28600000000000009 0.39801350000000008
decision_type=8 10 2
left_child=-1 -2 -3
right_child=1 2 -4
leaf_value=0.010939494352969176 0.0091830642627533932 -0.0073214761447867906 0.010773344417137468
leaf_weight=27 42 146 36
leaf_count=27 42 146 36
internal_value=1.23512e-07 -0.00131858 -0.00374216
internal_weight=251 224 182
internal_count=251 224 182
is_linear=0
shrinkage=0.0493742


Tree=75
num_leaves=5
num_cat=0
split_feature=3 9 11 0
split_gain=1.45884 3.67175 5.58792 2.56733
threshold=1.0000000180025095e-35 0.41350000000000003 1.3700000000000003 12.650000000000002
decision_type=2 10 10 2
left_child=-1 3 -3 -2
right_child=1 2 -4 -5
leaf_value=0.010622367646640674 0.005303639917353155 0.021107660293519136 -0.0027717201831163637 -0.011659190948450573
leaf_weight=28 29 36 71 87
leaf_count=28 29 36 71 87
internal_value=1.31442e-07 -0.00133372 0.00526282 -0.00741845
internal_weight=251 223 107 116
internal_count=251 223 107 116
is_linear=0
shrinkage=0.0493742


Tree=76
num_leaves=4
num_cat=0
split_feature=16 15 30
split_gain=1.41188 3.35241 1.92533
threshold=5.5000000000000009 -1.2169999999999999 0.0075000000000000006
decision_type=2 10 8
left_child=1 2 -1
right_child=-2 -3 -4
leaf_value=-0.011590618864905427 -0.011133020984558734 0.015521224721176083 0.0010764110482821352
leaf_weight=36 25 34 156
leaf_count=36 25 34 156
internal_value=1.38235e-07 0.00123182 -0.00129879
internal_weight=251 226 192
internal_count=251 226 192
is_linear=0
shrinkage=0.0493742


Tree=77
num_leaves=5
num_cat=0
split_feature=17 2 5 24
split_gain=1.49332 2.1072 3.74023 2.77259
threshold=1.5000000000000002 213.00000000000003 0.32432350000000004 0.98345000000000005
decision_type=2 10 2 10
left_child=-1 2 -2 -3
right_child=1 3 -4 -5
leaf_value=0.009962532175898809 -0.011415667236901031 -0.0030416666312892155 0.003837338530859432 0.018150174537974462
leaf_weight=32 86 34 72 27
leaf_count=32 86 34 72 27
internal_value=1.27531e-07 -0.00145568 -0.00446498 0.00633874
internal_weight=251 219 158 61
internal_count=251 219 158 61
is_linear=0
shrinkage=0.0493742


Tree=78
num_leaves=5
num_cat=0
split_feature=24 12 21 24
split_gain=1.42825 5.37884 4.36077 2.21229
threshold=1.2641000000000002 135.18500000000003 0.8197000000000001 0.33500000000000008
decision_type=10 10 8 8
left_child=2 -2 -1 -4
right_child=1 -3 3 -5
leaf_value=0.020243786431691193 -0.017893127890386874 0.0095065584059025061 -0.010442555410556397 0.002782075223827056
leaf_weight=28 40 31 43 109
leaf_count=28 40 31 43 109
internal_value=1.31446e-07 -0.00592997 0.00233929 -0.000959227
internal_weight=251 71 180 152
internal_count=251 71 180 152
is_linear=0
shrinkage=0.0493742


Tree=79
num_leaves=5
num_cat=0
split_feature=23 20 31 30
split_gain=1.40758 1.55397 5.06207 4.04851
threshold=-4.8049999999999988 1.1545000000000003 0.52450000000000008 0.092500000000000013
decision_type=8 10 10 10
left_child=-1 2 -2 -3
right_child=1 3 -4 -5
leaf_value=0.011116311159710219 -0.0027401668013059249 -0.018232109481813637 0.020794773718550843 0.0029911925407032683
leaf_weight=25 109 39 28 50
leaf_count=25 109 39 28 50
internal_value=1.27417e-07 -0.00122966 0.00207023 -0.00630919
internal_weight=251 226 137 89
internal_count=251 226 137 89
is_linear=0
shrinkage=0.0493742


Tree=80
num_leaves=5
num_cat=0
split_feature=3 6 8 2
split_gain=1.40373 3.13454 3.74798 2.90501
threshold=1.0000000180025095e-35 1.2455000000000003 0.86750000000000005 -3.8199999999999994
decision_type=2 8 2 10
left_child=-1 2 -2 -3
right_child=1 3 -4 -5
leaf_value=0.01041980688051254 0.015452889439300791 -0.023093302457766491 -0.0020138797614128903 -0.00039550455326248257
leaf_weight=28 39 27 129 28
leaf_count=28 39 27 129 28
internal_value=1.29286e-07 -0.00130829 0.0020411 -0.0115387
internal_weight=251 223 168 55
internal_count=251 223 168 55
is_linear=0
shrinkage=0.0493742


Tree=81
num_leaves=5
num_cat=0
split_feature=24 21 21 13
split_gain=1.34025 3.89123 3.70049 2.00537
threshold=1.2641000000000002 0.8197000000000001 3.3229000000000002 12.550533278955827
decision_type=10 8 10 2
left_child=1 -1 -2 -3
right_child=2 3 -4 -5
leaf_value=0.019179181800162554 -0.014839871461957766 0.0030617965372497754 0.0082237733302339862 -0.0090718770889694801
leaf_weight=28 43 103 28 49
leaf_count=28 43 103 28 49
internal_value=1.22688e-07 0.00226607 -0.00574437 -0.00084981
internal_weight=251 180 71 152
internal_count=251 180 71 152
is_linear=0
shrinkage=0.0493742


Tree=82
num_leaves=6
num_cat=0
split_feature=25 0 0 5 2
split_gain=1.29676 3.53366 3.04893 2.14437 3.2403
threshold=248.00000000000003 31.700000000000003 249.90000000000001 0.39801350000000008 213.00000000000003
decision_type=8 2 2 2 10
left_child=3 -2 -3 4 -1
right_child=1 2 -4 -5 -6
leaf_value=-0.012530572036909968 0.017014940561191755 -0.015452040757411304 0.0070075360978826759 0.0081957022582197867 0.0038305290393763044
leaf_weight=72 35 26 34 34 50
leaf_count=72 35 26 34 34 50
internal_value=1.20529e-07 0.00454777 -0.00272521 -0.00276931 -0.00582526
internal_weight=251 95 60 156 122
internal_count=251 95 60 156 122
is_linear=0
shrinkage=0.0493742


Tree=83
num_leaves=5
num_cat=0
split_feature=3 6 1 2
split_gain=1.32316 2.82208 3.60901 2.58367
threshold=1.0000000180025095e-35 1.2455000000000003 0.79000000000000015 -3.8199999999999994
decision_type=2 8 8 10
left_child=-1 2 -2 -3
right_child=1 3 -4 -5
leaf_value=0.01011632383449005 0.015068676759091343 -0.021874137657608324 -0.0020712148737510624 -0.00046847108053505549
leaf_weight=28 39 27 129 28
leaf_count=28 39 27 129 28
internal_value=1.19441e-07 -0.00127019 0.00190788 -0.0109773
internal_weight=251 223 168 55
internal_count=251 223 168 55
is_linear=0
shrinkage=0.0493742


Tree=84
num_leaves=5
num_cat=0
split_feature=3 25 0 10
split_gain=1.28126 1.83827 2.73 2.24427
threshold=2.5000000000000004 274.50000000000006 31.700000000000003 0.64100000000000013
decision_type=2 8 2 2
left_child=1 3 -3 -1
right_child=-2 2 -4 -5
leaf_value=-0.0014561116423021994 0.010160211086338642 0.018539123353261352 -0.0020674034698590152 -0.017098949659752692
leaf_weight=130 27 25 42 27
leaf_count=130 27 25 42 27
internal_value=1.13628e-07 -0.00122465 0.00562206 -0.00414656
internal_weight=251 224 67 157
internal_count=251 224 67 157
is_linear=0
shrinkage=0.0493742


Tree=85
num_leaves=4
num_cat=0
split_feature=16 15 30
split_gain=1.33039 3.14601 1.82418
threshold=5.5000000000000009 -1.2169999999999999 0.0075000000000000006
decision_type=2 10 8
left_child=1 2 -1
right_child=-2 -3 -4
leaf_value=-0.011273588378458967 -0.010806969162509833 0.015038246439811283 0.0010562181260638675
leaf_weight=36 25 34 156
leaf_count=36 25 34 156
internal_value=1.12144e-07 0.00119572 -0.00125575
internal_weight=251 226 192
internal_count=251 226 192
is_linear=0
shrinkage=0.0493742


Tree=86
num_leaves=5
num_cat=0
split_feature=3 6 8 2
split_gain=1.26766 2.60193 3.25821 2.31656
threshold=1.0000000180025095e-35 1.2455000000000003 0.86750000000000005 -3.8199999999999994
decision_type=2 8 2 10
left_child=-1 2 -2 -3
right_child=1 3 -4 -5
leaf_value=0.009901864295489244 0.014313153924658588 -0.020882291109181106 -0.0019724524360099265 -0.00061325692492970516
leaf_weight=28 39 27 129 28
leaf_count=28 39 27 129 28
internal_value=1.0302e-07 -0.00124328 0.00180831 -0.0105641
internal_weight=251 223 168 55
internal_count=251 223 168 55
is_linear=0
shrinkage=0.0493742


Tree=87
num_leaves=4
num_cat=0
split_feature=25 11 5
split_gain=1.25049 1.82386 2.02278
threshold=77.500000000000014 -10.76 0.38240950000000007
decision_type=10 10 2
left_child=1 -1 -3
right_child=-2 2 -4
leaf_value=0.0074818696255507357 0.0082506391758298114 -0.0061586141239493393 0.0085839353195900671
leaf_weight=44 38 142 27
leaf_count=44 38 142 27
internal_value=9.79664e-08 -0.00147192 -0.00380318
internal_weight=251 213 169
internal_count=251 213 169
is_linear=0
shrinkage=0.0493742


Tree=88
num_leaves=5
num_cat=0
split_feature=12 30 10 13
split_gain=1.24939 1.68311 4.33084 2.27534
threshold=9.8840000000000021 0.051500000000000011 0.48300000000000004 12.01145136171124
decision_type=8 10 2 2
left_child=-1 2 -2 -3
right_child=1 3 -4 -5
leaf_value=0.0077705150382337681 -0.0060551222107462646 -0.011434031467373412 0.015645780613575386 0.0024058790362265115
leaf_weight=42 51 67 40 51
leaf_count=42 51 67 40 51
internal_value=1.03942e-07 -0.0015615 0.00348392 -0.00545246
internal_weight=251 209 91 118
internal_count=251 209 91 118
is_linear=0
shrinkage=0.0493742


Tree=89
num_leaves=4
num_cat=0
split_feature=0 2 1
split_gain=1.19544 1.83152 3.93132
threshold=1.3500000000000003 -24.784999999999997 0.6110000000000001
decision_type=2 10 10
left_child=-1 -2 -3
right_child=1 2 -4
leaf_value=0.007098781901041921 -0.012095985719711735 0.0099995271617651683 -0.0054506672577785019
leaf_weight=47 34 65 105
leaf_count=47 34 65 105
internal_value=1.03722e-07 -0.00163545 0.000456825
internal_weight=251 204 170
internal_count=251 204 170
is_linear=0
shrinkage=0.0493742


Tree=90
num_leaves=5
num_cat=0
split_feature=23 22 29 2
split_gain=1.18993 1.66842 3.4057 1.65853
threshold=-4.8049999999999988 0.23770000000000002 0.30375000000000002 213.00000000000003
decision_type=8 8 10 8
left_child=-1 3 -3 -2
right_child=1 2 -4 -5
leaf_value=0.010220774151170986 -0.014454687451747418 -0.0015140725248126792 0.018312806336228768 0.0015494517359828672
leaf_weight=25 38 136 25 27
leaf_count=25 38 136 25 27
internal_value=9.81375e-08 -0.00113062 0.00156491 -0.00780703
internal_weight=251 226 161 65
internal_count=251 226 161 65
is_linear=0
shrinkage=0.0493742


Tree=91
num_leaves=5
num_cat=0
split_feature=24 12 24 31
split_gain=1.17047 3.88625 3.65853 2.45173
threshold=1.2641000000000002 135.18500000000003 0.66815000000000013 0.52450000000000008
decision_type=10 10 10 8
left_child=2 -2 3 -1
right_child=1 -3 -4 -5
leaf_value=-0.004970170657228005 -0.015536975560747629 0.0077528942550906142 0.018517295541741009 0.008765457835293089
leaf_weight=107 40 31 28 45
leaf_count=107 40 31 28 45
internal_value=1.01422e-07 -0.00536825 0.00211768 -0.000903603
internal_weight=251 71 180 152
internal_count=251 71 180 152
is_linear=0
shrinkage=0.0493742


Tree=92
num_leaves=4
num_cat=0
split_feature=17 31 30
split_gain=1.19209 1.80338 1.79284
threshold=1.5000000000000002 0.52450000000000008 0.23000000000000004
decision_type=2 10 10
left_child=-1 2 -2
right_child=1 -3 -4
leaf_value=0.0089012040151039105 -0.0056372876472293096 0.0078968321263264505 0.0079792427285229218
leaf_weight=32 149 42 28
leaf_count=32 149 42 28
internal_value=1.04862e-07 -0.00130061 -0.00348316
internal_weight=251 219 177
internal_count=251 219 177
is_linear=0
shrinkage=0.0493742


Tree=93
num_leaves=5
num_cat=0
split_feature=23 22 13 4
split_gain=1.18551 1.53134 1.94779 0.928814
threshold=-4.8049999999999988 0.23030000000000003 11.135427559460522 0.095500000000000015
decision_type=8 8 2 2
left_child=-1 3 -3 -2
right_child=1 2 -4 -5
leaf_value=0.010201793846074931 -0.014856712578629458 0.0086116362154623725 -0.0025503049743340394 -0.0019059369918572335
leaf_weight=25 27 57 115 27
leaf_count=25 27 57 115 27
internal_value=1.11041e-07 -0.00112851 0.00114879 -0.00838181
internal_weight=251 226 172 54
internal_count=251 226 172 54
is_linear=0
shrinkage=0.0493742


Tree=94
num_leaves=5
num_cat=0
split_feature=26 11 13 25
split_gain=1.15632 1.8673 5.01021 1.80875
threshold=0.75000000000000011 10.960000000000003 12.73162094502065 59.500000000000007
decision_type=8 10 2 10
left_child=-1 2 -2 -3
right_child=1 3 -4 -5
leaf_value=0.0096521247177321755 0.009722458204571913 -0.012231836015886734 -0.010651374996944641 0.0016686751329585791
leaf_weight=27 85 55 45 39
leaf_count=27 85 55 45 39
internal_value=1.04882e-07 -0.00116342 0.00266989 -0.00646472
internal_weight=251 224 130 94
internal_count=251 224 130 94
is_linear=0
shrinkage=0.0493742


Tree=95
num_leaves=5
num_cat=0
split_feature=12 9 1 24
split_gain=1.17633 1.53146 3.27469 2.55336
threshold=9.8840000000000021 0.41350000000000003 0.86950000000000005 3.4772500000000006
decision_type=8 10 10 8
left_child=-1 3 -3 -2
right_child=1 2 -4 -5
leaf_value=0.0075398906937203065 -0.013193807022418302 0.01720948249090572 -0.0026508711609961621 0.0019894568264802581
leaf_weight=42 54 28 73 54
leaf_count=42 54 28 73 54
internal_value=9.86528e-08 -0.00151516 0.0028553 -0.00560232
internal_weight=251 209 101 108
internal_count=251 209 101 108
is_linear=0
shrinkage=0.0493742


Tree=96
num_leaves=4
num_cat=0
split_feature=16 12 10
split_gain=1.10523 1.6859 2.65542
threshold=5.5000000000000009 2.4815 0.21700000000000005
decision_type=2 10 2
left_child=1 -1 -3
right_child=-2 2 -4
leaf_value=0.011589265944773646 -0.0098501236989083432 -0.011152976955913361 0.0025323973828891171
leaf_weight=32 25 45 149
leaf_count=32 25 45 149
internal_value=1.00233e-07 0.00108985 -0.000642162
internal_weight=251 226 194
internal_count=251 226 194
is_linear=0
shrinkage=0.0493742


Tree=97
num_leaves=5
num_cat=0
split_feature=3 6 8 2
split_gain=1.08818 2.57454 2.65268 1.90305
threshold=1.0000000180025095e-35 1.2455000000000003 0.86750000000000005 -3.8199999999999994
decision_type=2 8 2 10
left_child=-1 2 -2 -3
right_child=1 3 -4 -5
leaf_value=0.0091741759158327687 0.013166722339780229 -0.019775587208194816 -0.0015278301685908789 -0.0014043600075202274
leaf_weight=28 39 27 129 28
leaf_count=28 39 27 129 28
internal_value=9.09781e-08 -0.00115191 0.00188357 -0.0104236
internal_weight=251 223 168 55
internal_count=251 223 168 55
is_linear=0
shrinkage=0.0493742


Tree=98
num_leaves=5
num_cat=0
split_feature=24 24 2 19
split_gain=1.09461 3.26686 2.64256 2.20154
threshold=1.2641000000000002 0.66815000000000013 201.00000000000003 1.0000000180025095e-35
decision_type=10 10 10 2
left_child=1 3 -2 -1
right_child=2 -3 -4 -5
leaf_value=-0.007070502501230317 -0.012213329135752503 0.017544808533878156 0.0077288939883960279 0.0048300221841454652
leaf_weight=72 46 28 25 80
leaf_count=72 46 28 25 80
internal_value=8.59399e-08 0.00204789 -0.00519137 -0.000807089
internal_weight=251 180 71 152
internal_count=251 180 71 152
is_linear=0
shrinkage=0.0493742


Tree=99
num_leaves=5
num_cat=0
split_feature=23 6 6 6
split_gain=1.12033 1.351 2.54653 1.40688
threshold=-4.8049999999999988 1.1345000000000003 1.2095000000000002 1.0680000000000003
decision_type=8 8 8 10
left_child=-1 3 -3 -2
right_child=1 2 -4 -5
leaf_value=0.0099173751977507246 -0.0015406220329573599 0.0090135882403640285 -0.0037827021335440827 -0.016207736717504931
leaf_weight=25 44 64 93 25
leaf_count=25 44 64 93 25
internal_value=8.79502e-08 -0.00109707 0.00143369 -0.00685528
internal_weight=251 226 157 69
internal_count=251 226 157 69
is_linear=0
shrinkage=0.0493742


Tree=100
num_leaves=5
num_cat=0
split_feature=25 13 30 5
split_gain=1.04529 2.09241 1.84892 1.59345
threshold=274.50000000000006 12.550533278955827 0.23400000000000001 0.39801350000000008
decision_type=8 2 10 2
left_child=2 -2 3 -1
right_child=1 -3 -4 -5
leaf_value=-0.0079684616326114906 0.011365183541765043 -0.0047139709956254905 0.009650092615799577 0.0032545380706755882
leaf_weight=98 47 34 27 45
leaf_count=98 47 34 27 45
internal_value=8.16463e-08 0.00461597 -0.00219929 -0.00443675
internal_weight=251 81 170 143
internal_count=251 81 170 143
is_linear=0
shrinkage=0.0493742


Tree=101
num_leaves=4
num_cat=0
split_feature=26 1 5
split_gain=1.04398 1.97332 2.51794
threshold=0.75000000000000011 0.28600000000000009 0.39801350000000008
decision_type=8 10 2
left_child=-1 -2 -3
right_child=1 2 -4
leaf_value=0.0091712555594082278 0.0085410194223731837 -0.0062154745018041394 0.0083631581791358076
leaf_weight=27 42 146 36
leaf_count=27 42 146 36
internal_value=8.4369e-08 -0.00110547 -0.00333169
internal_weight=251 224 182
internal_count=251 224 182
is_linear=0
shrinkage=0.0493742


Tree=102
num_leaves=4
num_cat=0
split_feature=12 2 1
split_gain=1.0866 1.40528 2.57026
threshold=9.8840000000000021 -31.069999999999997 0.6110000000000001
decision_type=8 10 10
left_child=-1 -2 -3
right_child=1 2 -4
leaf_value=0.0072465985281470434 -0.011542244256734197 0.0089481352599534575 -0.0037960161606945065
leaf_weight=42 29 56 124
leaf_count=42 29 56 124
internal_value=9.20147e-08 -0.00145622 0.000168907
internal_weight=251 209 180
internal_count=251 209 180
is_linear=0
shrinkage=0.0493742


Tree=103
num_leaves=5
num_cat=0
split_feature=0 24 10 24
split_gain=1.08881 1.54261 4.08338 1.5274
threshold=1.3500000000000003 1.2641000000000002 0.55550000000000022 3.9168500000000006
decision_type=2 10 2 10
left_child=-1 2 -2 -3
right_child=1 3 -4 -5
leaf_value=0.0067748004199543639 -0.0056916357946948243 -0.016131094531605349 0.011012154569234147 0.00021866412139589454
leaf_weight=47 88 30 60 26
leaf_count=47 88 30 60 26
internal_value=8.7811e-08 -0.00156082 0.00108025 -0.00854051
internal_weight=251 204 148 56
internal_count=251 204 148 56
is_linear=0
shrinkage=0.0493742


Tree=104
num_leaves=4
num_cat=0
split_feature=25 11 13
split_gain=1.00596 1.60663 1.87646
threshold=77.500000000000014 -10.76 12.110516467008155
decision_type=10 10 2
left_child=1 -1 -3
right_child=-2 2 -4
leaf_value=0.007083483759534802 0.007400110978154158 0.0013661499008168522 -0.0090611627160125559
leaf_weight=44 38 90 79
leaf_count=44 38 90 79
internal_value=8.1152e-08 -0.00132019 -0.00350822
internal_weight=251 213 169
internal_count=251 213 169
is_linear=0
shrinkage=0.0493742


Tree=105
num_leaves=4
num_cat=0
split_feature=15 31 28
split_gain=1.04291 2.06687 1.98579
threshold=-0.14549999999999999 0.52450000000000008 0.033100000000000011
decision_type=10 10 10
left_child=1 2 -1
right_child=-2 -3 -4
leaf_value=-0.010711157424290225 0.0095685547173172004 0.0086819248483246941 0.00024495163653287261
leaf_weight=60 25 43 123
leaf_count=60 25 43 123
internal_value=8.13898e-08 -0.00105849 -0.00334732
internal_weight=251 226 183
internal_count=251 226 183
is_linear=0
shrinkage=0.0493742


Tree=106
num_leaves=5
num_cat=0
split_feature=3 9 2 2
split_gain=1.03742 2.43051 4.52281 3.56581
threshold=1.0000000180025095e-35 0.40750000000000003 6.3100000000000005 4.4750000000000005
decision_type=2 10 10 10
left_child=-1 3 -3 -2
right_child=1 2 -4 -5
leaf_value=0.0089576479784206214 -0.01430809519583834 0.020830716719322014 -0.0018910304114703276 0.0032890932635372028
leaf_weight=28 61 29 81 52
leaf_count=28 61 29 81 52
internal_value=8.21721e-08 -0.00112473 0.00409964 -0.00621039
internal_weight=251 223 110 113
internal_count=251 223 110 113
is_linear=0
shrinkage=0.0493742


Tree=107
num_leaves=8
num_cat=0
split_feature=1 19 11 5 1 25 2
split_gain=0.993738 2.53305 4.48357 2.38014 5.34733 1.53299 0.583363
threshold=2.0105000000000004 1.0000000180025095e-35 36.125000000000007 0.16116700000000003 0.79000000000000015 58.500000000000007 6.3100000000000005
decision_type=8 2 10 2 10 10 10
left_child=3 5 -3 6 -5 -2 -1
right_child=1 2 -4 4 -6 -7 -8
leaf_value=-0.016716109609390451 -0.0085803286208106649 0.024884420942824965 -0.0025863255973636885 0.016391973728005809 -0.010709615297667409 0.0066087069227969038 -0.0061519537807880782
leaf_weight=25 46 28 30 35 36 25 26
leaf_count=25 46 28 30 35 36 25 26
internal_value=8.79454e-08 0.00302129 0.010676 -0.00319445 0.00265043 -0.00323201 -0.0113312
internal_weight=251 129 58 122 71 71 51
internal_count=251 129 58 122 71 71 51
is_linear=0
shrinkage=0.0493742


Tree=108
num_leaves=4
num_cat=0
split_feature=12 2 2
split_gain=1.00457 1.36467 1.76858
threshold=9.8840000000000021 -31.069999999999997 5.6500000000000012
decision_type=8 8 8
left_child=-1 -2 -3
right_child=1 2 -4
leaf_value=0.0069676961493176761 -0.012223250461543074 0.0077826571737357056 -0.0029677007046775465
leaf_weight=42 25 52 132
leaf_count=42 25 52 132
internal_value=8.47635e-08 -0.00140018 7.05146e-05
internal_weight=251 209 184
internal_count=251 209 184
is_linear=0
shrinkage=0.0493742


Tree=109
num_leaves=5
num_cat=0
split_feature=3 9 5 19
split_gain=0.976868 2.26751 3.46117 1.88307
threshold=1.0000000180025095e-35 0.40750000000000003 0.16116700000000003 1.0000000180025095e-35
decision_type=2 10 2 2
left_child=-1 3 -3 -2
right_child=1 2 -4 -5
leaf_value=0.0086922831152899636 -0.012320915395301887 -0.0067715403514563462 0.011105598514657129 0.00042684402915760884
leaf_weight=28 57 44 66 56
leaf_count=28 57 44 66 56
internal_value=8.00944e-08 -0.00109141 0.00395474 -0.00600359
internal_weight=251 223 110 113
internal_count=251 223 110 113
is_linear=0
shrinkage=0.0493742


Tree=110
num_leaves=6
num_cat=0
split_feature=25 0 5 30 5
split_gain=0.99366 3.23854 1.78214 1.75163 1.24992
threshold=274.50000000000006 28.350000000000005 0.16675150000000002 0.23000000000000004 0.39801350000000008
decision_type=8 2 2 10 2
left_child=3 -2 -3 4 -1
right_child=1 2 -4 -5 -6
leaf_value=-0.0076751275220478445 0.019275368119821588 0.0073647772544136363 -0.010295379119355585 0.0086819450973958223 0.0023140339527817667
leaf_weight=95 25 26 30 30 45
leaf_count=95 25 26 30 30 45
internal_value=7.6776e-08 0.00450052 -0.00209605 -0.00214429 -0.00446434
internal_weight=251 81 56 170 140
internal_count=251 81 56 170 140
is_linear=0
shrinkage=0.0493742


Tree=111
num_leaves=4
num_cat=0
split_feature=16 12 10
split_gain=0.937097 1.60861 2.09141
threshold=5.5000000000000009 708.38350000000003 0.71300000000000008
decision_type=2 8 2
left_child=1 2 -1
right_child=-2 -3 -4
leaf_value=-0.0028363215549008689 -0.0090700076720863464 0.011076797990533304 0.011757100936084229
leaf_weight=165 25 33 28
leaf_count=165 25 33 28
internal_value=8.48069e-08 0.00100352 -0.000718987
internal_weight=251 226 193
internal_count=251 226 193
is_linear=0
shrinkage=0.0493742


Tree=112
num_leaves=4
num_cat=0
split_feature=23 1 5
split_gain=0.963323 1.15858 1.82216
threshold=-4.8049999999999988 0.27800000000000008 0.39801350000000008
decision_type=8 10 2
left_child=-1 -2 -3
right_child=1 2 -4
leaf_value=0.0091962325707402749 0.00627533707280741 -0.0048689488509926267 0.0086219463063196312
leaf_weight=25 43 154 29
leaf_count=25 43 154 29
internal_value=8.67933e-08 -0.00101729 -0.00273094
internal_weight=251 226 183
internal_count=251 226 183
is_linear=0
shrinkage=0.0493742


Tree=113
num_leaves=4
num_cat=0
split_feature=0 17 30
split_gain=0.975456 1.40946 1.38966
threshold=1.3500000000000003 1.5000000000000002 0.0075000000000000006
decision_type=2 2 8
left_child=-1 -2 -3
right_child=1 2 -4
leaf_value=0.0064124578659443361 0.0084059674684300451 -0.013476562535904861 -0.0012902915869409907
leaf_weight=47 30 27 147
leaf_count=47 30 27 147
internal_value=9.39135e-08 -0.00147733 -0.00318147
internal_weight=251 204 174
internal_count=251 204 174
is_linear=0
shrinkage=0.0493742


Tree=114
num_leaves=5
num_cat=0
split_feature=3 6 8 2
split_gain=0.898438 2.17672 2.33158 1.57251
threshold=1.0000000180025095e-35 1.2455000000000003 0.86750000000000005 -3.8199999999999994
decision_type=2 8 2 10
left_child=-1 2 -2 -3
right_child=1 3 -4 -5
leaf_value=0.00833605269703349 0.012322692715598643 -0.018073100307541438 -0.0014538151472428087 -0.0013733354772083946
leaf_weight=28 39 27 129 28
leaf_count=28 39 27 129 28
internal_value=8.91364e-08 -0.00104667 0.00174446 -0.00957195
internal_weight=251 223 168 55
internal_count=251 223 168 55
is_linear=0
shrinkage=0.0493742


Tree=115
num_leaves=4
num_cat=0
split_feature=23 1 10
split_gain=0.942885 1.13605 1.80534
threshold=-4.8049999999999988 0.27800000000000008 0.54900000000000015
decision_type=8 10 2
left_child=-1 -2 -3
right_child=1 2 -4
leaf_value=0.0090981527365064704 0.0062149429499641475 0.0021739365055826153 -0.0076341510782066413
leaf_weight=25 43 92 91
leaf_count=25 43 92 91
internal_value=8.40824e-08 -0.00100644 -0.00270335
internal_weight=251 226 183
internal_count=251 226 183
is_linear=0
shrinkage=0.0493742


Tree=116
num_leaves=5
num_cat=0
split_feature=15 30 11 4
split_gain=0.904446 1.98571 2.45466 1.61338
threshold=-0.14549999999999999 0.0075000000000000006 10.960000000000003 0.10650000000000001
decision_type=10 10 10 2
left_child=1 3 -3 -1
right_child=-2 2 -4 -5
leaf_value=-0.0016759791156945891 0.0089107693704284802 0.0080357070214860694 -0.0040139765909143555 -0.017912886468437021
leaf_weight=35 25 80 85 26
leaf_count=35 25 80 85 26
internal_value=8.58885e-08 -0.000985709 0.00182833 -0.00859718
internal_weight=251 226 165 61
internal_count=251 226 165 61
is_linear=0
shrinkage=0.0493742


Tree=117
num_leaves=5
num_cat=0
split_feature=25 13 30 9
split_gain=0.896626 1.68009 1.57737 1.22273
threshold=274.50000000000006 12.550533278955827 0.23000000000000004 0.017000000000000005
decision_type=8 2 10 10
left_child=2 -2 3 -1
right_child=1 -3 -4 -5
leaf_value=-0.014134347425770123 0.010322925663228278 -0.0040851789105844517 0.0082367191232123552 -0.002086935430579348
leaf_weight=25 47 34 30 115
leaf_count=25 47 34 30 115
internal_value=7.73086e-08 0.00427514 -0.0020369 -0.00423852
internal_weight=251 81 170 140
internal_count=251 81 170 140
is_linear=0
shrinkage=0.0493742


Tree=118
num_leaves=4
num_cat=0
split_feature=12 2 24
split_gain=0.909639 1.1897 1.48606
threshold=9.8840000000000021 -31.069999999999997 3.4772500000000006
decision_type=8 8 10
left_child=-1 -2 -3
right_child=1 2 -4
leaf_value=0.0066303132154860557 -0.0114378454442317 -0.0018391202331183372 0.010513693200631412
leaf_weight=42 25 156 28
leaf_count=42 25 156 28
internal_value=7.20399e-08 -0.00133239 4.07892e-05
internal_weight=251 209 184
internal_count=251 209 184
is_linear=0
shrinkage=0.0493742


Tree=119
num_leaves=5
num_cat=0
split_feature=23 22 29 23
split_gain=0.911645 1.37385 2.6062 0.801569
threshold=-4.8049999999999988 0.23770000000000002 0.30375000000000002 6.0850000000000009
decision_type=8 8 10 10
left_child=-1 3 -3 -2
right_child=1 2 -4 -5
leaf_value=0.0089461484058078362 -0.013762780544411298 -0.0012370606615262536 0.016107179204658151 -0.0025708468746862599
leaf_weight=25 26 136 25 39
leaf_count=25 26 136 25 39
internal_value=7.04832e-08 -0.00098964 0.00145639 -0.00704806
internal_weight=251 226 161 65
internal_count=251 226 161 65
is_linear=0
shrinkage=0.0493742


Tree=120
num_leaves=5
num_cat=0
split_feature=0 24 10 13
split_gain=0.87957 1.35721 3.57488 1.28732
threshold=1.3500000000000003 1.2641000000000002 0.55550000000000022 11.89016573335264
decision_type=2 10 2 2
left_child=-1 2 -2 -3
right_child=1 3 -4 -5
leaf_value=0.0060891208631213296 -0.0052618001589048585 -0.015707344042330221 0.010367354996157986 -0.00072612865246334077
leaf_weight=47 88 27 60 29
leaf_count=47 88 27 60 29
internal_value=7.10959e-08 -0.00140286 0.00107442 -0.00794968
internal_weight=251 204 148 56
internal_count=251 204 148 56
is_linear=0
shrinkage=0.0493742


Tree=121
num_leaves=4
num_cat=0
split_feature=25 11 13
split_gain=0.904159 1.32007 1.62898
threshold=77.500000000000014 -10.76 11.163033963666576
decision_type=10 10 2
left_child=1 -1 -3
right_child=-2 2 -4
leaf_value=0.0063658450898798026 0.0070156662226264982 0.0034708966989145528 -0.0067389147830276682
leaf_weight=44 38 58 111
leaf_count=44 38 58 111
internal_value=6.40278e-08 -0.00125162 -0.00323495
internal_weight=251 213 169
internal_count=251 213 169
is_linear=0
shrinkage=0.0493742


Tree=122
num_leaves=5
num_cat=0
split_feature=3 9 3 19
split_gain=0.841283 2.01298 1.78058 1.61042
threshold=1.0000000180025095e-35 0.40750000000000003 1.5000000000000002 1.0000000180025095e-35
decision_type=2 10 2 2
left_child=-1 3 -3 -2
right_child=1 2 -4 -5
leaf_value=0.0080665272793540056 -0.011483229277028793 0.00015864113421185371 0.014754834571973029 0.00030559296357911888
leaf_weight=28 57 83 27 56
leaf_count=28 57 83 27 56
internal_value=6.70874e-08 -0.00101285 0.00374165 -0.00564112
internal_weight=251 223 110 113
internal_count=251 223 110 113
is_linear=0
shrinkage=0.0493742


Tree=123
num_leaves=4
num_cat=0
split_feature=11 11 23
split_gain=0.856747 1.69216 2.00529
threshold=-20.299999999999994 -10.76 0.20000000000000004
decision_type=8 10 8
left_child=-1 -2 -3
right_child=1 2 -4
leaf_value=-0.0083081023347760189 0.01212891820872688 0.010051383544724065 -0.0029951980527079618
leaf_weight=27 29 35 160
leaf_count=27 29 35 160
internal_value=7.10181e-08 0.0010016 -0.000653381
internal_weight=251 224 195
internal_count=251 224 195
is_linear=0
shrinkage=0.0493742


Tree=124
num_leaves=6
num_cat=0
split_feature=1 6 6 0 23
split_gain=0.851773 2.36026 2.18602 5.02765 1.58107
threshold=2.0105000000000004 1.0680000000000003 1.1655000000000002 26.750000000000004 6.0000000000000009
decision_type=8 8 10 2 10
left_child=2 -2 -1 -4 -3
right_child=1 4 3 -5 -6
leaf_value=-0.012783407656671781 0.016089078418441913 -0.0057369694036372206 -0.0089729477901978136 0.015435195246308491 0.0066672990456800507
leaf_weight=38 26 60 48 36 43
leaf_count=38 26 60 48 36 43
internal_value=7.35925e-08 0.00279716 -0.00295749 0.00148785 -0.000558435
internal_weight=251 129 122 84 103
internal_count=251 129 122 84 103
is_linear=0
shrinkage=0.0493742


end of trees

feature_importances:
token_age_hours=33
volume_velocity=32
onchain_multiplier=31
price_change_6h=30
price_change_1h=25
relative_volume=24
ultra_short_heat=22
price_action_val=22
short_term_heat=21
kol_saturation=20
sentiment_consistency=19
market_cap_log=19
breadth_val=19
buy_sell_ratio_5m=18
volatility_proxy=17
mentions=15
market_heat_24h=15
liq_mcap_ratio=13
kol_freshness=12
win_rate_7d=11
sentiment=9
mention_velocity=8
day_of_week=8
entry_vs_median_peak=8
conviction_val=7
hour_paris=5
is_prime_time=5
median_peak_return=2
consensus_val=2

parameters:
[boosting: gbdt]
[objective: regression]
[metric: l2]
[tree_learner: serial]
[device_type: cpu]
[data_sample_strategy: bagging]
[data: ]
[valid: ]
[num_iterations: 125]
[learning_rate: 0.0493742]
[num_leaves: 59]
[num_threads: 2]
[seed: 0]
[deterministic: 0]
[force_col_wise: 0]
[force_row_wise: 0]
[histogram_pool_size: -1]
[max_depth: 3]
[min_data_in_leaf: 25]
[min_sum_hessian_in_leaf: 0.001]
[bagging_fraction: 0.7082]
[pos_bagging_fraction: 1]
[neg_bagging_fraction: 1]
[bagging_freq: 0]
[bagging_seed: 3]
[bagging_by_query: 0]
[feature_fraction: 0.814454]
[feature_fraction_bynode: 1]
[feature_fraction_seed: 2]
[extra_trees: 0]
[extra_seed: 6]
[early_stopping_round: 0]
[early_stopping_min_delta: 0]
[first_metric_only: 0]
[max_delta_step: 0]
[lambda_l1: 2.17234e-05]
[lambda_l2: 0.00296935]
[linear_lambda: 0]
[min_gain_to_split: 0]
[drop_rate: 0.1]
[max_drop: 50]
[skip_drop: 0.5]
[xgboost_dart_mode: 0]
[uniform_drop: 0]
[drop_seed: 4]
[top_rate: 0.2]
[other_rate: 0.1]
[min_data_per_group: 100]
[max_cat_threshold: 32]
[cat_l2: 10]
[cat_smooth: 10]
[max_cat_to_onehot: 4]
[top_k: 20]
[monotone_constraints: ]
[monotone_constraints_method: basic]
[monotone_penalty: 0]
[feature_contri: ]
[forcedsplits_filename: ]
[refit_decay_rate: 0.9]
[cegb_tradeoff: 1]
[cegb_penalty_split: 0]
[cegb_penalty_feature_lazy: ]
[cegb_penalty_feature_coupled: ]
[path_smooth: 0]
[interaction_constraints: ]
[verbosity: -1]
[saved_feature_importance_type: 0]
[use_quantized_grad: 0]
[num_grad_quant_bins: 4]
[quant_train_renew_leaf: 0]
[stochastic_rounding: 1]
[linear_tree: 0]
[max_bin: 255]
[max_bin_by_feature: ]
[min_data_in_bin: 3]
[bin_construct_sample_cnt: 200000]
[data_random_seed: 1]
[is_enable_sparse: 1]
[enable_bundle: 1]
[use_missing: 1]
[zero_as_missing: 0]
[feature_pre_filter: 1]
[pre_partition: 0]
[two_round: 0]
[header: 0]
[label_column: ]
[weight_column: ]
[group_column: ]
[ignore_column: ]
[categorical_feature: ]
[forcedbins_filename: ]
[precise_float_parser: 0]
[parser_config_file: ]
[objective_seed: 5]
[num_class: 1]
[is_unbalance: 0]
[scale_pos_weight: 1]
[sigmoid: 1]
[boost_from_average: 1]
[reg_sqrt: 0]
[alpha: 0.9]
[fair_c: 1]
[poisson_max_delta_step: 0.7]
[tweedie_variance_power: 1.5]
[lambdarank_truncation_level: 30]
[lambdarank_norm: 1]
[label_gain: ]
[lambdarank_position_bias_regularization: 0]
[eval_at: ]
[multi_error_top_k: 1]
[auc_mu_weights: ]
[num_machines: 1]
[local_listen_port: 12400]
[time_out: 120]
[machine_list_filename: ]
[machines: ]
[gpu_platform_id: -1]
[gpu_device_id: -1]
[gpu_use_dp: 0]
[num_gpu: 1]

end of parameters

pandas_categorical:[]
