{"learner":{"attributes":{"scikit_learn":"{\"_estimator_type\": \"classifier\"}"},"feature_names":[],"feature_types":[],"gradient_booster":{"model":{"cats":{"enc":[],"feature_segments":[],"sorted_idx":[]},"gbtree_model_param":{"num_parallel_tree":"1","num_trees":"339"},"iteration_indptr":[0,1,2,3,4,5,6,7,8,9,10,11,12,13,14,15,16,17,18,19,20,21,22,23,24,25,26,27,28,29,30,31,32,33,34,35,36,37,38,39,40,41,42,43,44,45,46,47,48,49,50,51,52,53,54,55,56,57,58,59,60,61,62,63,64,65,66,67,68,69,70,71,72,73,74,75,76,77,78,79,80,81,82,83,84,85,86,87,88,89,90,91,92,93,94,95,96,97,98,99,100,101,102,103,104,105,106,107,108,109,110,111,112,113,114,115,116,117,118,119,120,121,122,123,124,125,126,127,128,129,130,131,132,133,134,135,136,137,138,139,140,141,142,143,144,145,146,147,148,149,150,151,152,153,154,155,156,157,158,159,160,161,162,163,164,165,166,167,168,169,170,171,172,173,174,175,176,177,178,179,180,181,182,183,184,185,186,187,188,189,190,191,192,193,194,195,196,197,198,199,200,201,202,203,204,205,206,207,208,209,210,211,212,213,214,215,216,217,218,219,220,221,222,223,224,225,226,227,228,229,230,231,232,233,234,235,236,237,238,239,240,241,242,243,244,245,246,247,248,249,250,251,252,253,254,255,256,257,258,259,260,261,262,263,264,265,266,267,268,269,270,271,272,273,274,275,276,277,278,279,280,281,282,283,284,285,286,287,288,289,290,291,292,293,294,295,296,297,298,299,300,301,302,303,304,305,306,307,308,309,310,311,312,313,314,315,316,317,318,319,320,321,322,323,324,325,326,327,328,329,330,331,332,333,334,335,336,337,338,339],"tree_info":[0,0,0,0,0,0,0,0,0,0,0,0,0,0,0,0,0,0,0,0,0,0,0,0,0,0,0,0,0,0,0,0,0,0,0,0,0,0,0,0,0,0,0,0,0,0,0,0,0,0,0,0,0,0,0,0,0,0,0,0,0,0,0,0,0,0,0,0,0,0,0,0,0,0,0,0,0,0,0,0,0,0,0,0,0,0,0,0,0,0,0,0,0,0,0,0,0,0,0,0,0,0,0,0,0,0,0,0,0,0,0,0,0,0,0,0,0,0,0,0,0,0,0,0,0,0,0,0,0,0,0,0,0,0,0,0,0,0,0,0,0,0,0,0,0,0,0,0,0,0,0,0,0,0,0,0,0,0,0,0,0,0,0,0,0,0,0,0,0,0,0,0,0,0,0,0,0,0,0,0,0,0,0,0,0,0,0,0,0,0,0,0,0,0,0,0,0,0,0,0,0,0,0,0,0,0,0,0,0,0,0,0,0,0,0,0,0,0,0,0,0,0,0,0,0,0,0,0,0,0,0,0,0,0,0,0,0,0,0,0,0,0,0,0,0,0,0,0,0,0,0,0,0,0,0,0,0,0,0,0,0,0,0,0,0,0,0,0,0,0,0,0,0,0,0,0,0,0,0,0,0,0,0,0,0,0,0,0,0,0,0,0,0,0,0,0,0,0,0,0,0,0,0,0,0,0,0,0,0,0,0,0,0,0,0,0,0,0,0,0,0,0,0,0,0,0,0,0,0,0,0,0,0,0,0,0,0,0,0],"trees":[{"base_weights":[-0E0,7.605049E-1,-4.1652748E-1,3.3935198E-1,1.2899569E-1,1.6429476E-1,-6.1546564E-2,5.910616E-2,-4.918464E-2,-4.032747E-2,6.0189348E-2],"categories":[],"categories_nodes":[],"categories_segments":[],"categories_sizes":[],"default_left":[0,1,0,0,0,0,0,0,0,0,0],"id":0,"left_children":[1,3,5,7,-1,9,-1,-1,-1,-1,-1],"loss_changes":[1.8744057E1,9.879707E0,1.219864E1,9.948237E0,0E0,1.0946667E1,0E0,0E0,0E0,0E0,0E0],"parents":[2147483647,0,0,1,1,2,2,3,3,5,5],"right_children":[2,4,6,8,-1,10,-1,-1,-1,-1,-1],"split_conditions":[3.18E-1,7.64305E-1,1.172E0,4.8343E0,1.2899569E-1,8.88E-1,-6.1546564E-2,5.910616E-2,-4.918464E-2,-4.032747E-2,6.0189348E-2],"split_indices":[14,5,6,24,0,9,0,0,0,0,0],"split_type":[0,0,0,0,0,0,0,0,0,0,0],"sum_hessian":[5.9355797E1,2.086111E1,3.8494686E1,1.5767595E1,5.0935144E0,1.8053108E1,2.0441578E1,1.0600539E1,5.167056E0,8.644631E0,9.408476E0],"tree_param":{"num_deleted":"0","num_feature":"32","num_nodes":"11","size_leaf_vector":"1"}},{"base_weights":[2.5738893E-2,7.298627E-1,-3.6514252E-1,3.6919367E-1,1.1815558E-1,2.010155E-1,-5.5663444E-2,6.275785E-2,-1.3918581E-2,6.303774E-1,-4.9194437E-2,-1.6914213E-2,8.8822015E-2],"categories":[],"categories_nodes":[],"categories_segments":[],"categories_sizes":[],"default_left":[0,1,0,0,0,0,0,0,0,0,0,0,0],"id":1,"left_children":[1,3,5,7,-1,9,-1,-1,-1,11,-1,-1,-1],"loss_changes":[1.682424E1,7.802824E0,1.1028155E1,6.1545897E0,0E0,7.2000184E0,0E0,0E0,0E0,8.616087E0,0E0,0E0,0E0],"parents":[2147483647,0,0,1,1,2,2,3,3,5,5,9,9],"right_children":[2,4,6,8,-1,10,-1,-1,-1,12,-1,-1,-1],"split_conditions":[3.18E-1,7.64305E-1,1.172E0,1.191E0,1.1815558E-1,3.65E-1,-5.5663444E-2,6.275785E-2,-1.3918581E-2,1.088E0,-4.9194437E-2,-1.6914213E-2,8.8822015E-2],"split_indices":[14,5,6,6,0,29,0,0,0,6,0,0,0],"split_type":[0,0,0,0,0,0,0,0,0,0,0,0,0],"sum_hessian":[6.0613235E1,2.1991777E1,3.862146E1,1.6795664E1,5.196113E0,1.7603802E1,2.1017656E1,8.625197E0,8.170466E0,1.2440096E1,5.163706E0,5.399167E0,7.040929E0],"tree_param":{"num_deleted":"0","num_feature":"32","num_nodes":"13","size_leaf_vector":"1"}},{"base_weights":[-0E0,4.3257076E-1,-5.177614E-1,7.0587415E-1,-3.4318972E-2,-8.0559365E-2,-8.469015E-2,1.1015202E0,-2.9741177E-2,-3.8596205E-2,4.1085113E-2,9.2888586E-2,9.874155E-3],"categories":[],"categories_nodes":[],"categories_segments":[],"categories_sizes":[],"default_left":[1,1,0,1,0,1,0,0,0,0,0,0,0],"id":2,"left_children":[1,3,5,7,-1,9,-1,11,-1,-1,-1,-1,-1],"loss_changes":[1.3700453E1,8.713476E0,9.149975E0,1.2194294E1,0E0,6.743179E0,0E0,5.5256977E0,0E0,0E0,0E0,0E0,0E0],"parents":[2147483647,0,0,1,1,2,2,3,3,5,5,7,7],"right_children":[2,4,6,8,-1,10,-1,12,-1,-1,-1,-1,-1],"split_conditions":[9.9E0,1.24E-1,1.216E0,8.71E-1,-3.4318972E-2,1.1965554E1,-8.469015E-2,6.6E-1,-2.9741177E-2,-3.8596205E-2,4.1085113E-2,9.2888586E-2,9.874155E-3],"split_indices":[11,30,6,7,0,13,0,31,0,0,0,0,0],"split_type":[0,0,0,0,0,0,0,0,0,0,0,0,0],"sum_hessian":[6.1041706E1,3.2898335E1,2.814337E1,2.5931255E1,6.9670787E0,1.8412996E1,9.730374E0,1.9603083E1,6.328173E0,1.1018444E1,7.394552E0,1.4243101E1,5.359981E0],"tree_param":{"num_deleted":"0","num_feature":"32","num_nodes":"13","size_leaf_vector":"1"}},{"base_weights":[3.8574252E-2,4.7575536E-1,-4.8125666E-1,-1.5595347E-1,9.285679E-1,-5.62712E-2,-8.1029646E-2,-6.981202E-2,3.4318313E-2,2.4595065E-3,9.258976E-2,-4.075603E-2,2.7289445E-2],"categories":[],"categories_nodes":[],"categories_segments":[],"categories_sizes":[],"default_left":[1,0,0,0,1,0,0,0,0,0,0,0,0],"id":3,"left_children":[1,3,5,7,9,11,-1,-1,-1,-1,-1,-1,-1],"loss_changes":[1.3981292E1,9.976595E0,8.528633E0,8.884825E0,8.335428E0,5.030841E0,0E0,0E0,0E0,0E0,0E0,0E0,0E0],"parents":[2147483647,0,0,1,1,2,2,3,3,4,4,5,5],"right_children":[2,4,6,8,10,12,-1,-1,-1,-1,-1,-1,-1],"split_conditions":[9.9E0,8.31E-1,1.216E0,9.99E-1,1.562E-1,1E0,-8.1029646E-2,-6.981202E-2,3.4318313E-2,2.4595065E-3,9.258976E-2,-4.075603E-2,2.7289445E-2],"split_indices":[11,9,6,8,22,19,0,0,0,0,0,0,0],"split_type":[0,0,0,0,0,0,0,0,0,0,0,0,0],"sum_hessian":[6.1530407E1,3.3828144E1,2.7702261E1,1.3765781E1,2.0062365E1,1.8155289E1,9.546971E0,6.116701E0,7.6490808E0,7.4774957E0,1.2584868E1,8.625862E0,9.529428E0],"tree_param":{"num_deleted":"0","num_feature":"32","num_nodes":"13","size_leaf_vector":"1"}},{"base_weights":[-4.630961E-3,9.8771095E-2,-1.5271288E-1,-4.6338186E-1,4.7201166E-1,-7.0087063E-1,3.1711217E-2,5.520578E-2,-1.8696208E-2,1.834457E-2,-9.1699356E-1,-1.0729114E-2,-7.718106E-2],"categories":[],"categories_nodes":[],"categories_segments":[],"categories_sizes":[],"default_left":[0,0,1,0,0,0,0,0,0,0,0,0,0],"id":4,"left_children":[1,-1,3,5,7,9,-1,-1,-1,-1,11,-1,-1],"loss_changes":[1.3011029E1,0E0,1.0639626E1,8.457468E0,5.3427353E0,6.617646E0,0E0,0E0,0E0,0E0,4.5718346E0,0E0,0E0],"parents":[2147483647,0,0,2,2,3,3,4,4,5,5,10,10],"right_children":[2,-1,4,6,8,10,-1,-1,-1,-1,12,-1,-1],"split_conditions":[8.608496E0,9.8771095E-2,-1.56E-1,1.469E2,8.52E-1,-1.702E1,3.1711217E-2,5.520578E-2,-1.8696208E-2,1.834457E-2,2.6E-2,-1.0729114E-2,-7.718106E-2],"split_indices":[13,0,15,0,7,11,0,0,0,0,4,0,0],"split_type":[0,0,0,0,0,0,0,0,0,0,0,0,0],"sum_hessian":[5.9901443E1,5.0641246E0,5.483732E1,3.7039764E1,1.7797552E1,2.997168E1,7.0680866E0,1.22198E1,5.577752E0,5.075458E0,2.4896221E1,7.002589E0,1.7893633E1],"tree_param":{"num_deleted":"0","num_feature":"32","num_nodes":"13","size_leaf_vector":"1"}},{"base_weights":[-2.2760734E-2,-5.5632186E-1,3.391355E-1,-8.2533054E-2,-1.000375E-1,8.5001206E-1,-2.84486E-1,5.2115038E-2,-3.5886034E-2,-0E0,1.1592003E0,1.252553E-2,-8.03459E-2,3.295954E-2,1.1605042E-1],"categories":[],"categories_nodes":[],"categories_segments":[],"categories_sizes":[],"default_left":[0,0,1,0,0,0,0,0,0,0,1,0,0,0,0],"id":5,"left_children":[1,3,5,7,-1,9,11,-1,-1,-1,13,-1,-1,-1,-1],"loss_changes":[1.1553669E1,1.0778334E1,1.1357223E1,6.891137E0,0E0,5.3352804E0,7.4193525E0,0E0,0E0,0E0,5.044586E0,0E0,0E0,0E0,0E0],"parents":[2147483647,0,0,1,1,2,2,3,3,5,5,6,6,10,10],"right_children":[2,4,6,8,-1,10,12,-1,-1,-1,14,-1,-1,-1,-1],"split_conditions":[7.78E-1,2E0,1.083E1,5.61E-1,-1.000375E-1,1.90652E-1,7.5E-1,5.2115038E-2,-3.5886034E-2,-0E0,4.036E-1,1.252553E-2,-8.03459E-2,3.295954E-2,1.1605042E-1],"split_indices":[9,3,11,14,0,5,29,0,0,0,21,0,0,0,0],"split_type":[0,0,0,0,0,0,0,0,0,0,0,0,0,0,0],"sum_hessian":[5.9397434E1,2.443917E1,3.4958263E1,1.6769966E1,7.669204E0,1.9558651E1,1.5399612E1,5.5315704E0,1.1238397E1,5.0716877E0,1.4486963E1,9.990252E0,5.409361E0,7.422391E0,7.064572E0],"tree_param":{"num_deleted":"0","num_feature":"32","num_nodes":"15","size_leaf_vector":"1"}},{"base_weights":[-0E0,9.089453E-2,-1.219668E-1,-4.7476068E-1,3.7037212E-1,-8.4464264E-1,2.417993E-1,-1.1880045E-1,8.262545E-1,-1.6953263E-2,-8.451006E-2,7.228672E-2,-3.563213E-2,3.179505E-2,-5.1013295E-2,1.0147879E-1,5.8612474E-3],"categories":[],"categories_nodes":[],"categories_segments":[],"categories_sizes":[],"default_left":[0,0,1,1,0,0,0,0,0,0,0,0,0,0,0,0,0],"id":6,"left_children":[1,-1,3,5,7,9,11,13,15,-1,-1,-1,-1,-1,-1,-1,-1],"loss_changes":[1.0769803E1,0E0,9.675645E0,8.921036E0,5.336293E0,5.260352E0,7.6704106E0,4.396262E0,5.957739E0,0E0,0E0,0E0,0E0,0E0,0E0,0E0,0E0],"parents":[2147483647,0,0,2,2,3,3,4,4,5,5,6,6,7,7,8,8],"right_children":[2,-1,4,6,8,10,12,14,16,-1,-1,-1,-1,-1,-1,-1,-1],"split_conditions":[8.608496E0,9.089453E-2,7.78E-1,-1.36E-1,5.68E-1,3E0,1.3E1,1.245E0,1.57E-1,-1.6953263E-2,-8.451006E-2,7.228672E-2,-3.563213E-2,3.179505E-2,-5.1013295E-2,1.0147879E-1,5.8612474E-3],"split_indices":[13,0,9,15,10,16,17,9,28,0,0,0,0,0,0,0,0],"split_type":[0,0,0,0,0,0,0,0,0,0,0,0,0,0,0,0,0],"sum_hessian":[6.0539665E1,5.0681715E0,5.5471493E1,3.2775097E1,2.2696398E1,2.1974348E1,1.080075E1,1.0537339E1,1.2159059E1,1.0034474E1,1.1939873E1,5.3700485E0,5.430701E0,5.206028E0,5.3313107E0,5.808817E0,6.350241E0],"tree_param":{"num_deleted":"0","num_feature":"32","num_nodes":"17","size_leaf_vector":"1"}},{"base_weights":[-0E0,6.555388E-2,-1.7515662E-1,-5.9363425E-1,3.3995417E-1,-7.871805E-2,-2.0825382E-1,7.9490185E-1,-1.0561673E-1,2.616386E-2,-4.449033E-2,1.3770709E-3,9.4793245E-2,3.342251E-2,-4.865003E-2],"categories":[],"categories_nodes":[],"categories_segments":[],"categories_sizes":[],"default_left":[0,0,1,0,0,0,0,1,0,0,0,0,0,0,0],"id":7,"left_children":[1,-1,3,5,7,-1,9,11,13,-1,-1,-1,-1,-1,-1],"loss_changes":[9.957858E0,0E0,1.0636579E1,5.9865904E0,4.625476E0,0E0,5.1514306E0,5.1267557E0,4.260699E0,0E0,0E0,0E0,0E0,0E0,0E0],"parents":[2147483647,0,0,2,2,3,3,4,4,6,6,7,7,8,8],"right_children":[2,-1,4,6,8,-1,10,12,14,-1,-1,-1,-1,-1,-1],"split_conditions":[9.3260765E0,6.555388E-2,7.78E-1,9.71E-1,1.171E0,-7.871805E-2,1.538E0,1.1965554E1,1.123E0,2.616386E-2,-4.449033E-2,1.3770709E-3,9.4793245E-2,3.342251E-2,-4.865003E-2],"split_indices":[13,0,9,8,6,0,1,13,9,0,0,0,0,0,0],"split_type":[0,0,0,0,0,0,0,0,0,0,0,0,0,0,0],"sum_hessian":[5.7173393E1,8.287293E0,4.88861E1,2.7389252E1,2.1496847E1,1.0117493E1,1.7271759E1,1.1067948E1,1.04289E1,7.21564E0,1.005612E1,5.3897634E0,5.6781845E0,5.0038905E0,5.425009E0],"tree_param":{"num_deleted":"0","num_feature":"32","num_nodes":"15","size_leaf_vector":"1"}},{"base_weights":[1.1478777E-2,3.8292748E-1,-2.9948322E-2,-1.6102119E-1,7.815815E-1,2.0153902E-2,-6.606991E-2,6.908121E-2,-0E0],"categories":[],"categories_nodes":[],"categories_segments":[],"categories_sizes":[],"default_left":[1,0,0,0,0,0,0,0,0],"id":8,"left_children":[1,3,-1,5,7,-1,-1,-1,-1],"loss_changes":[1.037868E1,7.53694E0,0E0,5.860652E0,4.673046E0,0E0,0E0,0E0,0E0],"parents":[2147483647,0,0,1,1,3,3,4,4],"right_children":[2,4,-1,6,8,-1,-1,-1,-1],"split_conditions":[9.9E0,8.31E-1,-2.9948322E-2,8.47E0,1.2220409E1,2.0153902E-2,-6.606991E-2,6.908121E-2,-0E0],"split_indices":[11,9,0,23,13,0,0,0,0],"split_type":[0,0,0,0,0,0,0,0,0],"sum_hessian":[5.9244484E1,3.364497E1,2.5599514E1,1.3817249E1,1.982772E1,8.6208725E0,5.196377E0,1.4809746E1,5.0179753E0],"tree_param":{"num_deleted":"0","num_feature":"32","num_nodes":"9","size_leaf_vector":"1"}},{"base_weights":[-2.612086E-2,4.5686793E-1,-3.423355E-1,-1.6751505E-2,5.7327893E-2,-7.594362E-1,-0E0,-0E0,-7.3268384E-2,-3.5259593E-2,3.4141332E-2],"categories":[],"categories_nodes":[],"categories_segments":[],"categories_sizes":[],"default_left":[0,1,0,0,0,0,0,0,0,0,0],"id":9,"left_children":[1,3,5,-1,-1,7,9,-1,-1,-1,-1],"loss_changes":[8.745358E0,7.04073E0,5.2163124E0,0E0,0E0,4.4790344E0,5.4442034E0,0E0,0E0,0E0,0E0],"parents":[2147483647,0,0,1,1,2,2,5,5,6,6],"right_children":[2,4,6,-1,-1,8,10,-1,-1,-1,-1],"split_conditions":[4.53E-1,2.18587E-1,1E0,-1.6751505E-2,5.7327893E-2,1.605E0,8.53E-1,-0E0,-7.3268384E-2,-3.5259593E-2,3.4141332E-2],"split_indices":[14,5,19,0,0,1,9,0,0,0,0],"split_type":[0,0,0,0,0,0,0,0,0,0,0],"sum_hessian":[5.7552254E1,2.2285099E1,3.5267155E1,7.9872365E0,1.4297862E1,1.6210646E1,1.905651E1,5.3643866E0,1.0846259E1,9.152418E0,9.904092E0],"tree_param":{"num_deleted":"0","num_feature":"32","num_nodes":"11","size_leaf_vector":"1"}},{"base_weights":[-9.965905E-3,5.377476E-2,-1.9194598E-1,6.496992E-2,-4.713979E-2,5.050271E-1,-2.5201967E-1,8.319267E-2,-8.105397E-3,-4.737949E-2,2.845554E-2],"categories":[],"categories_nodes":[],"categories_segments":[],"categories_sizes":[],"default_left":[0,0,0,0,0,0,0,0,0,0,0],"id":10,"left_children":[1,-1,3,5,-1,7,9,-1,-1,-1,-1],"loss_changes":[8.6625595E0,0E0,6.8968716E0,4.584998E0,0E0,7.2932067E0,6.1170583E0,0E0,0E0,0E0,0E0],"parents":[2147483647,0,0,2,2,3,3,5,5,6,6],"right_children":[2,-1,4,6,-1,8,10,-1,-1,-1,-1],"split_conditions":[9.462732E0,5.377476E-2,1.227E0,6.4E1,-4.713979E-2,5.32E-1,5.74E-1,8.319267E-2,-8.105397E-3,-4.737949E-2,2.845554E-2],"split_indices":[13,0,6,25,0,10,10,0,0,0,0],"split_type":[0,0,0,0,0,0,0,0,0,0,0],"sum_hessian":[5.837845E1,1.00279255E1,4.835052E1,3.2164127E1,1.6186394E1,1.3980935E1,1.8183195E1,6.5356913E0,7.445244E0,1.10764E1,7.1067944E0],"tree_param":{"num_deleted":"0","num_feature":"32","num_nodes":"11","size_leaf_vector":"1"}},{"base_weights":[1.1764563E-2,-2.3040476E-1,5.116892E-1,-8.1714505E-1,4.870735E-2,6.427107E-2,-0E0,-5.5230283E-3,-9.307419E-2,5.4578137E-2,-2.6043022E-1,2.651387E-2,-4.814122E-2],"categories":[],"categories_nodes":[],"categories_segments":[],"categories_sizes":[],"default_left":[1,0,0,1,0,0,0,0,0,0,0,0,0],"id":11,"left_children":[1,3,5,7,9,-1,-1,-1,-1,-1,11,-1,-1],"loss_changes":[7.120626E0,6.6020374E0,4.8865924E0,5.2184153E0,6.5049543E0,0E0,0E0,0E0,0E0,0E0,5.955864E0,0E0,0E0],"parents":[2147483647,0,0,1,1,2,2,3,3,4,4,10,10],"right_children":[2,4,6,8,10,-1,-1,-1,-1,-1,12,-1,-1],"split_conditions":[-1.56E-1,9.99E-1,1.294E0,1.0926E0,9.226E-1,6.427107E-2,-0E0,-5.5230283E-3,-9.307419E-2,5.4578137E-2,1.149E0,2.651387E-2,-4.814122E-2],"split_indices":[15,8,1,20,21,0,0,0,0,0,6,0,0],"split_type":[0,0,0,0,0,0,0,0,0,0,0,0,0],"sum_hessian":[5.791309E1,3.849062E1,1.9422472E1,1.2856365E1,2.5634254E1,1.0164528E1,9.257944E0,6.1691575E0,6.687207E0,7.546795E0,1.808746E1,7.23166E0,1.08558E1],"tree_param":{"num_deleted":"0","num_feature":"32","num_nodes":"13","size_leaf_vector":"1"}},{"base_weights":[1.5902912E-2,4.9863002E-1,-2.8162658E-1,-1.4864036E-2,5.869855E-2,-9.1901235E-2,-6.717499E-2,3.0134233E-2,-4.7755393E-1,-8.963886E-1,2.1460775E-2,-9.490404E-2,-4.6442347E-3],"categories":[],"categories_nodes":[],"categories_segments":[],"categories_sizes":[],"default_left":[0,1,1,0,0,0,0,0,1,0,0,0,0],"id":12,"left_children":[1,3,5,-1,-1,7,-1,-1,9,11,-1,-1,-1],"loss_changes":[8.5351715E0,7.037961E0,4.695643E0,0E0,0E0,6.2471766E0,0E0,0E0,6.1765785E0,4.9641886E0,0E0,0E0,0E0],"parents":[2147483647,0,0,1,1,2,2,5,5,8,8,9,9],"right_children":[2,4,6,-1,-1,8,-1,-1,10,12,-1,-1,-1],"split_conditions":[4.53E-1,2.18587E-1,5.57E-1,-1.4864036E-2,5.869855E-2,1.6011E0,-6.717499E-2,3.0134233E-2,2.30669E2,2.98E1,2.1460775E-2,-9.490404E-2,-4.6442347E-3],"split_indices":[14,5,28,0,0,24,0,0,12,0,0,0,0],"split_type":[0,0,0,0,0,0,0,0,0,0,0,0,0],"sum_hessian":[5.883946E1,2.2934765E1,3.5904694E1,7.8702874E0,1.5064477E1,2.9095327E1,6.8093643E0,1.1499702E1,1.7595625E1,1.19065895E1,5.6890364E0,6.7809296E0,5.12566E0],"tree_param":{"num_deleted":"0","num_feature":"32","num_nodes":"13","size_leaf_vector":"1"}},{"base_weights":[-9.007264E-3,-2.9227957E-1,5.189207E-1,-5.8655903E-2,1.5279262E-2,5.2315824E-2,-1.3051575E-2,5.6322306E-2,-3.4055874E-1,-6.902897E-2,7.5612296E-3],"categories":[],"categories_nodes":[],"categories_segments":[],"categories_sizes":[],"default_left":[1,0,1,0,0,0,0,0,0,0,0],"id":13,"left_children":[1,3,5,-1,7,-1,-1,-1,9,-1,-1],"loss_changes":[8.473125E0,7.4441557E0,4.271798E0,0E0,7.6955514E0,0E0,0E0,0E0,6.019966E0,0E0,0E0],"parents":[2147483647,0,0,1,1,2,2,4,4,8,8],"right_children":[2,4,6,-1,8,-1,-1,-1,10,-1,-1],"split_conditions":[-1.36E-1,9.99E-1,1.842E1,-5.8655903E-2,8.988E-1,5.2315824E-2,-1.3051575E-2,5.6322306E-2,1E0,-6.902897E-2,7.5612296E-3],"split_indices":[15,8,11,0,21,0,0,0,19,0,0],"split_type":[0,0,0,0,0,0,0,0,0,0,0],"sum_hessian":[5.7247234E1,3.773539E1,1.9511845E1,1.3048388E1,2.4687002E1,1.4332509E1,5.1793365E0,7.5902333E0,1.7096767E1,6.9499197E0,1.0146848E1],"tree_param":{"num_deleted":"0","num_feature":"32","num_nodes":"11","size_leaf_vector":"1"}},{"base_weights":[-0E0,-2.370494E-1,4.9567175E-1,-7.575353E-1,7.696547E-3,5.4915313E-2,-7.5488645E-3,-3.205233E-3,-8.8947386E-2,5.0410077E-2,-2.1573497E-2],"categories":[],"categories_nodes":[],"categories_segments":[],"categories_sizes":[],"default_left":[1,0,1,1,0,0,0,0,0,0,0],"id":14,"left_children":[1,3,5,7,9,-1,-1,-1,-1,-1,-1],"loss_changes":[6.79384E0,5.169298E0,4.338E0,4.9870563E0,6.8544493E0,0E0,0E0,0E0,0E0,0E0,0E0],"parents":[2147483647,0,0,1,1,2,2,3,3,4,4],"right_children":[2,4,6,8,10,-1,-1,-1,-1,-1,-1],"split_conditions":[-1.36E-1,9.99E-1,1.837E0,1.0926E0,9.226E-1,5.4915313E-2,-7.5488645E-3,-3.205233E-3,-8.8947386E-2,5.0410077E-2,-2.1573497E-2],"split_indices":[15,8,1,20,21,0,0,0,0,0,0],"split_type":[0,0,0,0,0,0,0,0,0,0,0],"sum_hessian":[5.718651E1,3.8292477E1,1.8894032E1,1.2754889E1,2.553759E1,1.2415756E1,6.478276E0,6.2134185E0,6.5414705E0,8.18103E0,1.735656E1],"tree_param":{"num_deleted":"0","num_feature":"32","num_nodes":"11","size_leaf_vector":"1"}},{"base_weights":[9.751454E-3,-9.36487E-2,6.1145395E-2,2.3574598E-1,-5.789078E-1,4.590797E-1,-4.608838E-2,-8.4037155E-2,-9.637684E-3,4.8715636E-2,-2.5209209E-2],"categories":[],"categories_nodes":[],"categories_segments":[],"categories_sizes":[],"default_left":[1,1,0,1,1,1,0,0,0,0,0],"id":15,"left_children":[1,3,-1,5,7,9,-1,-1,-1,-1,-1],"loss_changes":[5.764741E0,8.183511E0,0E0,6.139864E0,5.8628955E0,6.127464E0,0E0,0E0,0E0,0E0,0E0],"parents":[2147483647,0,0,1,1,3,3,4,4,5,5],"right_children":[2,4,-1,6,8,10,-1,-1,-1,-1,-1],"split_conditions":[5.46722E2,9.9E0,6.1145395E-2,1.24E-1,-3.1E0,9.04E-1,-4.608838E-2,-8.4037155E-2,-9.637684E-3,4.8715636E-2,-2.5209209E-2],"split_indices":[12,11,0,30,23,7,0,0,0,0,0],"split_type":[0,0,0,0,0,0,0,0,0,0,0],"sum_hessian":[5.6364185E1,5.036338E1,6.000802E0,2.952268E1,2.0840702E1,2.421641E1,5.30627E0,7.484E0,1.3356702E1,1.8357506E1,5.8589044E0],"tree_param":{"num_deleted":"0","num_feature":"32","num_nodes":"11","size_leaf_vector":"1"}},{"base_weights":[-7.27908E-2,2.2507414E-1,-4.593781E-1,-1.6751274E-2,3.844404E-2,-8.4175475E-2,-7.768376E-2,-3.8665306E-2,3.5415534E-2],"categories":[],"categories_nodes":[],"categories_segments":[],"categories_sizes":[],"default_left":[1,0,0,0,0,1,0,0,0],"id":16,"left_children":[1,3,5,-1,-1,7,-1,-1,-1],"loss_changes":[6.345144E0,5.475091E0,6.2023396E0,0E0,0E0,5.303892E0,0E0,0E0,0E0],"parents":[2147483647,0,0,1,1,2,2,5,5],"right_children":[2,4,6,-1,-1,8,-1,-1,-1],"split_conditions":[9.9E0,8.54E-1,1.216E0,-1.6751274E-2,3.844404E-2,1.1965554E1,-7.768376E-2,-3.8665306E-2,3.5415534E-2],"split_indices":[11,9,6,0,0,13,0,0,0],"split_type":[0,0,0,0,0,0,0,0,0],"sum_hessian":[5.431227E1,3.010861E1,2.4203661E1,1.2547339E1,1.7561272E1,1.6393524E1,7.810136E0,9.386226E0,7.0072994E0],"tree_param":{"num_deleted":"0","num_feature":"32","num_nodes":"9","size_leaf_vector":"1"}},{"base_weights":[3.6785383E-2,-3.2005936E-1,3.0741754E-1,-6.698732E-2,5.196801E-2,6.817029E-1,-1.187422E-2,4.986248E-2,-2.4145853E-2,9.7795434E-2,1.957259E-2],"categories":[],"categories_nodes":[],"categories_segments":[],"categories_sizes":[],"default_left":[0,0,0,0,0,0,0,0,0,0,0],"id":17,"left_children":[1,3,5,-1,7,9,-1,-1,-1,-1,-1],"loss_changes":[5.4437733E0,6.665041E0,6.196908E0,0E0,4.77835E0,5.2572136E0,0E0,0E0,0E0,0E0,0E0],"parents":[2147483647,0,0,1,1,2,2,4,4,5,5],"right_children":[2,4,6,-1,8,10,-1,-1,-1,-1,-1],"split_conditions":[7.78E-1,9.99E-1,1.191E0,-6.698732E-2,3.3E0,6.1E1,-1.187422E-2,4.986248E-2,-2.4145853E-2,9.7795434E-2,1.957259E-2],"split_indices":[9,8,6,0,23,25,0,0,0,0,0],"split_type":[0,0,0,0,0,0,0,0,0,0,0],"sum_hessian":[5.641992E1,2.3714832E1,3.270509E1,8.494909E0,1.5219924E1,1.8997948E1,1.3707142E1,5.999767E0,9.220157E0,5.667412E0,1.3330536E1],"tree_param":{"num_deleted":"0","num_feature":"32","num_nodes":"11","size_leaf_vector":"1"}},{"base_weights":[3.4886976E-3,3.8718066E-1,-2.2228496E-1,-1.306659E-2,4.6694912E-2,-2.537559E-2,3.948856E-2],"categories":[],"categories_nodes":[],"categories_segments":[],"categories_sizes":[],"default_left":[0,0,1,0,0,0,0],"id":18,"left_children":[1,3,5,-1,-1,-1,-1],"loss_changes":[4.9665613E0,4.427854E0,4.8221436E0,0E0,0E0,0E0,0E0],"parents":[2147483647,0,0,1,1,2,2],"right_children":[2,4,6,-1,-1,-1,-1],"split_conditions":[4.53E-1,2.13303E-1,6.12319E2,-1.306659E-2,4.6694912E-2,-2.537559E-2,3.948856E-2],"split_indices":[14,5,12,0,0,0,0],"split_type":[0,0,0,0,0,0,0],"sum_hessian":[5.6592728E1,2.1602E1,3.4990726E1,7.3754687E0,1.422653E1,2.947154E1,5.5191865E0],"tree_param":{"num_deleted":"0","num_feature":"32","num_nodes":"7","size_leaf_vector":"1"}},{"base_weights":[-3.7243783E-2,-2.8933287E-1,4.386772E-1,-4.933723E-1,2.9197706E-2,6.2171314E-2,7.960731E-2,-7.8049403E-1,8.664957E-3,4.8053704E-2,-4.60758E-2,-1.1210975E-2,-8.0356084E-2],"categories":[],"categories_nodes":[],"categories_segments":[],"categories_sizes":[],"default_left":[1,0,1,0,0,1,0,0,0,0,0,0,0],"id":19,"left_children":[1,3,5,7,-1,9,-1,11,-1,-1,-1,-1,-1],"loss_changes":[6.3387985E0,5.3552012E0,4.8194265E0,5.317732E0,0E0,6.542761E0,0E0,4.941763E0,0E0,0E0,0E0,0E0,0E0],"parents":[2147483647,0,0,1,1,2,2,3,3,5,5,7,7],"right_children":[2,4,6,8,-1,10,-1,12,-1,-1,-1,-1,-1],"split_conditions":[-1.36E-1,1.469E2,1.2384E0,4.8233E-1,2.9197706E-2,6.27E-1,7.960731E-2,2.7E0,8.664957E-3,4.8053704E-2,-4.60758E-2,-1.1210975E-2,-8.0356084E-2],"split_indices":[15,0,20,5,0,1,0,0,0,0,0,0,0],"split_type":[0,0,0,0,0,0,0,0,0,0,0,0,0],"sum_hessian":[5.3318134E1,3.5389286E1,1.7928846E1,2.8146626E1,7.242662E0,1.2466482E1,5.462364E0,1.9730068E1,8.416557E0,6.904396E0,5.562086E0,8.842359E0,1.0887709E1],"tree_param":{"num_deleted":"0","num_feature":"32","num_nodes":"13","size_leaf_vector":"1"}},{"base_weights":[-1.4327906E-2,-1.24439046E-1,4.8845656E-2,1.8210949E-1,-3.710014E-2,3.789141E-2,-2.8480765E-1,-5.3863302E-2,2.119864E-2],"categories":[],"categories_nodes":[],"categories_segments":[],"categories_sizes":[],"default_left":[1,1,0,1,0,0,0,0,0],"id":20,"left_children":[1,3,-1,5,-1,-1,7,-1,-1],"loss_changes":[4.2482324E0,6.589661E0,0E0,5.2466965E0,0E0,0E0,4.263779E0,0E0,0E0],"parents":[2147483647,0,0,1,1,3,3,6,6],"right_children":[2,4,-1,6,-1,-1,8,-1,-1],"split_conditions":[5.46722E2,9.9E0,4.8845656E-2,4.72E-1,-3.710014E-2,3.789141E-2,2.81E1,-5.3863302E-2,2.119864E-2],"split_indices":[12,11,0,31,0,0,0,0,0],"split_type":[0,0,0,0,0,0,0,0,0],"sum_hessian":[5.3186142E1,4.695284E1,6.2333026E0,2.7344564E1,1.9608276E1,1.5143797E1,1.22007675E1,6.7854834E0,5.415284E0],"tree_param":{"num_deleted":"0","num_feature":"32","num_nodes":"9","size_leaf_vector":"1"}},{"base_weights":[-7.002631E-3,-2.2009228E-1,2.8362544E-2,-5.0788008E-2,2.406205E-2,4.4018142E-2,-2.52172E-1,-5.5726707E-2,1.0183559E-2],"categories":[],"categories_nodes":[],"categories_segments":[],"categories_sizes":[],"default_left":[1,0,0,0,0,0,0,0,0],"id":21,"left_children":[1,3,-1,-1,5,-1,7,-1,-1],"loss_changes":[5.0218043E0,5.3844137E0,0E0,0E0,4.7487736E0,0E0,4.5941668E0,0E0,0E0],"parents":[2147483647,0,0,1,1,4,4,6,6],"right_children":[2,4,-1,-1,6,-1,8,-1,-1],"split_conditions":[-1.36E-1,9.99E-1,2.8362544E-2,-5.0788008E-2,9.226E-1,4.4018142E-2,1E0,-5.5726707E-2,1.0183559E-2],"split_indices":[15,8,0,0,21,0,19,0,0],"split_type":[0,0,0,0,0,0,0,0,0],"sum_hessian":[5.3957375E1,3.705315E1,1.6904222E1,1.1695278E1,2.5357872E1,7.9451528E0,1.7412718E1,7.3958344E0,1.0016884E1],"tree_param":{"num_deleted":"0","num_feature":"32","num_nodes":"9","size_leaf_vector":"1"}},{"base_weights":[-0E0,-2.354647E-1,4.5968708E-1,-5.4410767E-2,1.7789269E-2,6.6792734E-2,-0E0,4.140703E-2,-2.5577143E-1,-6.1548058E-2,9.968239E-3],"categories":[],"categories_nodes":[],"categories_segments":[],"categories_sizes":[],"default_left":[1,0,0,0,0,0,0,0,0,0,0],"id":22,"left_children":[1,3,5,-1,7,-1,-1,-1,9,-1,-1],"loss_changes":[5.7512693E0,5.707204E0,4.663184E0,0E0,4.287989E0,0E0,0E0,0E0,4.9863634E0,0E0,0E0],"parents":[2147483647,0,0,1,1,2,2,4,4,8,8],"right_children":[2,4,6,-1,8,-1,-1,-1,10,-1,-1],"split_conditions":[-1.36E-1,9.99E-1,1.294E0,-5.4410767E-2,9.226E-1,6.6792734E-2,-0E0,4.140703E-2,1E0,-6.1548058E-2,9.968239E-3],"split_indices":[15,8,1,0,21,0,0,0,19,0,0],"split_type":[0,0,0,0,0,0,0,0,0,0,0],"sum_hessian":[5.324081E1,3.5280827E1,1.7959986E1,1.0888017E1,2.4392809E1,7.983019E0,9.976967E0,7.899644E0,1.6493164E1,6.4789567E0,1.0014208E1],"tree_param":{"num_deleted":"0","num_feature":"32","num_nodes":"11","size_leaf_vector":"1"}},{"base_weights":[-0E0,-2.4197325E-2,2.3690628E-1,5.555896E-1,-1.14398915E-2,6.401207E-2,-0E0],"categories":[],"categories_nodes":[],"categories_segments":[],"categories_sizes":[],"default_left":[0,0,0,0,0,0,0],"id":23,"left_children":[1,-1,3,5,-1,-1,-1],"loss_changes":[4.715302E0,0E0,4.33798E0,4.2767906E0,0E0,0E0,0E0],"parents":[2147483647,0,0,2,2,3,3],"right_children":[2,-1,4,6,-1,-1,-1],"split_conditions":[7.78E-1,-2.4197325E-2,1.191E0,1.2455E0,-1.14398915E-2,6.401207E-2,-0E0],"split_indices":[9,0,6,20,0,0,0],"split_type":[0,0,0,0,0,0,0],"sum_hessian":[5.2888466E1,2.1064745E1,3.182372E1,1.8497713E1,1.3326009E1,1.0262121E1,8.235592E0],"tree_param":{"num_deleted":"0","num_feature":"32","num_nodes":"7","size_leaf_vector":"1"}},{"base_weights":[4.370462E-2],"categories":[],"categories_nodes":[],"categories_segments":[],"categories_sizes":[],"default_left":[0],"id":24,"left_children":[-1],"loss_changes":[0E0],"parents":[2147483647],"right_children":[-1],"split_conditions":[2.8359469E-3],"split_indices":[0],"split_type":[0],"sum_hessian":[5.3500164E1],"tree_param":{"num_deleted":"0","num_feature":"32","num_nodes":"1","size_leaf_vector":"1"}},{"base_weights":[1.9357942E-2],"categories":[],"categories_nodes":[],"categories_segments":[],"categories_sizes":[],"default_left":[0],"id":25,"left_children":[-1],"loss_changes":[0E0],"parents":[2147483647],"right_children":[-1],"split_conditions":[1.2561164E-3],"split_indices":[0],"split_type":[0],"sum_hessian":[5.3702152E1],"tree_param":{"num_deleted":"0","num_feature":"32","num_nodes":"1","size_leaf_vector":"1"}},{"base_weights":[-2.9746946E-2,-1.5607951E-2,2.2605347E-2],"categories":[],"categories_nodes":[],"categories_segments":[],"categories_sizes":[],"default_left":[1,0,0],"id":26,"left_children":[1,-1,-1],"loss_changes":[4.2977705E0,0E0,0E0],"parents":[2147483647,0,0],"right_children":[2,-1,-1],"split_conditions":[-1.36E-1,-1.5607951E-2,2.2605347E-2],"split_indices":[15,0,0],"split_type":[0,0,0],"sum_hessian":[5.4448727E1,3.5619633E1,1.8829092E1],"tree_param":{"num_deleted":"0","num_feature":"32","num_nodes":"3","size_leaf_vector":"1"}},{"base_weights":[3.7493322E-2],"categories":[],"categories_nodes":[],"categories_segments":[],"categories_sizes":[],"default_left":[0],"id":27,"left_children":[-1],"loss_changes":[0E0],"parents":[2147483647],"right_children":[-1],"split_conditions":[2.432902E-3],"split_indices":[0],"split_type":[0],"sum_hessian":[5.388586E1],"tree_param":{"num_deleted":"0","num_feature":"32","num_nodes":"1","size_leaf_vector":"1"}},{"base_weights":[-3.5958797E-2,-2.8118774E-1,1.8714743E-2,3.3322442E-2,-3.5278685E-2],"categories":[],"categories_nodes":[],"categories_segments":[],"categories_sizes":[],"default_left":[1,0,0,0,0],"id":28,"left_children":[1,3,-1,-1,-1],"loss_changes":[4.195227E0,6.4234815E0,0E0,0E0,0E0],"parents":[2147483647,0,0,1,1],"right_children":[2,4,-1,-1,-1],"split_conditions":[7.78E-1,9.462732E0,1.8714743E-2,3.3322442E-2,-3.5278685E-2],"split_indices":[9,13,0,0,0],"split_type":[0,0,0,0,0],"sum_hessian":[5.277547E1,3.073624E1,2.203923E1,7.263865E0,2.3472374E1],"tree_param":{"num_deleted":"0","num_feature":"32","num_nodes":"5","size_leaf_vector":"1"}},{"base_weights":[6.0726968E-3],"categories":[],"categories_nodes":[],"categories_segments":[],"categories_sizes":[],"default_left":[0],"id":29,"left_children":[-1],"loss_changes":[0E0],"parents":[2147483647],"right_children":[-1],"split_conditions":[3.940509E-4],"split_indices":[0],"split_type":[0],"sum_hessian":[5.2439877E1],"tree_param":{"num_deleted":"0","num_feature":"32","num_nodes":"1","size_leaf_vector":"1"}},{"base_weights":[-7.0126797E-3],"categories":[],"categories_nodes":[],"categories_segments":[],"categories_sizes":[],"default_left":[0],"id":30,"left_children":[-1],"loss_changes":[0E0],"parents":[2147483647],"right_children":[-1],"split_conditions":[-4.550454E-4],"split_indices":[0],"split_type":[0],"sum_hessian":[5.3383305E1],"tree_param":{"num_deleted":"0","num_feature":"32","num_nodes":"1","size_leaf_vector":"1"}},{"base_weights":[2.233837E-2],"categories":[],"categories_nodes":[],"categories_segments":[],"categories_sizes":[],"default_left":[0],"id":31,"left_children":[-1],"loss_changes":[0E0],"parents":[2147483647],"right_children":[-1],"split_conditions":[1.4495132E-3],"split_indices":[0],"split_type":[0],"sum_hessian":[5.2731388E1],"tree_param":{"num_deleted":"0","num_feature":"32","num_nodes":"1","size_leaf_vector":"1"}},{"base_weights":[-0E0],"categories":[],"categories_nodes":[],"categories_segments":[],"categories_sizes":[],"default_left":[0],"id":32,"left_children":[-1],"loss_changes":[0E0],"parents":[2147483647],"right_children":[-1],"split_conditions":[-0E0],"split_indices":[0],"split_type":[0],"sum_hessian":[5.3157276E1],"tree_param":{"num_deleted":"0","num_feature":"32","num_nodes":"1","size_leaf_vector":"1"}},{"base_weights":[2.5890796E-2],"categories":[],"categories_nodes":[],"categories_segments":[],"categories_sizes":[],"default_left":[0],"id":33,"left_children":[-1],"loss_changes":[0E0],"parents":[2147483647],"right_children":[-1],"split_conditions":[1.6800264E-3],"split_indices":[0],"split_type":[0],"sum_hessian":[5.0367775E1],"tree_param":{"num_deleted":"0","num_feature":"32","num_nodes":"1","size_leaf_vector":"1"}},{"base_weights":[9.2256265E-3,-2.0837666E-1,3.8087153E-1,2.9093532E-2,-2.824641E-2,5.646657E-2,-2.812274E-3],"categories":[],"categories_nodes":[],"categories_segments":[],"categories_sizes":[],"default_left":[1,0,0,0,0,0,0],"id":34,"left_children":[1,3,5,-1,-1,-1,-1],"loss_changes":[4.2782254E0,4.7913184E0,4.449898E0,0E0,0E0,0E0,0E0],"parents":[2147483647,0,0,1,1,2,2],"right_children":[2,4,6,-1,-1,-1,-1],"split_conditions":[8.54E-1,9.462732E0,1.083E1,2.9093532E-2,-2.824641E-2,5.646657E-2,-2.812274E-3],"split_indices":[9,13,11,0,0,0,0],"split_type":[0,0,0,0,0,0,0],"sum_hessian":[5.207306E1,3.2183743E1,1.9889318E1,7.825187E0,2.4358553E1,9.66106E0,1.0228258E1],"tree_param":{"num_deleted":"0","num_feature":"32","num_nodes":"7","size_leaf_vector":"1"}},{"base_weights":[3.3958955E-3,-2.1352331E-1,2.3351891E-2,-5.0787136E-2,3.0419031E-2,4.314369E-2,-2.2953223E-2],"categories":[],"categories_nodes":[],"categories_segments":[],"categories_sizes":[],"default_left":[1,0,0,0,0,0,0],"id":35,"left_children":[1,3,-1,-1,5,-1,-1],"loss_changes":[4.1689377E0,4.788322E0,0E0,0E0,5.5291615E0,0E0,0E0],"parents":[2147483647,0,0,1,1,4,4],"right_children":[2,4,-1,-1,6,-1,-1],"split_conditions":[7.78E-1,9.71E-1,2.3351891E-2,-5.0787136E-2,3.3E0,4.314369E-2,-2.2953223E-2],"split_indices":[9,8,0,0,23,0,0],"split_type":[0,0,0,0,0,0,0],"sum_hessian":[5.3177612E1,3.2382675E1,2.0794935E1,1.0193156E1,2.218952E1,8.7497425E0,1.3439778E1],"tree_param":{"num_deleted":"0","num_feature":"32","num_nodes":"7","size_leaf_vector":"1"}},{"base_weights":[-2.0052006E-3],"categories":[],"categories_nodes":[],"categories_segments":[],"categories_sizes":[],"default_left":[0],"id":36,"left_children":[-1],"loss_changes":[0E0],"parents":[2147483647],"right_children":[-1],"split_conditions":[-1.3011535E-4],"split_indices":[0],"split_type":[0],"sum_hessian":[5.2964355E1],"tree_param":{"num_deleted":"0","num_feature":"32","num_nodes":"1","size_leaf_vector":"1"}},{"base_weights":[-1.8867193E-2],"categories":[],"categories_nodes":[],"categories_segments":[],"categories_sizes":[],"default_left":[0],"id":37,"left_children":[-1],"loss_changes":[0E0],"parents":[2147483647],"right_children":[-1],"split_conditions":[-1.2242723E-3],"split_indices":[0],"split_type":[0],"sum_hessian":[5.3143253E1],"tree_param":{"num_deleted":"0","num_feature":"32","num_nodes":"1","size_leaf_vector":"1"}},{"base_weights":[-0E0],"categories":[],"categories_nodes":[],"categories_segments":[],"categories_sizes":[],"default_left":[0],"id":38,"left_children":[-1],"loss_changes":[0E0],"parents":[2147483647],"right_children":[-1],"split_conditions":[-0E0],"split_indices":[0],"split_type":[0],"sum_hessian":[5.398356E1],"tree_param":{"num_deleted":"0","num_feature":"32","num_nodes":"1","size_leaf_vector":"1"}},{"base_weights":[-0E0],"categories":[],"categories_nodes":[],"categories_segments":[],"categories_sizes":[],"default_left":[0],"id":39,"left_children":[-1],"loss_changes":[0E0],"parents":[2147483647],"right_children":[-1],"split_conditions":[-0E0],"split_indices":[0],"split_type":[0],"sum_hessian":[5.1697445E1],"tree_param":{"num_deleted":"0","num_feature":"32","num_nodes":"1","size_leaf_vector":"1"}},{"base_weights":[2.3317449E-2],"categories":[],"categories_nodes":[],"categories_segments":[],"categories_sizes":[],"default_left":[0],"id":40,"left_children":[-1],"loss_changes":[0E0],"parents":[2147483647],"right_children":[-1],"split_conditions":[1.5130447E-3],"split_indices":[0],"split_type":[0],"sum_hessian":[5.3259674E1],"tree_param":{"num_deleted":"0","num_feature":"32","num_nodes":"1","size_leaf_vector":"1"}},{"base_weights":[-6.3177007E-3],"categories":[],"categories_nodes":[],"categories_segments":[],"categories_sizes":[],"default_left":[0],"id":41,"left_children":[-1],"loss_changes":[0E0],"parents":[2147483647],"right_children":[-1],"split_conditions":[-4.0994896E-4],"split_indices":[0],"split_type":[0],"sum_hessian":[5.2558952E1],"tree_param":{"num_deleted":"0","num_feature":"32","num_nodes":"1","size_leaf_vector":"1"}},{"base_weights":[-1.5696287E-2],"categories":[],"categories_nodes":[],"categories_segments":[],"categories_sizes":[],"default_left":[0],"id":42,"left_children":[-1],"loss_changes":[0E0],"parents":[2147483647],"right_children":[-1],"split_conditions":[-1.0185156E-3],"split_indices":[0],"split_type":[0],"sum_hessian":[5.230633E1],"tree_param":{"num_deleted":"0","num_feature":"32","num_nodes":"1","size_leaf_vector":"1"}},{"base_weights":[4.3324042E-2],"categories":[],"categories_nodes":[],"categories_segments":[],"categories_sizes":[],"default_left":[0],"id":43,"left_children":[-1],"loss_changes":[0E0],"parents":[2147483647],"right_children":[-1],"split_conditions":[2.8112514E-3],"split_indices":[0],"split_type":[0],"sum_hessian":[4.9750854E1],"tree_param":{"num_deleted":"0","num_feature":"32","num_nodes":"1","size_leaf_vector":"1"}},{"base_weights":[-2.0139106E-3],"categories":[],"categories_nodes":[],"categories_segments":[],"categories_sizes":[],"default_left":[0],"id":44,"left_children":[-1],"loss_changes":[0E0],"parents":[2147483647],"right_children":[-1],"split_conditions":[-1.3068054E-4],"split_indices":[0],"split_type":[0],"sum_hessian":[5.3351795E1],"tree_param":{"num_deleted":"0","num_feature":"32","num_nodes":"1","size_leaf_vector":"1"}},{"base_weights":[-1.923399E-2,-1.24834985E-1,5.4162722E-2,8.141654E-5,-7.416084E-2,3.3201173E-2,-2.8153323E-2],"categories":[],"categories_nodes":[],"categories_segments":[],"categories_sizes":[],"default_left":[1,1,0,0,0,0,0],"id":45,"left_children":[1,3,-1,5,-1,-1,-1],"loss_changes":[4.455781E0,6.4339027E0,0E0,9.268384E0,0E0,0E0,0E0],"parents":[2147483647,0,0,1,1,3,3],"right_children":[2,4,-1,6,-1,-1,-1],"split_conditions":[6.12319E2,5.197E-1,5.4162722E-2,1.7082E0,-7.416084E-2,3.3201173E-2,-2.8153323E-2],"split_indices":[12,28,0,24,0,0,0],"split_type":[0,0,0,0,0,0,0],"sum_hessian":[5.247043E1,4.7100765E1,5.369663E0,4.1613167E1,5.487598E0,1.9509249E1,2.2103918E1],"tree_param":{"num_deleted":"0","num_feature":"32","num_nodes":"7","size_leaf_vector":"1"}},{"base_weights":[1.1265153E-2],"categories":[],"categories_nodes":[],"categories_segments":[],"categories_sizes":[],"default_left":[0],"id":46,"left_children":[-1],"loss_changes":[0E0],"parents":[2147483647],"right_children":[-1],"split_conditions":[7.309839E-4],"split_indices":[0],"split_type":[0],"sum_hessian":[5.3022438E1],"tree_param":{"num_deleted":"0","num_feature":"32","num_nodes":"1","size_leaf_vector":"1"}},{"base_weights":[1.2564443E-2],"categories":[],"categories_nodes":[],"categories_segments":[],"categories_sizes":[],"default_left":[0],"id":47,"left_children":[-1],"loss_changes":[0E0],"parents":[2147483647],"right_children":[-1],"split_conditions":[8.1529346E-4],"split_indices":[0],"split_type":[0],"sum_hessian":[5.2912125E1],"tree_param":{"num_deleted":"0","num_feature":"32","num_nodes":"1","size_leaf_vector":"1"}},{"base_weights":[9.796224E-4],"categories":[],"categories_nodes":[],"categories_segments":[],"categories_sizes":[],"default_left":[0],"id":48,"left_children":[-1],"loss_changes":[0E0],"parents":[2147483647],"right_children":[-1],"split_conditions":[6.3566666E-5],"split_indices":[0],"split_type":[0],"sum_hessian":[5.175364E1],"tree_param":{"num_deleted":"0","num_feature":"32","num_nodes":"1","size_leaf_vector":"1"}},{"base_weights":[-2.6425965E-2,2.3753971E-1,-2.2433145E-2,4.8491356E-1,-4.2290453E-2,7.634243E-2,2.8668297E-3],"categories":[],"categories_nodes":[],"categories_segments":[],"categories_sizes":[],"default_left":[0,1,0,0,0,0,0],"id":49,"left_children":[1,3,-1,5,-1,-1,-1],"loss_changes":[4.3564725E0,5.9533024E0,0E0,6.1538167E0,0E0,0E0,0E0],"parents":[2147483647,0,0,1,1,3,3],"right_children":[2,4,-1,6,-1,-1,-1],"split_conditions":[9.9E0,8.71E-1,-2.2433145E-2,4.5E-2,-4.2290453E-2,7.634243E-2,2.8668297E-3],"split_indices":[11,7,0,30,0,0,0],"split_type":[0,0,0,0,0,0,0],"sum_hessian":[5.1190735E1,2.7357058E1,2.3833677E1,2.174506E1,5.611998E0,8.12062E0,1.362444E1],"tree_param":{"num_deleted":"0","num_feature":"32","num_nodes":"7","size_leaf_vector":"1"}},{"base_weights":[-0E0,-1.15006454E-1,5.3195905E-2,6.74572E-3,-5.2173566E-2],"categories":[],"categories_nodes":[],"categories_segments":[],"categories_sizes":[],"default_left":[1,1,0,0,0],"id":50,"left_children":[1,3,-1,-1,-1],"loss_changes":[4.561609E0,7.097302E0,0E0,0E0,0E0],"parents":[2147483647,0,0,1,1],"right_children":[2,4,-1,-1,-1],"split_conditions":[5.46722E2,3.889E1,5.3195905E-2,6.74572E-3,-5.2173566E-2],"split_indices":[12,11,0,0,0],"split_type":[0,0,0,0,0],"sum_hessian":[5.1135197E1,4.523813E1,5.897067E0,3.390109E1,1.1337041E1],"tree_param":{"num_deleted":"0","num_feature":"32","num_nodes":"5","size_leaf_vector":"1"}},{"base_weights":[-0E0],"categories":[],"categories_nodes":[],"categories_segments":[],"categories_sizes":[],"default_left":[0],"id":51,"left_children":[-1],"loss_changes":[0E0],"parents":[2147483647],"right_children":[-1],"split_conditions":[-0E0],"split_indices":[0],"split_type":[0],"sum_hessian":[5.23333E1],"tree_param":{"num_deleted":"0","num_feature":"32","num_nodes":"1","size_leaf_vector":"1"}},{"base_weights":[4.7267873E-2],"categories":[],"categories_nodes":[],"categories_segments":[],"categories_sizes":[],"default_left":[0],"id":52,"left_children":[-1],"loss_changes":[0E0],"parents":[2147483647],"right_children":[-1],"split_conditions":[3.0671626E-3],"split_indices":[0],"split_type":[0],"sum_hessian":[5.15238E1],"tree_param":{"num_deleted":"0","num_feature":"32","num_nodes":"1","size_leaf_vector":"1"}},{"base_weights":[-2.1603452E-2],"categories":[],"categories_nodes":[],"categories_segments":[],"categories_sizes":[],"default_left":[0],"id":53,"left_children":[-1],"loss_changes":[0E0],"parents":[2147483647],"right_children":[-1],"split_conditions":[-1.4018252E-3],"split_indices":[0],"split_type":[0],"sum_hessian":[5.24311E1],"tree_param":{"num_deleted":"0","num_feature":"32","num_nodes":"1","size_leaf_vector":"1"}},{"base_weights":[1.6832296E-3],"categories":[],"categories_nodes":[],"categories_segments":[],"categories_sizes":[],"default_left":[0],"id":54,"left_children":[-1],"loss_changes":[0E0],"parents":[2147483647],"right_children":[-1],"split_conditions":[1.09222994E-4],"split_indices":[0],"split_type":[0],"sum_hessian":[5.250625E1],"tree_param":{"num_deleted":"0","num_feature":"32","num_nodes":"1","size_leaf_vector":"1"}},{"base_weights":[-3.498145E-2],"categories":[],"categories_nodes":[],"categories_segments":[],"categories_sizes":[],"default_left":[0],"id":55,"left_children":[-1],"loss_changes":[0E0],"parents":[2147483647],"right_children":[-1],"split_conditions":[-2.2699093E-3],"split_indices":[0],"split_type":[0],"sum_hessian":[5.102696E1],"tree_param":{"num_deleted":"0","num_feature":"32","num_nodes":"1","size_leaf_vector":"1"}},{"base_weights":[-3.1542495E-2],"categories":[],"categories_nodes":[],"categories_segments":[],"categories_sizes":[],"default_left":[0],"id":56,"left_children":[-1],"loss_changes":[0E0],"parents":[2147483647],"right_children":[-1],"split_conditions":[-2.0467592E-3],"split_indices":[0],"split_type":[0],"sum_hessian":[5.1561134E1],"tree_param":{"num_deleted":"0","num_feature":"32","num_nodes":"1","size_leaf_vector":"1"}},{"base_weights":[-1.01448715E-1,-2.1786165E-1,4.348688E-2,-6.611132E-2,-1.699412E-3],"categories":[],"categories_nodes":[],"categories_segments":[],"categories_sizes":[],"default_left":[1,1,0,0,0],"id":57,"left_children":[1,3,-1,-1,-1],"loss_changes":[4.3505707E0,6.383025E0,0E0,0E0,0E0],"parents":[2147483647,0,0,1,1],"right_children":[2,4,-1,-1,-1],"split_conditions":[5.46722E2,1.57969E-1,4.348688E-2,-6.611132E-2,-1.699412E-3],"split_indices":[12,5,0,0,0],"split_type":[0,0,0,0,0],"sum_hessian":[5.0389183E1,4.4221188E1,6.167999E0,8.147305E0,3.6073883E1],"tree_param":{"num_deleted":"0","num_feature":"32","num_nodes":"5","size_leaf_vector":"1"}},{"base_weights":[-1.6641621E-3],"categories":[],"categories_nodes":[],"categories_segments":[],"categories_sizes":[],"default_left":[0],"id":58,"left_children":[-1],"loss_changes":[0E0],"parents":[2147483647],"right_children":[-1],"split_conditions":[-1.0798573E-4],"split_indices":[0],"split_type":[0],"sum_hessian":[5.0395874E1],"tree_param":{"num_deleted":"0","num_feature":"32","num_nodes":"1","size_leaf_vector":"1"}},{"base_weights":[2.871191E-2],"categories":[],"categories_nodes":[],"categories_segments":[],"categories_sizes":[],"default_left":[0],"id":59,"left_children":[-1],"loss_changes":[0E0],"parents":[2147483647],"right_children":[-1],"split_conditions":[1.8630855E-3],"split_indices":[0],"split_type":[0],"sum_hessian":[5.1860744E1],"tree_param":{"num_deleted":"0","num_feature":"32","num_nodes":"1","size_leaf_vector":"1"}},{"base_weights":[5.3518347E-2],"categories":[],"categories_nodes":[],"categories_segments":[],"categories_sizes":[],"default_left":[0],"id":60,"left_children":[-1],"loss_changes":[0E0],"parents":[2147483647],"right_children":[-1],"split_conditions":[3.4727491E-3],"split_indices":[0],"split_type":[0],"sum_hessian":[5.1079338E1],"tree_param":{"num_deleted":"0","num_feature":"32","num_nodes":"1","size_leaf_vector":"1"}},{"base_weights":[4.6230447E-3],"categories":[],"categories_nodes":[],"categories_segments":[],"categories_sizes":[],"default_left":[0],"id":61,"left_children":[-1],"loss_changes":[0E0],"parents":[2147483647],"right_children":[-1],"split_conditions":[2.999845E-4],"split_indices":[0],"split_type":[0],"sum_hessian":[5.1459427E1],"tree_param":{"num_deleted":"0","num_feature":"32","num_nodes":"1","size_leaf_vector":"1"}},{"base_weights":[-0E0],"categories":[],"categories_nodes":[],"categories_segments":[],"categories_sizes":[],"default_left":[0],"id":62,"left_children":[-1],"loss_changes":[0E0],"parents":[2147483647],"right_children":[-1],"split_conditions":[-0E0],"split_indices":[0],"split_type":[0],"sum_hessian":[5.245883E1],"tree_param":{"num_deleted":"0","num_feature":"32","num_nodes":"1","size_leaf_vector":"1"}},{"base_weights":[2.111156E-3],"categories":[],"categories_nodes":[],"categories_segments":[],"categories_sizes":[],"default_left":[0],"id":63,"left_children":[-1],"loss_changes":[0E0],"parents":[2147483647],"right_children":[-1],"split_conditions":[1.369907E-4],"split_indices":[0],"split_type":[0],"sum_hessian":[5.0712204E1],"tree_param":{"num_deleted":"0","num_feature":"32","num_nodes":"1","size_leaf_vector":"1"}},{"base_weights":[2.3711374E-2],"categories":[],"categories_nodes":[],"categories_segments":[],"categories_sizes":[],"default_left":[0],"id":64,"left_children":[-1],"loss_changes":[0E0],"parents":[2147483647],"right_children":[-1],"split_conditions":[1.5386061E-3],"split_indices":[0],"split_type":[0],"sum_hessian":[5.1896603E1],"tree_param":{"num_deleted":"0","num_feature":"32","num_nodes":"1","size_leaf_vector":"1"}},{"base_weights":[-0E0],"categories":[],"categories_nodes":[],"categories_segments":[],"categories_sizes":[],"default_left":[0],"id":65,"left_children":[-1],"loss_changes":[0E0],"parents":[2147483647],"right_children":[-1],"split_conditions":[-0E0],"split_indices":[0],"split_type":[0],"sum_hessian":[5.260934E1],"tree_param":{"num_deleted":"0","num_feature":"32","num_nodes":"1","size_leaf_vector":"1"}},{"base_weights":[3.5705857E-2],"categories":[],"categories_nodes":[],"categories_segments":[],"categories_sizes":[],"default_left":[0],"id":66,"left_children":[-1],"loss_changes":[0E0],"parents":[2147483647],"right_children":[-1],"split_conditions":[2.3169154E-3],"split_indices":[0],"split_type":[0],"sum_hessian":[5.119067E1],"tree_param":{"num_deleted":"0","num_feature":"32","num_nodes":"1","size_leaf_vector":"1"}},{"base_weights":[1.5451516E-2],"categories":[],"categories_nodes":[],"categories_segments":[],"categories_sizes":[],"default_left":[0],"id":67,"left_children":[-1],"loss_changes":[0E0],"parents":[2147483647],"right_children":[-1],"split_conditions":[1.0026325E-3],"split_indices":[0],"split_type":[0],"sum_hessian":[5.3794518E1],"tree_param":{"num_deleted":"0","num_feature":"32","num_nodes":"1","size_leaf_vector":"1"}},{"base_weights":[-0E0],"categories":[],"categories_nodes":[],"categories_segments":[],"categories_sizes":[],"default_left":[0],"id":68,"left_children":[-1],"loss_changes":[0E0],"parents":[2147483647],"right_children":[-1],"split_conditions":[-0E0],"split_indices":[0],"split_type":[0],"sum_hessian":[5.199171E1],"tree_param":{"num_deleted":"0","num_feature":"32","num_nodes":"1","size_leaf_vector":"1"}},{"base_weights":[-0E0],"categories":[],"categories_nodes":[],"categories_segments":[],"categories_sizes":[],"default_left":[0],"id":69,"left_children":[-1],"loss_changes":[0E0],"parents":[2147483647],"right_children":[-1],"split_conditions":[-0E0],"split_indices":[0],"split_type":[0],"sum_hessian":[5.2599834E1],"tree_param":{"num_deleted":"0","num_feature":"32","num_nodes":"1","size_leaf_vector":"1"}},{"base_weights":[-7.17901E-2,3.1943378E-1,-3.4233135E-1,2.1872074E-5,7.321197E-2,4.8843566E-3,-4.4651344E-2],"categories":[],"categories_nodes":[],"categories_segments":[],"categories_sizes":[],"default_left":[0,1,0,0,0,0,0],"id":70,"left_children":[1,3,5,-1,-1,-1,-1],"loss_changes":[5.2382607E0,4.6231174E0,4.5406947E0,0E0,0E0,0E0,0E0],"parents":[2147483647,0,0,1,1,2,2],"right_children":[2,4,6,-1,-1,-1,-1],"split_conditions":[4.53E-1,7.64305E-1,1.161E0,2.1872074E-5,7.321197E-2,4.8843566E-3,-4.4651344E-2],"split_indices":[14,5,6,0,0,0,0],"split_type":[0,0,0,0,0,0,0],"sum_hessian":[4.9407116E1,1.961138E1,2.9795734E1,1.440771E1,5.2036705E0,1.298741E1,1.6808325E1],"tree_param":{"num_deleted":"0","num_feature":"32","num_nodes":"7","size_leaf_vector":"1"}},{"base_weights":[-0E0],"categories":[],"categories_nodes":[],"categories_segments":[],"categories_sizes":[],"default_left":[0],"id":71,"left_children":[-1],"loss_changes":[0E0],"parents":[2147483647],"right_children":[-1],"split_conditions":[-0E0],"split_indices":[0],"split_type":[0],"sum_hessian":[5.1444145E1],"tree_param":{"num_deleted":"0","num_feature":"32","num_nodes":"1","size_leaf_vector":"1"}},{"base_weights":[-3.7016477E-3],"categories":[],"categories_nodes":[],"categories_segments":[],"categories_sizes":[],"default_left":[0],"id":72,"left_children":[-1],"loss_changes":[0E0],"parents":[2147483647],"right_children":[-1],"split_conditions":[-2.4019602E-4],"split_indices":[0],"split_type":[0],"sum_hessian":[5.0078285E1],"tree_param":{"num_deleted":"0","num_feature":"32","num_nodes":"1","size_leaf_vector":"1"}},{"base_weights":[6.8859435E-3],"categories":[],"categories_nodes":[],"categories_segments":[],"categories_sizes":[],"default_left":[0],"id":73,"left_children":[-1],"loss_changes":[0E0],"parents":[2147483647],"right_children":[-1],"split_conditions":[4.4682162E-4],"split_indices":[0],"split_type":[0],"sum_hessian":[5.2383724E1],"tree_param":{"num_deleted":"0","num_feature":"32","num_nodes":"1","size_leaf_vector":"1"}},{"base_weights":[4.5611136E-2],"categories":[],"categories_nodes":[],"categories_segments":[],"categories_sizes":[],"default_left":[0],"id":74,"left_children":[-1],"loss_changes":[0E0],"parents":[2147483647],"right_children":[-1],"split_conditions":[2.9596586E-3],"split_indices":[0],"split_type":[0],"sum_hessian":[5.038815E1],"tree_param":{"num_deleted":"0","num_feature":"32","num_nodes":"1","size_leaf_vector":"1"}},{"base_weights":[5.4041687E-3,-2.3382871E-1,2.4027154E-2,-5.4475285E-2,9.952984E-4],"categories":[],"categories_nodes":[],"categories_segments":[],"categories_sizes":[],"default_left":[1,0,0,0,0],"id":75,"left_children":[1,3,-1,-1,-1],"loss_changes":[4.547985E0,4.917006E0,0E0,0E0,0E0],"parents":[2147483647,0,0,1,1],"right_children":[2,4,-1,-1,-1],"split_conditions":[7.78E-1,9.71E-1,2.4027154E-2,-5.4475285E-2,9.952984E-4],"split_indices":[9,8,0,0,0],"split_type":[0,0,0,0,0],"sum_hessian":[5.149426E1,3.0458933E1,2.1035328E1,9.332449E0,2.1126484E1],"tree_param":{"num_deleted":"0","num_feature":"32","num_nodes":"5","size_leaf_vector":"1"}},{"base_weights":[2.3757406E-2],"categories":[],"categories_nodes":[],"categories_segments":[],"categories_sizes":[],"default_left":[0],"id":76,"left_children":[-1],"loss_changes":[0E0],"parents":[2147483647],"right_children":[-1],"split_conditions":[1.541593E-3],"split_indices":[0],"split_type":[0],"sum_hessian":[5.156767E1],"tree_param":{"num_deleted":"0","num_feature":"32","num_nodes":"1","size_leaf_vector":"1"}},{"base_weights":[-0E0],"categories":[],"categories_nodes":[],"categories_segments":[],"categories_sizes":[],"default_left":[0],"id":77,"left_children":[-1],"loss_changes":[0E0],"parents":[2147483647],"right_children":[-1],"split_conditions":[-0E0],"split_indices":[0],"split_type":[0],"sum_hessian":[5.1162285E1],"tree_param":{"num_deleted":"0","num_feature":"32","num_nodes":"1","size_leaf_vector":"1"}},{"base_weights":[2.6533597E-3],"categories":[],"categories_nodes":[],"categories_segments":[],"categories_sizes":[],"default_left":[0],"id":78,"left_children":[-1],"loss_changes":[0E0],"parents":[2147483647],"right_children":[-1],"split_conditions":[1.7217372E-4],"split_indices":[0],"split_type":[0],"sum_hessian":[5.161317E1],"tree_param":{"num_deleted":"0","num_feature":"32","num_nodes":"1","size_leaf_vector":"1"}},{"base_weights":[3.1040568E-2],"categories":[],"categories_nodes":[],"categories_segments":[],"categories_sizes":[],"default_left":[0],"id":79,"left_children":[-1],"loss_changes":[0E0],"parents":[2147483647],"right_children":[-1],"split_conditions":[2.0141897E-3],"split_indices":[0],"split_type":[0],"sum_hessian":[4.993891E1],"tree_param":{"num_deleted":"0","num_feature":"32","num_nodes":"1","size_leaf_vector":"1"}},{"base_weights":[1.7308957E-3],"categories":[],"categories_nodes":[],"categories_segments":[],"categories_sizes":[],"default_left":[0],"id":80,"left_children":[-1],"loss_changes":[0E0],"parents":[2147483647],"right_children":[-1],"split_conditions":[1.12316E-4],"split_indices":[0],"split_type":[0],"sum_hessian":[5.1394394E1],"tree_param":{"num_deleted":"0","num_feature":"32","num_nodes":"1","size_leaf_vector":"1"}},{"base_weights":[3.6274314E-2],"categories":[],"categories_nodes":[],"categories_segments":[],"categories_sizes":[],"default_left":[0],"id":81,"left_children":[-1],"loss_changes":[0E0],"parents":[2147483647],"right_children":[-1],"split_conditions":[2.353802E-3],"split_indices":[0],"split_type":[0],"sum_hessian":[5.1540337E1],"tree_param":{"num_deleted":"0","num_feature":"32","num_nodes":"1","size_leaf_vector":"1"}},{"base_weights":[2.0346632E-2],"categories":[],"categories_nodes":[],"categories_segments":[],"categories_sizes":[],"default_left":[0],"id":82,"left_children":[-1],"loss_changes":[0E0],"parents":[2147483647],"right_children":[-1],"split_conditions":[1.3202715E-3],"split_indices":[0],"split_type":[0],"sum_hessian":[5.054899E1],"tree_param":{"num_deleted":"0","num_feature":"32","num_nodes":"1","size_leaf_vector":"1"}},{"base_weights":[2.4712286E-3],"categories":[],"categories_nodes":[],"categories_segments":[],"categories_sizes":[],"default_left":[0],"id":83,"left_children":[-1],"loss_changes":[0E0],"parents":[2147483647],"right_children":[-1],"split_conditions":[1.6035543E-4],"split_indices":[0],"split_type":[0],"sum_hessian":[5.125341E1],"tree_param":{"num_deleted":"0","num_feature":"32","num_nodes":"1","size_leaf_vector":"1"}},{"base_weights":[7.71193E-3],"categories":[],"categories_nodes":[],"categories_segments":[],"categories_sizes":[],"default_left":[0],"id":84,"left_children":[-1],"loss_changes":[0E0],"parents":[2147483647],"right_children":[-1],"split_conditions":[5.00419E-4],"split_indices":[0],"split_type":[0],"sum_hessian":[5.0865788E1],"tree_param":{"num_deleted":"0","num_feature":"32","num_nodes":"1","size_leaf_vector":"1"}},{"base_weights":[-3.0865254E-2],"categories":[],"categories_nodes":[],"categories_segments":[],"categories_sizes":[],"default_left":[0],"id":85,"left_children":[-1],"loss_changes":[0E0],"parents":[2147483647],"right_children":[-1],"split_conditions":[-2.0028139E-3],"split_indices":[0],"split_type":[0],"sum_hessian":[5.1527893E1],"tree_param":{"num_deleted":"0","num_feature":"32","num_nodes":"1","size_leaf_vector":"1"}},{"base_weights":[-3.013486E-2],"categories":[],"categories_nodes":[],"categories_segments":[],"categories_sizes":[],"default_left":[0],"id":86,"left_children":[-1],"loss_changes":[0E0],"parents":[2147483647],"right_children":[-1],"split_conditions":[-1.9554193E-3],"split_indices":[0],"split_type":[0],"sum_hessian":[4.8916946E1],"tree_param":{"num_deleted":"0","num_feature":"32","num_nodes":"1","size_leaf_vector":"1"}},{"base_weights":[-5.266336E-3],"categories":[],"categories_nodes":[],"categories_segments":[],"categories_sizes":[],"default_left":[0],"id":87,"left_children":[-1],"loss_changes":[0E0],"parents":[2147483647],"right_children":[-1],"split_conditions":[-3.41727E-4],"split_indices":[0],"split_type":[0],"sum_hessian":[5.1306854E1],"tree_param":{"num_deleted":"0","num_feature":"32","num_nodes":"1","size_leaf_vector":"1"}},{"base_weights":[-0E0],"categories":[],"categories_nodes":[],"categories_segments":[],"categories_sizes":[],"default_left":[0],"id":88,"left_children":[-1],"loss_changes":[0E0],"parents":[2147483647],"right_children":[-1],"split_conditions":[-0E0],"split_indices":[0],"split_type":[0],"sum_hessian":[5.1789265E1],"tree_param":{"num_deleted":"0","num_feature":"32","num_nodes":"1","size_leaf_vector":"1"}},{"base_weights":[1.2798238E-3],"categories":[],"categories_nodes":[],"categories_segments":[],"categories_sizes":[],"default_left":[0],"id":89,"left_children":[-1],"loss_changes":[0E0],"parents":[2147483647],"right_children":[-1],"split_conditions":[8.304642E-5],"split_indices":[0],"split_type":[0],"sum_hessian":[5.3057728E1],"tree_param":{"num_deleted":"0","num_feature":"32","num_nodes":"1","size_leaf_vector":"1"}},{"base_weights":[-3.473775E-2],"categories":[],"categories_nodes":[],"categories_segments":[],"categories_sizes":[],"default_left":[0],"id":90,"left_children":[-1],"loss_changes":[0E0],"parents":[2147483647],"right_children":[-1],"split_conditions":[-2.254096E-3],"split_indices":[0],"split_type":[0],"sum_hessian":[5.10007E1],"tree_param":{"num_deleted":"0","num_feature":"32","num_nodes":"1","size_leaf_vector":"1"}},{"base_weights":[-0E0],"categories":[],"categories_nodes":[],"categories_segments":[],"categories_sizes":[],"default_left":[0],"id":91,"left_children":[-1],"loss_changes":[0E0],"parents":[2147483647],"right_children":[-1],"split_conditions":[-0E0],"split_indices":[0],"split_type":[0],"sum_hessian":[5.0322723E1],"tree_param":{"num_deleted":"0","num_feature":"32","num_nodes":"1","size_leaf_vector":"1"}},{"base_weights":[-0E0],"categories":[],"categories_nodes":[],"categories_segments":[],"categories_sizes":[],"default_left":[0],"id":92,"left_children":[-1],"loss_changes":[0E0],"parents":[2147483647],"right_children":[-1],"split_conditions":[-0E0],"split_indices":[0],"split_type":[0],"sum_hessian":[5.07872E1],"tree_param":{"num_deleted":"0","num_feature":"32","num_nodes":"1","size_leaf_vector":"1"}},{"base_weights":[3.0134559E-2],"categories":[],"categories_nodes":[],"categories_segments":[],"categories_sizes":[],"default_left":[0],"id":93,"left_children":[-1],"loss_changes":[0E0],"parents":[2147483647],"right_children":[-1],"split_conditions":[1.9553998E-3],"split_indices":[0],"split_type":[0],"sum_hessian":[4.943848E1],"tree_param":{"num_deleted":"0","num_feature":"32","num_nodes":"1","size_leaf_vector":"1"}},{"base_weights":[-5.9677213E-2],"categories":[],"categories_nodes":[],"categories_segments":[],"categories_sizes":[],"default_left":[0],"id":94,"left_children":[-1],"loss_changes":[0E0],"parents":[2147483647],"right_children":[-1],"split_conditions":[-3.8723915E-3],"split_indices":[0],"split_type":[0],"sum_hessian":[4.9846504E1],"tree_param":{"num_deleted":"0","num_feature":"32","num_nodes":"1","size_leaf_vector":"1"}},{"base_weights":[-1.9089477E-2],"categories":[],"categories_nodes":[],"categories_segments":[],"categories_sizes":[],"default_left":[0],"id":95,"left_children":[-1],"loss_changes":[0E0],"parents":[2147483647],"right_children":[-1],"split_conditions":[-1.238696E-3],"split_indices":[0],"split_type":[0],"sum_hessian":[5.1223938E1],"tree_param":{"num_deleted":"0","num_feature":"32","num_nodes":"1","size_leaf_vector":"1"}},{"base_weights":[1.8435987E-2],"categories":[],"categories_nodes":[],"categories_segments":[],"categories_sizes":[],"default_left":[0],"id":96,"left_children":[-1],"loss_changes":[0E0],"parents":[2147483647],"right_children":[-1],"split_conditions":[1.1962918E-3],"split_indices":[0],"split_type":[0],"sum_hessian":[4.9866306E1],"tree_param":{"num_deleted":"0","num_feature":"32","num_nodes":"1","size_leaf_vector":"1"}},{"base_weights":[-0E0],"categories":[],"categories_nodes":[],"categories_segments":[],"categories_sizes":[],"default_left":[0],"id":97,"left_children":[-1],"loss_changes":[0E0],"parents":[2147483647],"right_children":[-1],"split_conditions":[-0E0],"split_indices":[0],"split_type":[0],"sum_hessian":[4.9623478E1],"tree_param":{"num_deleted":"0","num_feature":"32","num_nodes":"1","size_leaf_vector":"1"}},{"base_weights":[-4.7289796E-2],"categories":[],"categories_nodes":[],"categories_segments":[],"categories_sizes":[],"default_left":[0],"id":98,"left_children":[-1],"loss_changes":[0E0],"parents":[2147483647],"right_children":[-1],"split_conditions":[-3.068585E-3],"split_indices":[0],"split_type":[0],"sum_hessian":[5.006751E1],"tree_param":{"num_deleted":"0","num_feature":"32","num_nodes":"1","size_leaf_vector":"1"}},{"base_weights":[-0E0],"categories":[],"categories_nodes":[],"categories_segments":[],"categories_sizes":[],"default_left":[0],"id":99,"left_children":[-1],"loss_changes":[0E0],"parents":[2147483647],"right_children":[-1],"split_conditions":[-0E0],"split_indices":[0],"split_type":[0],"sum_hessian":[5.145809E1],"tree_param":{"num_deleted":"0","num_feature":"32","num_nodes":"1","size_leaf_vector":"1"}},{"base_weights":[1.2391819E-2],"categories":[],"categories_nodes":[],"categories_segments":[],"categories_sizes":[],"default_left":[0],"id":100,"left_children":[-1],"loss_changes":[0E0],"parents":[2147483647],"right_children":[-1],"split_conditions":[8.0409204E-4],"split_indices":[0],"split_type":[0],"sum_hessian":[5.0706684E1],"tree_param":{"num_deleted":"0","num_feature":"32","num_nodes":"1","size_leaf_vector":"1"}},{"base_weights":[-3.3425592E-2],"categories":[],"categories_nodes":[],"categories_segments":[],"categories_sizes":[],"default_left":[0],"id":101,"left_children":[-1],"loss_changes":[0E0],"parents":[2147483647],"right_children":[-1],"split_conditions":[-2.1689516E-3],"split_indices":[0],"split_type":[0],"sum_hessian":[5.0201138E1],"tree_param":{"num_deleted":"0","num_feature":"32","num_nodes":"1","size_leaf_vector":"1"}},{"base_weights":[6.588176E-3],"categories":[],"categories_nodes":[],"categories_segments":[],"categories_sizes":[],"default_left":[0],"id":102,"left_children":[-1],"loss_changes":[0E0],"parents":[2147483647],"right_children":[-1],"split_conditions":[4.274998E-4],"split_indices":[0],"split_type":[0],"sum_hessian":[5.1737926E1],"tree_param":{"num_deleted":"0","num_feature":"32","num_nodes":"1","size_leaf_vector":"1"}},{"base_weights":[3.4887366E-2],"categories":[],"categories_nodes":[],"categories_segments":[],"categories_sizes":[],"default_left":[0],"id":103,"left_children":[-1],"loss_changes":[0E0],"parents":[2147483647],"right_children":[-1],"split_conditions":[2.2638044E-3],"split_indices":[0],"split_type":[0],"sum_hessian":[5.2683407E1],"tree_param":{"num_deleted":"0","num_feature":"32","num_nodes":"1","size_leaf_vector":"1"}},{"base_weights":[-3.773033E-2],"categories":[],"categories_nodes":[],"categories_segments":[],"categories_sizes":[],"default_left":[0],"id":104,"left_children":[-1],"loss_changes":[0E0],"parents":[2147483647],"right_children":[-1],"split_conditions":[-2.4482813E-3],"split_indices":[0],"split_type":[0],"sum_hessian":[5.0851692E1],"tree_param":{"num_deleted":"0","num_feature":"32","num_nodes":"1","size_leaf_vector":"1"}},{"base_weights":[-1.1189682E-2],"categories":[],"categories_nodes":[],"categories_segments":[],"categories_sizes":[],"default_left":[0],"id":105,"left_children":[-1],"loss_changes":[0E0],"parents":[2147483647],"right_children":[-1],"split_conditions":[-7.260867E-4],"split_indices":[0],"split_type":[0],"sum_hessian":[5.1192356E1],"tree_param":{"num_deleted":"0","num_feature":"32","num_nodes":"1","size_leaf_vector":"1"}},{"base_weights":[-0E0],"categories":[],"categories_nodes":[],"categories_segments":[],"categories_sizes":[],"default_left":[0],"id":106,"left_children":[-1],"loss_changes":[0E0],"parents":[2147483647],"right_children":[-1],"split_conditions":[-0E0],"split_indices":[0],"split_type":[0],"sum_hessian":[5.0825928E1],"tree_param":{"num_deleted":"0","num_feature":"32","num_nodes":"1","size_leaf_vector":"1"}},{"base_weights":[8.8908516E-2],"categories":[],"categories_nodes":[],"categories_segments":[],"categories_sizes":[],"default_left":[0],"id":107,"left_children":[-1],"loss_changes":[0E0],"parents":[2147483647],"right_children":[-1],"split_conditions":[5.76918E-3],"split_indices":[0],"split_type":[0],"sum_hessian":[4.984842E1],"tree_param":{"num_deleted":"0","num_feature":"32","num_nodes":"1","size_leaf_vector":"1"}},{"base_weights":[4.973671E-2],"categories":[],"categories_nodes":[],"categories_segments":[],"categories_sizes":[],"default_left":[0],"id":108,"left_children":[-1],"loss_changes":[0E0],"parents":[2147483647],"right_children":[-1],"split_conditions":[3.2273626E-3],"split_indices":[0],"split_type":[0],"sum_hessian":[5.134345E1],"tree_param":{"num_deleted":"0","num_feature":"32","num_nodes":"1","size_leaf_vector":"1"}},{"base_weights":[-0E0],"categories":[],"categories_nodes":[],"categories_segments":[],"categories_sizes":[],"default_left":[0],"id":109,"left_children":[-1],"loss_changes":[0E0],"parents":[2147483647],"right_children":[-1],"split_conditions":[-0E0],"split_indices":[0],"split_type":[0],"sum_hessian":[5.1258953E1],"tree_param":{"num_deleted":"0","num_feature":"32","num_nodes":"1","size_leaf_vector":"1"}},{"base_weights":[-8.323389E-3],"categories":[],"categories_nodes":[],"categories_segments":[],"categories_sizes":[],"default_left":[0],"id":110,"left_children":[-1],"loss_changes":[0E0],"parents":[2147483647],"right_children":[-1],"split_conditions":[-5.4009596E-4],"split_indices":[0],"split_type":[0],"sum_hessian":[5.1353863E1],"tree_param":{"num_deleted":"0","num_feature":"32","num_nodes":"1","size_leaf_vector":"1"}},{"base_weights":[-1.9213675E-2],"categories":[],"categories_nodes":[],"categories_segments":[],"categories_sizes":[],"default_left":[0],"id":111,"left_children":[-1],"loss_changes":[0E0],"parents":[2147483647],"right_children":[-1],"split_conditions":[-1.2467551E-3],"split_indices":[0],"split_type":[0],"sum_hessian":[5.137919E1],"tree_param":{"num_deleted":"0","num_feature":"32","num_nodes":"1","size_leaf_vector":"1"}},{"base_weights":[1.1402319E-2],"categories":[],"categories_nodes":[],"categories_segments":[],"categories_sizes":[],"default_left":[0],"id":112,"left_children":[-1],"loss_changes":[0E0],"parents":[2147483647],"right_children":[-1],"split_conditions":[7.398845E-4],"split_indices":[0],"split_type":[0],"sum_hessian":[5.1383663E1],"tree_param":{"num_deleted":"0","num_feature":"32","num_nodes":"1","size_leaf_vector":"1"}},{"base_weights":[-1.059085E-2],"categories":[],"categories_nodes":[],"categories_segments":[],"categories_sizes":[],"default_left":[0],"id":113,"left_children":[-1],"loss_changes":[0E0],"parents":[2147483647],"right_children":[-1],"split_conditions":[-6.872291E-4],"split_indices":[0],"split_type":[0],"sum_hessian":[5.0899563E1],"tree_param":{"num_deleted":"0","num_feature":"32","num_nodes":"1","size_leaf_vector":"1"}},{"base_weights":[-7.656465E-3],"categories":[],"categories_nodes":[],"categories_segments":[],"categories_sizes":[],"default_left":[0],"id":114,"left_children":[-1],"loss_changes":[0E0],"parents":[2147483647],"right_children":[-1],"split_conditions":[-4.9681996E-4],"split_indices":[0],"split_type":[0],"sum_hessian":[5.084317E1],"tree_param":{"num_deleted":"0","num_feature":"32","num_nodes":"1","size_leaf_vector":"1"}},{"base_weights":[1.4637751E-2],"categories":[],"categories_nodes":[],"categories_segments":[],"categories_sizes":[],"default_left":[0],"id":115,"left_children":[-1],"loss_changes":[0E0],"parents":[2147483647],"right_children":[-1],"split_conditions":[9.4982825E-4],"split_indices":[0],"split_type":[0],"sum_hessian":[5.1468395E1],"tree_param":{"num_deleted":"0","num_feature":"32","num_nodes":"1","size_leaf_vector":"1"}},{"base_weights":[1.4718693E-3],"categories":[],"categories_nodes":[],"categories_segments":[],"categories_sizes":[],"default_left":[0],"id":116,"left_children":[-1],"loss_changes":[0E0],"parents":[2147483647],"right_children":[-1],"split_conditions":[9.550805E-5],"split_indices":[0],"split_type":[0],"sum_hessian":[5.0851994E1],"tree_param":{"num_deleted":"0","num_feature":"32","num_nodes":"1","size_leaf_vector":"1"}},{"base_weights":[-1.926034E-2],"categories":[],"categories_nodes":[],"categories_segments":[],"categories_sizes":[],"default_left":[0],"id":117,"left_children":[-1],"loss_changes":[0E0],"parents":[2147483647],"right_children":[-1],"split_conditions":[-1.2497831E-3],"split_indices":[0],"split_type":[0],"sum_hessian":[4.94988E1],"tree_param":{"num_deleted":"0","num_feature":"32","num_nodes":"1","size_leaf_vector":"1"}},{"base_weights":[6.1086235E-3],"categories":[],"categories_nodes":[],"categories_segments":[],"categories_sizes":[],"default_left":[0],"id":118,"left_children":[-1],"loss_changes":[0E0],"parents":[2147483647],"right_children":[-1],"split_conditions":[3.9638215E-4],"split_indices":[0],"split_type":[0],"sum_hessian":[5.096423E1],"tree_param":{"num_deleted":"0","num_feature":"32","num_nodes":"1","size_leaf_vector":"1"}},{"base_weights":[7.5060144E-2],"categories":[],"categories_nodes":[],"categories_segments":[],"categories_sizes":[],"default_left":[0],"id":119,"left_children":[-1],"loss_changes":[0E0],"parents":[2147483647],"right_children":[-1],"split_conditions":[4.8705735E-3],"split_indices":[0],"split_type":[0],"sum_hessian":[5.0557137E1],"tree_param":{"num_deleted":"0","num_feature":"32","num_nodes":"1","size_leaf_vector":"1"}},{"base_weights":[-5.3020313E-2,-4.8656352E-2,4.856765E-3],"categories":[],"categories_nodes":[],"categories_segments":[],"categories_sizes":[],"default_left":[0,0,0],"id":120,"left_children":[1,-1,-1],"loss_changes":[4.6714573E0,0E0,0E0],"parents":[2147483647,0,0],"right_children":[2,-1,-1],"split_conditions":[3.04E-1,-4.8656352E-2,4.856765E-3],"split_indices":[9,0,0],"split_type":[0,0,0],"sum_hessian":[4.948551E1,8.143822E0,4.134169E1],"tree_param":{"num_deleted":"0","num_feature":"32","num_nodes":"3","size_leaf_vector":"1"}},{"base_weights":[-4.4815414E-2],"categories":[],"categories_nodes":[],"categories_segments":[],"categories_sizes":[],"default_left":[0],"id":121,"left_children":[-1],"loss_changes":[0E0],"parents":[2147483647],"right_children":[-1],"split_conditions":[-2.908025E-3],"split_indices":[0],"split_type":[0],"sum_hessian":[5.0550842E1],"tree_param":{"num_deleted":"0","num_feature":"32","num_nodes":"1","size_leaf_vector":"1"}},{"base_weights":[2.657908E-3],"categories":[],"categories_nodes":[],"categories_segments":[],"categories_sizes":[],"default_left":[0],"id":122,"left_children":[-1],"loss_changes":[0E0],"parents":[2147483647],"right_children":[-1],"split_conditions":[1.7246885E-4],"split_indices":[0],"split_type":[0],"sum_hessian":[5.0878235E1],"tree_param":{"num_deleted":"0","num_feature":"32","num_nodes":"1","size_leaf_vector":"1"}},{"base_weights":[6.6081122E-3],"categories":[],"categories_nodes":[],"categories_segments":[],"categories_sizes":[],"default_left":[0],"id":123,"left_children":[-1],"loss_changes":[0E0],"parents":[2147483647],"right_children":[-1],"split_conditions":[4.2879346E-4],"split_indices":[0],"split_type":[0],"sum_hessian":[5.069236E1],"tree_param":{"num_deleted":"0","num_feature":"32","num_nodes":"1","size_leaf_vector":"1"}},{"base_weights":[1.0108616E-3],"categories":[],"categories_nodes":[],"categories_segments":[],"categories_sizes":[],"default_left":[0],"id":124,"left_children":[-1],"loss_changes":[0E0],"parents":[2147483647],"right_children":[-1],"split_conditions":[6.559375E-5],"split_indices":[0],"split_type":[0],"sum_hessian":[5.051739E1],"tree_param":{"num_deleted":"0","num_feature":"32","num_nodes":"1","size_leaf_vector":"1"}},{"base_weights":[1.8553153E-5],"categories":[],"categories_nodes":[],"categories_segments":[],"categories_sizes":[],"default_left":[0],"id":125,"left_children":[-1],"loss_changes":[0E0],"parents":[2147483647],"right_children":[-1],"split_conditions":[1.2038946E-6],"split_indices":[0],"split_type":[0],"sum_hessian":[5.235961E1],"tree_param":{"num_deleted":"0","num_feature":"32","num_nodes":"1","size_leaf_vector":"1"}},{"base_weights":[-1.2016287E-2],"categories":[],"categories_nodes":[],"categories_segments":[],"categories_sizes":[],"default_left":[0],"id":126,"left_children":[-1],"loss_changes":[0E0],"parents":[2147483647],"right_children":[-1],"split_conditions":[-7.797242E-4],"split_indices":[0],"split_type":[0],"sum_hessian":[5.0856083E1],"tree_param":{"num_deleted":"0","num_feature":"32","num_nodes":"1","size_leaf_vector":"1"}},{"base_weights":[2.634907E-3],"categories":[],"categories_nodes":[],"categories_segments":[],"categories_sizes":[],"default_left":[0],"id":127,"left_children":[-1],"loss_changes":[0E0],"parents":[2147483647],"right_children":[-1],"split_conditions":[1.7097633E-4],"split_indices":[0],"split_type":[0],"sum_hessian":[5.194745E1],"tree_param":{"num_deleted":"0","num_feature":"32","num_nodes":"1","size_leaf_vector":"1"}},{"base_weights":[-2.7606102E-2],"categories":[],"categories_nodes":[],"categories_segments":[],"categories_sizes":[],"default_left":[0],"id":128,"left_children":[-1],"loss_changes":[0E0],"parents":[2147483647],"right_children":[-1],"split_conditions":[-1.7913309E-3],"split_indices":[0],"split_type":[0],"sum_hessian":[5.0800724E1],"tree_param":{"num_deleted":"0","num_feature":"32","num_nodes":"1","size_leaf_vector":"1"}},{"base_weights":[-0E0],"categories":[],"categories_nodes":[],"categories_segments":[],"categories_sizes":[],"default_left":[0],"id":129,"left_children":[-1],"loss_changes":[0E0],"parents":[2147483647],"right_children":[-1],"split_conditions":[-0E0],"split_indices":[0],"split_type":[0],"sum_hessian":[5.1108006E1],"tree_param":{"num_deleted":"0","num_feature":"32","num_nodes":"1","size_leaf_vector":"1"}},{"base_weights":[6.5809065E-3],"categories":[],"categories_nodes":[],"categories_segments":[],"categories_sizes":[],"default_left":[0],"id":130,"left_children":[-1],"loss_changes":[0E0],"parents":[2147483647],"right_children":[-1],"split_conditions":[4.2702808E-4],"split_indices":[0],"split_type":[0],"sum_hessian":[5.1750916E1],"tree_param":{"num_deleted":"0","num_feature":"32","num_nodes":"1","size_leaf_vector":"1"}},{"base_weights":[-2.2169499E-2],"categories":[],"categories_nodes":[],"categories_segments":[],"categories_sizes":[],"default_left":[0],"id":131,"left_children":[-1],"loss_changes":[0E0],"parents":[2147483647],"right_children":[-1],"split_conditions":[-1.4385554E-3],"split_indices":[0],"split_type":[0],"sum_hessian":[5.103717E1],"tree_param":{"num_deleted":"0","num_feature":"32","num_nodes":"1","size_leaf_vector":"1"}},{"base_weights":[-6.9016116E-3],"categories":[],"categories_nodes":[],"categories_segments":[],"categories_sizes":[],"default_left":[0],"id":132,"left_children":[-1],"loss_changes":[0E0],"parents":[2147483647],"right_children":[-1],"split_conditions":[-4.478383E-4],"split_indices":[0],"split_type":[0],"sum_hessian":[5.1427174E1],"tree_param":{"num_deleted":"0","num_feature":"32","num_nodes":"1","size_leaf_vector":"1"}},{"base_weights":[2.9712372E-2],"categories":[],"categories_nodes":[],"categories_segments":[],"categories_sizes":[],"default_left":[0],"id":133,"left_children":[-1],"loss_changes":[0E0],"parents":[2147483647],"right_children":[-1],"split_conditions":[1.9280044E-3],"split_indices":[0],"split_type":[0],"sum_hessian":[5.0212048E1],"tree_param":{"num_deleted":"0","num_feature":"32","num_nodes":"1","size_leaf_vector":"1"}},{"base_weights":[-1.0307239E-3],"categories":[],"categories_nodes":[],"categories_segments":[],"categories_sizes":[],"default_left":[0],"id":134,"left_children":[-1],"loss_changes":[0E0],"parents":[2147483647],"right_children":[-1],"split_conditions":[-6.688259E-5],"split_indices":[0],"split_type":[0],"sum_hessian":[4.9840336E1],"tree_param":{"num_deleted":"0","num_feature":"32","num_nodes":"1","size_leaf_vector":"1"}},{"base_weights":[4.8077103E-2],"categories":[],"categories_nodes":[],"categories_segments":[],"categories_sizes":[],"default_left":[0],"id":135,"left_children":[-1],"loss_changes":[0E0],"parents":[2147483647],"right_children":[-1],"split_conditions":[3.1196726E-3],"split_indices":[0],"split_type":[0],"sum_hessian":[5.1109344E1],"tree_param":{"num_deleted":"0","num_feature":"32","num_nodes":"1","size_leaf_vector":"1"}},{"base_weights":[5.3950874E-3],"categories":[],"categories_nodes":[],"categories_segments":[],"categories_sizes":[],"default_left":[0],"id":136,"left_children":[-1],"loss_changes":[0E0],"parents":[2147483647],"right_children":[-1],"split_conditions":[3.5008154E-4],"split_indices":[0],"split_type":[0],"sum_hessian":[5.2306847E1],"tree_param":{"num_deleted":"0","num_feature":"32","num_nodes":"1","size_leaf_vector":"1"}},{"base_weights":[9.8781E-3],"categories":[],"categories_nodes":[],"categories_segments":[],"categories_sizes":[],"default_left":[0],"id":137,"left_children":[-1],"loss_changes":[0E0],"parents":[2147483647],"right_children":[-1],"split_conditions":[6.409795E-4],"split_indices":[0],"split_type":[0],"sum_hessian":[5.1918884E1],"tree_param":{"num_deleted":"0","num_feature":"32","num_nodes":"1","size_leaf_vector":"1"}},{"base_weights":[-2.3945117E-2],"categories":[],"categories_nodes":[],"categories_segments":[],"categories_sizes":[],"default_left":[0],"id":138,"left_children":[-1],"loss_changes":[0E0],"parents":[2147483647],"right_children":[-1],"split_conditions":[-1.5537734E-3],"split_indices":[0],"split_type":[0],"sum_hessian":[5.1881752E1],"tree_param":{"num_deleted":"0","num_feature":"32","num_nodes":"1","size_leaf_vector":"1"}},{"base_weights":[-1.9850105E-2],"categories":[],"categories_nodes":[],"categories_segments":[],"categories_sizes":[],"default_left":[0],"id":139,"left_children":[-1],"loss_changes":[0E0],"parents":[2147483647],"right_children":[-1],"split_conditions":[-1.2880524E-3],"split_indices":[0],"split_type":[0],"sum_hessian":[5.071621E1],"tree_param":{"num_deleted":"0","num_feature":"32","num_nodes":"1","size_leaf_vector":"1"}},{"base_weights":[-0E0],"categories":[],"categories_nodes":[],"categories_segments":[],"categories_sizes":[],"default_left":[0],"id":140,"left_children":[-1],"loss_changes":[0E0],"parents":[2147483647],"right_children":[-1],"split_conditions":[-0E0],"split_indices":[0],"split_type":[0],"sum_hessian":[4.9701794E1],"tree_param":{"num_deleted":"0","num_feature":"32","num_nodes":"1","size_leaf_vector":"1"}},{"base_weights":[-3.6804106E-2],"categories":[],"categories_nodes":[],"categories_segments":[],"categories_sizes":[],"default_left":[0],"id":141,"left_children":[-1],"loss_changes":[0E0],"parents":[2147483647],"right_children":[-1],"split_conditions":[-2.3881798E-3],"split_indices":[0],"split_type":[0],"sum_hessian":[4.9825966E1],"tree_param":{"num_deleted":"0","num_feature":"32","num_nodes":"1","size_leaf_vector":"1"}},{"base_weights":[2.4278308E-3],"categories":[],"categories_nodes":[],"categories_segments":[],"categories_sizes":[],"default_left":[0],"id":142,"left_children":[-1],"loss_changes":[0E0],"parents":[2147483647],"right_children":[-1],"split_conditions":[1.5753938E-4],"split_indices":[0],"split_type":[0],"sum_hessian":[5.1360153E1],"tree_param":{"num_deleted":"0","num_feature":"32","num_nodes":"1","size_leaf_vector":"1"}},{"base_weights":[5.587815E-2],"categories":[],"categories_nodes":[],"categories_segments":[],"categories_sizes":[],"default_left":[0],"id":143,"left_children":[-1],"loss_changes":[0E0],"parents":[2147483647],"right_children":[-1],"split_conditions":[3.6258744E-3],"split_indices":[0],"split_type":[0],"sum_hessian":[5.0432106E1],"tree_param":{"num_deleted":"0","num_feature":"32","num_nodes":"1","size_leaf_vector":"1"}},{"base_weights":[-3.3440005E-2],"categories":[],"categories_nodes":[],"categories_segments":[],"categories_sizes":[],"default_left":[0],"id":144,"left_children":[-1],"loss_changes":[0E0],"parents":[2147483647],"right_children":[-1],"split_conditions":[-2.1698866E-3],"split_indices":[0],"split_type":[0],"sum_hessian":[5.015386E1],"tree_param":{"num_deleted":"0","num_feature":"32","num_nodes":"1","size_leaf_vector":"1"}},{"base_weights":[-1.423292E-3],"categories":[],"categories_nodes":[],"categories_segments":[],"categories_sizes":[],"default_left":[0],"id":145,"left_children":[-1],"loss_changes":[0E0],"parents":[2147483647],"right_children":[-1],"split_conditions":[-9.235592E-5],"split_indices":[0],"split_type":[0],"sum_hessian":[5.0939465E1],"tree_param":{"num_deleted":"0","num_feature":"32","num_nodes":"1","size_leaf_vector":"1"}},{"base_weights":[-0E0],"categories":[],"categories_nodes":[],"categories_segments":[],"categories_sizes":[],"default_left":[0],"id":146,"left_children":[-1],"loss_changes":[0E0],"parents":[2147483647],"right_children":[-1],"split_conditions":[-0E0],"split_indices":[0],"split_type":[0],"sum_hessian":[5.11823E1],"tree_param":{"num_deleted":"0","num_feature":"32","num_nodes":"1","size_leaf_vector":"1"}},{"base_weights":[5.429398E-3],"categories":[],"categories_nodes":[],"categories_segments":[],"categories_sizes":[],"default_left":[0],"id":147,"left_children":[-1],"loss_changes":[0E0],"parents":[2147483647],"right_children":[-1],"split_conditions":[3.523079E-4],"split_indices":[0],"split_type":[0],"sum_hessian":[5.135188E1],"tree_param":{"num_deleted":"0","num_feature":"32","num_nodes":"1","size_leaf_vector":"1"}},{"base_weights":[-4.1880794E-2],"categories":[],"categories_nodes":[],"categories_segments":[],"categories_sizes":[],"default_left":[0],"id":148,"left_children":[-1],"loss_changes":[0E0],"parents":[2147483647],"right_children":[-1],"split_conditions":[-2.7176007E-3],"split_indices":[0],"split_type":[0],"sum_hessian":[5.126068E1],"tree_param":{"num_deleted":"0","num_feature":"32","num_nodes":"1","size_leaf_vector":"1"}},{"base_weights":[-8.051576E-3],"categories":[],"categories_nodes":[],"categories_segments":[],"categories_sizes":[],"default_left":[0],"id":149,"left_children":[-1],"loss_changes":[0E0],"parents":[2147483647],"right_children":[-1],"split_conditions":[-5.224583E-4],"split_indices":[0],"split_type":[0],"sum_hessian":[5.117583E1],"tree_param":{"num_deleted":"0","num_feature":"32","num_nodes":"1","size_leaf_vector":"1"}},{"base_weights":[7.2372374E-3],"categories":[],"categories_nodes":[],"categories_segments":[],"categories_sizes":[],"default_left":[0],"id":150,"left_children":[-1],"loss_changes":[0E0],"parents":[2147483647],"right_children":[-1],"split_conditions":[4.696167E-4],"split_indices":[0],"split_type":[0],"sum_hessian":[5.1237038E1],"tree_param":{"num_deleted":"0","num_feature":"32","num_nodes":"1","size_leaf_vector":"1"}},{"base_weights":[3.053908E-2],"categories":[],"categories_nodes":[],"categories_segments":[],"categories_sizes":[],"default_left":[0],"id":151,"left_children":[-1],"loss_changes":[0E0],"parents":[2147483647],"right_children":[-1],"split_conditions":[1.9816488E-3],"split_indices":[0],"split_type":[0],"sum_hessian":[5.045224E1],"tree_param":{"num_deleted":"0","num_feature":"32","num_nodes":"1","size_leaf_vector":"1"}},{"base_weights":[1.7889693E-2],"categories":[],"categories_nodes":[],"categories_segments":[],"categories_sizes":[],"default_left":[0],"id":152,"left_children":[-1],"loss_changes":[0E0],"parents":[2147483647],"right_children":[-1],"split_conditions":[1.1608434E-3],"split_indices":[0],"split_type":[0],"sum_hessian":[5.1391937E1],"tree_param":{"num_deleted":"0","num_feature":"32","num_nodes":"1","size_leaf_vector":"1"}},{"base_weights":[1.3902154E-2],"categories":[],"categories_nodes":[],"categories_segments":[],"categories_sizes":[],"default_left":[0],"id":153,"left_children":[-1],"loss_changes":[0E0],"parents":[2147483647],"right_children":[-1],"split_conditions":[9.020961E-4],"split_indices":[0],"split_type":[0],"sum_hessian":[5.10353E1],"tree_param":{"num_deleted":"0","num_feature":"32","num_nodes":"1","size_leaf_vector":"1"}},{"base_weights":[-0E0],"categories":[],"categories_nodes":[],"categories_segments":[],"categories_sizes":[],"default_left":[0],"id":154,"left_children":[-1],"loss_changes":[0E0],"parents":[2147483647],"right_children":[-1],"split_conditions":[-0E0],"split_indices":[0],"split_type":[0],"sum_hessian":[5.166414E1],"tree_param":{"num_deleted":"0","num_feature":"32","num_nodes":"1","size_leaf_vector":"1"}},{"base_weights":[2.7984794E-2],"categories":[],"categories_nodes":[],"categories_segments":[],"categories_sizes":[],"default_left":[0],"id":155,"left_children":[-1],"loss_changes":[0E0],"parents":[2147483647],"right_children":[-1],"split_conditions":[1.8159038E-3],"split_indices":[0],"split_type":[0],"sum_hessian":[5.1427845E1],"tree_param":{"num_deleted":"0","num_feature":"32","num_nodes":"1","size_leaf_vector":"1"}},{"base_weights":[-4.6871744E-2],"categories":[],"categories_nodes":[],"categories_segments":[],"categories_sizes":[],"default_left":[0],"id":156,"left_children":[-1],"loss_changes":[0E0],"parents":[2147483647],"right_children":[-1],"split_conditions":[-3.041458E-3],"split_indices":[0],"split_type":[0],"sum_hessian":[5.0216568E1],"tree_param":{"num_deleted":"0","num_feature":"32","num_nodes":"1","size_leaf_vector":"1"}},{"base_weights":[3.8780668E-3],"categories":[],"categories_nodes":[],"categories_segments":[],"categories_sizes":[],"default_left":[0],"id":157,"left_children":[-1],"loss_changes":[0E0],"parents":[2147483647],"right_children":[-1],"split_conditions":[2.5164368E-4],"split_indices":[0],"split_type":[0],"sum_hessian":[5.2812126E1],"tree_param":{"num_deleted":"0","num_feature":"32","num_nodes":"1","size_leaf_vector":"1"}},{"base_weights":[1.775059E-3],"categories":[],"categories_nodes":[],"categories_segments":[],"categories_sizes":[],"default_left":[0],"id":158,"left_children":[-1],"loss_changes":[0E0],"parents":[2147483647],"right_children":[-1],"split_conditions":[1.1518171E-4],"split_indices":[0],"split_type":[0],"sum_hessian":[5.216782E1],"tree_param":{"num_deleted":"0","num_feature":"32","num_nodes":"1","size_leaf_vector":"1"}},{"base_weights":[2.1564387E-2],"categories":[],"categories_nodes":[],"categories_segments":[],"categories_sizes":[],"default_left":[0],"id":159,"left_children":[-1],"loss_changes":[0E0],"parents":[2147483647],"right_children":[-1],"split_conditions":[1.3992904E-3],"split_indices":[0],"split_type":[0],"sum_hessian":[4.9640892E1],"tree_param":{"num_deleted":"0","num_feature":"32","num_nodes":"1","size_leaf_vector":"1"}},{"base_weights":[-2.5744403E-2],"categories":[],"categories_nodes":[],"categories_segments":[],"categories_sizes":[],"default_left":[0],"id":160,"left_children":[-1],"loss_changes":[0E0],"parents":[2147483647],"right_children":[-1],"split_conditions":[-1.6705272E-3],"split_indices":[0],"split_type":[0],"sum_hessian":[5.0876232E1],"tree_param":{"num_deleted":"0","num_feature":"32","num_nodes":"1","size_leaf_vector":"1"}},{"base_weights":[-0E0],"categories":[],"categories_nodes":[],"categories_segments":[],"categories_sizes":[],"default_left":[0],"id":161,"left_children":[-1],"loss_changes":[0E0],"parents":[2147483647],"right_children":[-1],"split_conditions":[-0E0],"split_indices":[0],"split_type":[0],"sum_hessian":[5.11121E1],"tree_param":{"num_deleted":"0","num_feature":"32","num_nodes":"1","size_leaf_vector":"1"}},{"base_weights":[-9.44058E-3],"categories":[],"categories_nodes":[],"categories_segments":[],"categories_sizes":[],"default_left":[0],"id":162,"left_children":[-1],"loss_changes":[0E0],"parents":[2147483647],"right_children":[-1],"split_conditions":[-6.125893E-4],"split_indices":[0],"split_type":[0],"sum_hessian":[5.1148045E1],"tree_param":{"num_deleted":"0","num_feature":"32","num_nodes":"1","size_leaf_vector":"1"}},{"base_weights":[-2.1819461E-2,1.08674755E-2,-5.114992E-1,-6.810388E-2,6.328142E-5],"categories":[],"categories_nodes":[],"categories_segments":[],"categories_sizes":[],"default_left":[1,0,0,0,0],"id":163,"left_children":[1,-1,3,-1,-1],"loss_changes":[4.7765822E0,0E0,4.4156723E0,0E0,0E0],"parents":[2147483647,0,0,2,2],"right_children":[2,-1,4,-1,-1],"split_conditions":[3.346E1,1.08674755E-2,1.204E1,-6.810388E-2,6.328142E-5],"split_indices":[11,0,23,0,0],"split_type":[0,0,0,0,0],"sum_hessian":[5.0087967E1,3.5551323E1,1.4536645E1,7.461231E0,7.0754137E0],"tree_param":{"num_deleted":"0","num_feature":"32","num_nodes":"5","size_leaf_vector":"1"}},{"base_weights":[1.1228193E-2],"categories":[],"categories_nodes":[],"categories_segments":[],"categories_sizes":[],"default_left":[0],"id":164,"left_children":[-1],"loss_changes":[0E0],"parents":[2147483647],"right_children":[-1],"split_conditions":[7.285856E-4],"split_indices":[0],"split_type":[0],"sum_hessian":[5.1918217E1],"tree_param":{"num_deleted":"0","num_feature":"32","num_nodes":"1","size_leaf_vector":"1"}},{"base_weights":[4.2249584E-3],"categories":[],"categories_nodes":[],"categories_segments":[],"categories_sizes":[],"default_left":[0],"id":165,"left_children":[-1],"loss_changes":[0E0],"parents":[2147483647],"right_children":[-1],"split_conditions":[2.741531E-4],"split_indices":[0],"split_type":[0],"sum_hessian":[5.0638813E1],"tree_param":{"num_deleted":"0","num_feature":"32","num_nodes":"1","size_leaf_vector":"1"}},{"base_weights":[4.761809E-3],"categories":[],"categories_nodes":[],"categories_segments":[],"categories_sizes":[],"default_left":[0],"id":166,"left_children":[-1],"loss_changes":[0E0],"parents":[2147483647],"right_children":[-1],"split_conditions":[3.0898876E-4],"split_indices":[0],"split_type":[0],"sum_hessian":[5.0411083E1],"tree_param":{"num_deleted":"0","num_feature":"32","num_nodes":"1","size_leaf_vector":"1"}},{"base_weights":[-0E0],"categories":[],"categories_nodes":[],"categories_segments":[],"categories_sizes":[],"default_left":[0],"id":167,"left_children":[-1],"loss_changes":[0E0],"parents":[2147483647],"right_children":[-1],"split_conditions":[-0E0],"split_indices":[0],"split_type":[0],"sum_hessian":[5.1349792E1],"tree_param":{"num_deleted":"0","num_feature":"32","num_nodes":"1","size_leaf_vector":"1"}},{"base_weights":[2.346167E-2],"categories":[],"categories_nodes":[],"categories_segments":[],"categories_sizes":[],"default_left":[0],"id":168,"left_children":[-1],"loss_changes":[0E0],"parents":[2147483647],"right_children":[-1],"split_conditions":[1.522403E-3],"split_indices":[0],"split_type":[0],"sum_hessian":[5.1975677E1],"tree_param":{"num_deleted":"0","num_feature":"32","num_nodes":"1","size_leaf_vector":"1"}},{"base_weights":[9.8569505E-3],"categories":[],"categories_nodes":[],"categories_segments":[],"categories_sizes":[],"default_left":[0],"id":169,"left_children":[-1],"loss_changes":[0E0],"parents":[2147483647],"right_children":[-1],"split_conditions":[6.3960714E-4],"split_indices":[0],"split_type":[0],"sum_hessian":[5.1524746E1],"tree_param":{"num_deleted":"0","num_feature":"32","num_nodes":"1","size_leaf_vector":"1"}},{"base_weights":[9.871358E-3],"categories":[],"categories_nodes":[],"categories_segments":[],"categories_sizes":[],"default_left":[0],"id":170,"left_children":[-1],"loss_changes":[0E0],"parents":[2147483647],"right_children":[-1],"split_conditions":[6.40542E-4],"split_indices":[0],"split_type":[0],"sum_hessian":[5.1314796E1],"tree_param":{"num_deleted":"0","num_feature":"32","num_nodes":"1","size_leaf_vector":"1"}},{"base_weights":[1.6391847E-2],"categories":[],"categories_nodes":[],"categories_segments":[],"categories_sizes":[],"default_left":[0],"id":171,"left_children":[-1],"loss_changes":[0E0],"parents":[2147483647],"right_children":[-1],"split_conditions":[1.0636497E-3],"split_indices":[0],"split_type":[0],"sum_hessian":[5.150766E1],"tree_param":{"num_deleted":"0","num_feature":"32","num_nodes":"1","size_leaf_vector":"1"}},{"base_weights":[-0E0],"categories":[],"categories_nodes":[],"categories_segments":[],"categories_sizes":[],"default_left":[0],"id":172,"left_children":[-1],"loss_changes":[0E0],"parents":[2147483647],"right_children":[-1],"split_conditions":[-0E0],"split_indices":[0],"split_type":[0],"sum_hessian":[5.0729675E1],"tree_param":{"num_deleted":"0","num_feature":"32","num_nodes":"1","size_leaf_vector":"1"}},{"base_weights":[-0E0],"categories":[],"categories_nodes":[],"categories_segments":[],"categories_sizes":[],"default_left":[0],"id":173,"left_children":[-1],"loss_changes":[0E0],"parents":[2147483647],"right_children":[-1],"split_conditions":[-0E0],"split_indices":[0],"split_type":[0],"sum_hessian":[5.06459E1],"tree_param":{"num_deleted":"0","num_feature":"32","num_nodes":"1","size_leaf_vector":"1"}},{"base_weights":[-3.38103E-2],"categories":[],"categories_nodes":[],"categories_segments":[],"categories_sizes":[],"default_left":[0],"id":174,"left_children":[-1],"loss_changes":[0E0],"parents":[2147483647],"right_children":[-1],"split_conditions":[-2.1939147E-3],"split_indices":[0],"split_type":[0],"sum_hessian":[4.9894527E1],"tree_param":{"num_deleted":"0","num_feature":"32","num_nodes":"1","size_leaf_vector":"1"}},{"base_weights":[-1.0525734E-2],"categories":[],"categories_nodes":[],"categories_segments":[],"categories_sizes":[],"default_left":[0],"id":175,"left_children":[-1],"loss_changes":[0E0],"parents":[2147483647],"right_children":[-1],"split_conditions":[-6.830038E-4],"split_indices":[0],"split_type":[0],"sum_hessian":[5.1949615E1],"tree_param":{"num_deleted":"0","num_feature":"32","num_nodes":"1","size_leaf_vector":"1"}},{"base_weights":[-0E0],"categories":[],"categories_nodes":[],"categories_segments":[],"categories_sizes":[],"default_left":[0],"id":176,"left_children":[-1],"loss_changes":[0E0],"parents":[2147483647],"right_children":[-1],"split_conditions":[-0E0],"split_indices":[0],"split_type":[0],"sum_hessian":[5.072866E1],"tree_param":{"num_deleted":"0","num_feature":"32","num_nodes":"1","size_leaf_vector":"1"}},{"base_weights":[1.7052643E-2],"categories":[],"categories_nodes":[],"categories_segments":[],"categories_sizes":[],"default_left":[0],"id":177,"left_children":[-1],"loss_changes":[0E0],"parents":[2147483647],"right_children":[-1],"split_conditions":[1.1065281E-3],"split_indices":[0],"split_type":[0],"sum_hessian":[5.077217E1],"tree_param":{"num_deleted":"0","num_feature":"32","num_nodes":"1","size_leaf_vector":"1"}},{"base_weights":[-0E0],"categories":[],"categories_nodes":[],"categories_segments":[],"categories_sizes":[],"default_left":[0],"id":178,"left_children":[-1],"loss_changes":[0E0],"parents":[2147483647],"right_children":[-1],"split_conditions":[-0E0],"split_indices":[0],"split_type":[0],"sum_hessian":[5.0975292E1],"tree_param":{"num_deleted":"0","num_feature":"32","num_nodes":"1","size_leaf_vector":"1"}},{"base_weights":[9.18607E-3],"categories":[],"categories_nodes":[],"categories_segments":[],"categories_sizes":[],"default_left":[0],"id":179,"left_children":[-1],"loss_changes":[0E0],"parents":[2147483647],"right_children":[-1],"split_conditions":[5.9607445E-4],"split_indices":[0],"split_type":[0],"sum_hessian":[5.096044E1],"tree_param":{"num_deleted":"0","num_feature":"32","num_nodes":"1","size_leaf_vector":"1"}},{"base_weights":[7.4021644E-3],"categories":[],"categories_nodes":[],"categories_segments":[],"categories_sizes":[],"default_left":[0],"id":180,"left_children":[-1],"loss_changes":[0E0],"parents":[2147483647],"right_children":[-1],"split_conditions":[4.8031865E-4],"split_indices":[0],"split_type":[0],"sum_hessian":[5.0488186E1],"tree_param":{"num_deleted":"0","num_feature":"32","num_nodes":"1","size_leaf_vector":"1"}},{"base_weights":[5.1528443E-2],"categories":[],"categories_nodes":[],"categories_segments":[],"categories_sizes":[],"default_left":[0],"id":181,"left_children":[-1],"loss_changes":[0E0],"parents":[2147483647],"right_children":[-1],"split_conditions":[3.3436264E-3],"split_indices":[0],"split_type":[0],"sum_hessian":[5.0207905E1],"tree_param":{"num_deleted":"0","num_feature":"32","num_nodes":"1","size_leaf_vector":"1"}},{"base_weights":[-0E0],"categories":[],"categories_nodes":[],"categories_segments":[],"categories_sizes":[],"default_left":[0],"id":182,"left_children":[-1],"loss_changes":[0E0],"parents":[2147483647],"right_children":[-1],"split_conditions":[-0E0],"split_indices":[0],"split_type":[0],"sum_hessian":[5.16049E1],"tree_param":{"num_deleted":"0","num_feature":"32","num_nodes":"1","size_leaf_vector":"1"}},{"base_weights":[-0E0],"categories":[],"categories_nodes":[],"categories_segments":[],"categories_sizes":[],"default_left":[0],"id":183,"left_children":[-1],"loss_changes":[0E0],"parents":[2147483647],"right_children":[-1],"split_conditions":[-0E0],"split_indices":[0],"split_type":[0],"sum_hessian":[5.0742065E1],"tree_param":{"num_deleted":"0","num_feature":"32","num_nodes":"1","size_leaf_vector":"1"}},{"base_weights":[-0E0],"categories":[],"categories_nodes":[],"categories_segments":[],"categories_sizes":[],"default_left":[0],"id":184,"left_children":[-1],"loss_changes":[0E0],"parents":[2147483647],"right_children":[-1],"split_conditions":[-0E0],"split_indices":[0],"split_type":[0],"sum_hessian":[4.9975395E1],"tree_param":{"num_deleted":"0","num_feature":"32","num_nodes":"1","size_leaf_vector":"1"}},{"base_weights":[-0E0],"categories":[],"categories_nodes":[],"categories_segments":[],"categories_sizes":[],"default_left":[0],"id":185,"left_children":[-1],"loss_changes":[0E0],"parents":[2147483647],"right_children":[-1],"split_conditions":[-0E0],"split_indices":[0],"split_type":[0],"sum_hessian":[5.1413418E1],"tree_param":{"num_deleted":"0","num_feature":"32","num_nodes":"1","size_leaf_vector":"1"}},{"base_weights":[-6.424099E-2],"categories":[],"categories_nodes":[],"categories_segments":[],"categories_sizes":[],"default_left":[0],"id":186,"left_children":[-1],"loss_changes":[0E0],"parents":[2147483647],"right_children":[-1],"split_conditions":[-4.1685305E-3],"split_indices":[0],"split_type":[0],"sum_hessian":[5.0520687E1],"tree_param":{"num_deleted":"0","num_feature":"32","num_nodes":"1","size_leaf_vector":"1"}},{"base_weights":[1.687302E-2],"categories":[],"categories_nodes":[],"categories_segments":[],"categories_sizes":[],"default_left":[0],"id":187,"left_children":[-1],"loss_changes":[0E0],"parents":[2147483647],"right_children":[-1],"split_conditions":[1.0948726E-3],"split_indices":[0],"split_type":[0],"sum_hessian":[5.094282E1],"tree_param":{"num_deleted":"0","num_feature":"32","num_nodes":"1","size_leaf_vector":"1"}},{"base_weights":[1.8253041E-2],"categories":[],"categories_nodes":[],"categories_segments":[],"categories_sizes":[],"default_left":[0],"id":188,"left_children":[-1],"loss_changes":[0E0],"parents":[2147483647],"right_children":[-1],"split_conditions":[1.1844207E-3],"split_indices":[0],"split_type":[0],"sum_hessian":[4.97562E1],"tree_param":{"num_deleted":"0","num_feature":"32","num_nodes":"1","size_leaf_vector":"1"}},{"base_weights":[2.3160245E-2],"categories":[],"categories_nodes":[],"categories_segments":[],"categories_sizes":[],"default_left":[0],"id":189,"left_children":[-1],"loss_changes":[0E0],"parents":[2147483647],"right_children":[-1],"split_conditions":[1.5028439E-3],"split_indices":[0],"split_type":[0],"sum_hessian":[5.083303E1],"tree_param":{"num_deleted":"0","num_feature":"32","num_nodes":"1","size_leaf_vector":"1"}},{"base_weights":[3.1207709E-2],"categories":[],"categories_nodes":[],"categories_segments":[],"categories_sizes":[],"default_left":[0],"id":190,"left_children":[-1],"loss_changes":[0E0],"parents":[2147483647],"right_children":[-1],"split_conditions":[2.0250354E-3],"split_indices":[0],"split_type":[0],"sum_hessian":[5.055764E1],"tree_param":{"num_deleted":"0","num_feature":"32","num_nodes":"1","size_leaf_vector":"1"}},{"base_weights":[-1.7028088E-2],"categories":[],"categories_nodes":[],"categories_segments":[],"categories_sizes":[],"default_left":[0],"id":191,"left_children":[-1],"loss_changes":[0E0],"parents":[2147483647],"right_children":[-1],"split_conditions":[-1.1049347E-3],"split_indices":[0],"split_type":[0],"sum_hessian":[4.9938522E1],"tree_param":{"num_deleted":"0","num_feature":"32","num_nodes":"1","size_leaf_vector":"1"}},{"base_weights":[-3.4999676E-2],"categories":[],"categories_nodes":[],"categories_segments":[],"categories_sizes":[],"default_left":[0],"id":192,"left_children":[-1],"loss_changes":[0E0],"parents":[2147483647],"right_children":[-1],"split_conditions":[-2.271092E-3],